Omegac_M,Omega_M,pi_Omegac_1_P,pi_Omegac_2_P,Omega_PE,Omega_PX,Omega_PY,Omega_PZ,pi_Omegac_1_PE,pi_Omegac_1_PX,pi_Omegac_1_PY,pi_Omegac_1_PZ,pi_Omegac_2_PE,pi_Omegac_2_PX,pi_Omegac_2_PY,pi_Omegac_2_PZ,pi_mi_Omegac_PE,pi_mi_Omegac_PX,pi_mi_Omegac_PY,pi_mi_Omegac_PZ,sweight_signal,sweight_background
2698.1220726812026,1675.070222408601,13362.570000000002,6621.289999999999,66425.5367811484,-6280.6,-1460.84,66090.59,13363.29888014467,-1005.5042452916252,67.45162414081986,13324.514568868966,6622.760845695378,-432.77684226074206,-239.14062115190993,6602.8022257385455,15028.248125286456,-1647.7341368324696,-242.72961703234327,14935.019796014078,1.2431205459591,-0.24311384961714075
2665.5462916857996,1660.6890889025556,4182.900000000001,4113.38,25675.877761638454,-383.3,-1485.41,25576.15,4185.227874940118,-22.451292759281444,-568.8440038601642,4143.979349456966,4115.747195780587,150.66379007557882,-465.539756107657,4084.172888387964,7204.71201678289,-360.27112021664755,-356.32124226286885,7185.515651771284,-0.2784149116122843,1.2784109144607991
2722.9039201614296,1665.403929982153,15852.79,8454.58,54237.0196183815,-1933.45,670.19,54172.81,15853.404389571213,-175.1483622283011,526.1138234836067,15843.089284607602,8455.731957174126,-15.517614177839079,368.6889547800401,8446.522990833177,5593.901448968849,-207.78872461068298,292.3136628670891,5580.647814906966,-0.2784134020109646,1.2784094048700891
2678.092943666024,1684.5149895444683,10657.320000000002,5141.599999999999,38716.14385514911,2892.31,1273.24,38550.17,10658.233884540901,687.7281782702632,728.8020202196386,10610.10589723481,5143.493998749855,414.82950130671037,279.59470203483585,5117.205667885519,13089.17414583807,1391.0645167627815,396.26591023623735,13008.263247009118,-0.2678884709146995,1.2678845477440237
2716.678060520614,1659.6768510768109,6952.53,8054.41,36776.325075960216,-2534.73,167.43,36650.93,6953.930784533002,-741.8261414883001,-149.00967327780714,6911.23458536709,8055.619181867758,-881.977914245228,-205.33068753299676,8003.341471887905,12678.198269473301,-865.2515972941393,263.71723604281914,12645.118595635784,-0.27792046618364513,1.2779164725071688
2724.7730393416123,1675.8745478107842,25908.56,7382.579999999999,85030.79022486736,301.27,2825.29,84966.78,25908.935933935532,-421.60725037127054,772.4915455030416,25893.608968472523,7383.899201070919,-62.71997564565595,487.45265046820066,7366.202792117967,9276.50002197358,148.1648136256015,409.07277832623043,9265.240382879216,-0.27841487065541276,1.2784108735042157
2690.7891035370826,1676.678338262746,15383.209999999997,9003.490000000002,49814.56706893075,-158.51,-1059.25,49774.82,15383.843143352564,327.03112098191747,-532.3488017235586,15370.517405192082,9004.5717352507,148.53050904669087,-342.4671474952155,8995.748280208203,20654.561570831655,-198.21994685624423,-447.12465206729274,20648.298286451645,1.019507841679327,-0.01950271690835927
2688.4499683284776,1683.4998514999158,7593.96,8960.14,40647.134051042274,-690.14,-2702.37,40516.37,7595.242487029349,162.14704291304,-564.9028189773408,7571.18363422695,8961.226968154291,-232.79375667790364,-306.57424127997825,8951.867298001875,15357.014249507483,-401.58370062512347,-768.4541798566935,15331.882317877773,0.6006695403248345,0.39933264081139414
2732.1717760386455,1658.8657269351247,4500.08,6666.179999999999,21658.900227419213,-2581.97,-573.52,21432.7,4502.24388073056,-372.1616940516108,-66.83224161072019,4484.166492377588,6667.640943210407,-498.3125989279764,121.95863337444295,6646.410041360304,11657.505541241479,-1538.9919921250982,-383.8977869842898,11548.250154297117,-0.27841510491057436,1.2784111077577307
2701.7367049898144,1672.8668506491942,7352.930000000001,6410.64,78441.95809021215,1431.59,-1272.16,78400.73,7354.254519669264,-10.97470108155335,-451.89121932559823,7339.02265064856,6412.1591655834445,318.0241301893713,-189.96970042810113,6399.927919526637,8237.962413338373,356.2227268407155,-81.9121712291492,8228.66578088372,0.6587944240221867,0.3412081656211588
2713.2270440903153,1669.9744758528498,10570.6,12975.62,31799.798391772863,1578.72,-107.41,31716.47,10571.521381294926,476.323857707037,-310.14606268454764,10555.30716570486,12976.370615067057,767.652782944022,-494.98205634838126,12943.431397938162,7817.096083436341,295.3724132120603,-382.1456259903755,7800.912195413413,-0.2722501569633996,1.2722462031383868
2658.664402606208,1678.8207915081348,6424.510000000001,33834.64,149869.34842374173,-6427.08,2569.01,149700.02,6426.025886601748,-195.85175884518128,314.6770036694781,6413.809259092358,33834.927868768624,-1480.0126770015424,348.2204621102902,33800.4610754836,21364.89589183096,-1003.7155269493385,230.97363549323703,21339.59940660245,-0.278415104895219,1.2784111077423754
2692.7123557763716,1674.165538410106,4720.1,6738.790000000001,61226.44748051613,2737.48,-2681.82,61083.46,4722.16305999441,131.7383716810766,-421.7787818882964,4699.371412282248,6740.2352050411255,422.62774356629114,-435.11597785021956,6711.434313191743,13135.341530206813,767.3688855583166,-178.89031284500263,13110.944298922457,1.2798364984027686,-0.27982954401766313
2689.421371530568,1658.1584664922711,7655.32,5075.69,66909.01498488676,4253.26,1740.39,66730.41,7656.592209173463,760.790601395962,562.780014195653,7596.604545377461,5077.60858389811,356.2551016731557,92.76548460939767,5062.322178950785,6028.745805893276,591.5918339676008,321.598932658941,5989.398072043256,0.7806239424166942,0.21937950345589666
2710.561293679675,1658.1584664922711,7655.32,5075.69,66909.01498488676,4253.26,1740.39,66730.41,7656.592209173463,760.790601395962,562.780014195653,7596.604545377461,5077.60858389811,356.2551016731557,92.76548460939767,5062.322178950785,4274.609173254998,187.90710598076467,315.25015260364665,4256.53754708041,-0.24656808093319615,1.2465643076042143
2733.9213372735962,1661.397830141692,6701.510000000001,28291.160000000007,42794.32312720695,-937.97,2783.68,42661.05,6702.963242870707,-189.8443650738553,375.381535335039,6688.294558411675,28291.50427426538,-1153.9037514573943,2157.120163017001,28185.192440007897,4969.78022729132,-236.2147490444917,538.0657533789582,4932.942670432587,-0.27841510493390376,1.27841110778106
2691.313161578947,1664.9022493828459,4282.07,7805.33,18252.94252940057,1750.64,892.64,18070.32,4284.343991800351,552.6733455884399,376.5551201228517,4229.525020553176,7806.577762635544,576.2270253665913,366.5544637049482,7775.395594391011,6703.773067279036,375.0864509995496,66.0732439768398,6691.48995838049,1.1012902834009137,-0.10128458385529959
2692.5952708169625,1672.4928250967178,4380.6900000000005,7623.83,24116.338669107714,-1241.69,-1611.43,23972.11,4382.912824968776,-73.34609485557641,-612.3017672968701,4337.067185579971,7625.107463116554,-20.96637862566489,-389.0894087064035,7613.865884811724,2122.673512713571,-233.38511970917753,-268.22228239847766,2088.0256414908517,1.267438280702733,-0.2674314134534603
2720.6629196963145,1681.9414377440366,18708.409999999996,7441.689999999998,58474.73631094543,-3991.05,2851.65,58244.36,18708.930613032793,-1229.996447411414,1381.677381978127,18616.73121360421,7442.998724390307,-475.55631091510145,433.2569226398081,7413.830635389068,9406.495509315664,-995.1769932591185,687.2259814529021,9327.380179562953,-0.27839962416143976,1.2783956271173962
2716.8917283153282,1663.4686651692243,21114.339999999997,6090.06,32320.00933567161,-2993.53,-224.79,32137.27,21114.801291766296,-2371.6048218311066,-283.5959425471021,20978.808773284487,6091.659113802723,-587.616707187868,-250.68833553898745,6056.458764613063,7312.632060016132,-744.6786051755554,143.53816787563002,7271.860715068509,-0.27799812282448094,1.2779941286022263
2655.4768170005773,1661.6823553253978,9940.55,10283.939999999999,32896.39475291631,3582.56,522.4,32654.31,9941.529774520406,666.2591558027564,199.39836824769282,9916.192481519767,10284.887062033094,696.1259914846652,83.98268517936198,10260.008646983177,8492.556961438397,836.0955923507894,23.104390652708442,8450.1156285393,-0.27841510493564764,1.278411107782804
2730.8904857735097,1670.0481280489378,19816.81,8719.01,39669.41175033983,2536.14,-36.78,39553.0,19817.301494685795,938.8990838485814,-132.43805162480774,19794.11243902919,8720.127025180067,590.5673999732938,-69.88157473426247,8698.705771073157,8582.354959075961,400.8185401706909,345.90135134652303,8564.872062173028,-0.2784151047927564,1.2784111076399136
2689.118676424604,1670.46251080352,8487.46,12363.099999999999,83649.63040940945,-4835.28,559.6,83491.18,8488.607495153476,-563.5592826551903,-84.11633265203966,8468.31167524639,12363.887801382529,-654.4651760136578,-133.7365425122953,12345.040764638336,18792.908286565864,-584.17902889938,321.0349651880327,18780.564244064153,0.7248015580169059,0.2752014955307486
2702.054689945197,1675.7595292881374,37359.57,9251.2,80262.49070228136,-2185.72,5630.77,80017.35,37359.83070812923,-979.7017926128818,2696.3120774704407,37249.26249153583,9252.252774064043,-108.63887295722583,883.8943478513595,9208.237063473063,15437.770931542407,-127.25166895257112,1239.5134517257718,15386.770447216648,0.5997723027019242,0.4002298721284348
2737.3035383766096,1671.4567000075115,9116.470000000001,2242.07,37086.91977006044,-3920.38,3305.88,36692.61,9117.538330935373,-1276.6567555459933,986.9867271968875,8972.515254361842,2246.4099893108946,-436.82544347624236,353.26034646551255,2170.5456789588306,6557.705440439954,-476.98294443006336,609.5105814283394,6510.376702637853,-0.2784151049360815,1.2784111077832379
2684.293569838292,1675.1566344674986,8797.05,4069.3199999999993,36588.86568858893,-170.94,1054.64,36534.88,8798.157117128323,-488.6836582402985,412.5889228716838,8773.77041900416,4071.7128112841856,-245.4749717425208,259.3514086172984,4053.6211154344737,7199.2330459275845,115.1159095620669,358.2579463198177,7188.037010593671,-0.02346710025016333,1.0234648948957317
2722.698569476146,1675.1374570464004,12646.03,16510.34,30489.33009935279,-725.94,-786.39,30424.46,12646.800176964756,-207.31624995210308,-325.79549920208,12640.132595273892,16510.929921442214,-325.43465759595097,-406.46373325682987,16502.127330522642,4115.247483393407,-166.43748284313236,-359.1990935134306,4093.7826603184453,-0.27841300403646585,1.2784090068983873
2707.3467783537317,1686.567594257639,16180.770000000004,13308.889999999998,85927.39155362858,313.14,-5010.51,85764.03,16181.371936522437,245.64282584444163,-650.1100035324039,16165.83849907942,13309.621819844308,-235.4507358589721,-1000.2736232841274,13269.158551379414,19362.943028082682,112.38597084836847,-1051.8009562386708,19333.52443026392,-0.11898539696624576,1.1189825203002945
2696.64799384337,1675.1729761430431,7527.660000000001,5833.56,22893.626483547774,1040.97,-935.28,22789.33,7528.953780624223,169.87854735449886,-355.14249666601836,7517.358589412278,5835.229406696516,654.8353521573489,-393.5458658720057,5783.315189977114,4625.916003482528,389.45498182011454,-429.57316151430354,4587.30973797738,1.373080341983383,-0.3730727322718272
2691.0646854744996,1670.2790186076559,3171.9000000000005,5520.55,47690.55926077718,-2445.46,2543.05,47530.54,3174.969222713155,-33.889458521167825,413.73423980788283,3144.6184336754973,5522.314031063045,-327.3175923398526,150.36380874256483,5508.786274785515,9425.313441662072,-150.20116530614337,359.53064723028757,9416.22168611396,1.0633749797373726,-0.06336954666405717
2673.9582275545945,1680.6882518777127,5276.570000000001,6462.359999999999,34508.58010392922,894.76,-3017.94,34323.59,5278.415569096069,169.72729030485786,-413.6039812436111,5257.595967600136,6463.867010139964,298.80311142841816,-350.90271213168353,6445.904184582588,9951.75876735242,615.7867469389887,-326.6033765484352,9926.336661886975,-0.2778627627050886,1.2778587694341577
2654.910411411402,1660.7790340680842,7656.49,8268.16,27025.473323220445,-3037.04,1420.92,26765.19,7657.762014797519,-903.7208874196039,544.5969121234596,7583.438658092193,8269.337926386595,-725.8284065056885,687.0460858603113,8207.533770007494,11073.129639703304,-1183.9164202346626,308.18709245436975,11004.45740091002,-0.2784151049359023,1.2784111077830587
2698.4827312765474,1678.3309417392993,9113.17,14581.359999999999,56365.30564593259,-4978.61,-4697.42,55922.97,9114.238717746852,-819.4369951792454,-445.20427334138816,9065.32865454034,14582.02795926464,-1102.5610193354796,-1321.5944972394168,14479.427013287106,4651.524403899842,-247.48402846456804,-601.4047002777967,4603.722772609003,1.1991347781434971,-0.19912839093762627
2657.0992138199067,1671.572538061377,10781.07,26473.559999999998,70199.15161968056,-466.52,-3651.2,70082.65,10781.97339544463,-432.3186370209723,-616.4945854875353,10754.743389177116,26473.92791084798,-543.7384988135865,-1648.8836876565979,26416.565070104927,7968.682375824485,22.861478234273648,-468.9106438890376,7953.6167252678515,-0.27841510493142596,1.2784111077785822
2682.3178310119542,1658.319857566688,6140.93,7401.8,52210.89503682636,-1461.3,5259.44,51898.27,6142.515870559537,-336.8815780362409,890.9338159349313,6066.610998152381,7403.1157761564,-56.81072900780131,723.3156248683516,7366.15437578462,2221.369009321903,-228.11915666176452,361.7255828400127,2175.342863431643,-0.16915665910670372,1.1691534298324318
2674.2452268266334,1669.5931390611306,16763.19,6666.129999999999,66529.5440185118,2257.35,-1940.19,66441.95,16763.771023587615,475.9175224304661,-512.2609813422224,16748.600842307333,6667.590954165962,30.815869151672366,-449.5483518713677,6650.883087112428,14418.655528015632,624.9872387620929,-174.64920195845704,14403.368907586857,-0.2777232716351515,1.2777192793445766
2679.8608111070807,1669.5931390611306,16763.19,6666.129999999999,66529.5440185118,2257.35,-1940.19,66441.95,16763.771023587615,475.9175224304661,-512.2609813422224,16748.600842307333,6667.590954165962,30.815869151672366,-449.5483518713677,6650.883087112428,7958.603924029374,19.1746355011826,-459.4110635407613,7944.083979443428,-0.24791764841846026,1.2479138656045918
2708.5174741999954,1674.5544183456545,9878.73,6838.829999999999,75190.71085735591,829.12,3625.4,75080.01,9879.715905231069,42.820899976358994,364.44779961781836,9871.912205078555,6840.254068678718,354.93546321174335,606.2190763035766,6802.654997674092,8605.931849322058,-83.75083940161758,341.86381123693235,8597.598383936416,-0.1853487917400624,1.1853454486659687
2675.737403449171,1667.77538955333,14656.91,9230.03,41756.29103130569,-827.79,-6808.33,41155.41,14657.574516381479,-221.6201140071613,-2786.2017575654854,14387.9454766588,9231.085188431303,85.44296725286247,-1424.2559102207745,9119.081554764616,6241.670671164553,-158.73802435184558,-797.7325008605966,6186.873031572215,-0.2762918121256312,1.2762878298954878
2727.528536133479,1664.194549924978,24592.34,8934.57,72542.44479536859,-684.67,1886.11,72495.59,24592.73605418429,-400.46451880315794,140.12646081032636,24588.6799039672,8935.66007858825,-140.81475462220493,467.9349620435305,8921.196621590514,14220.614936073467,-354.29230717296906,246.23236251045054,14213.382981881216,-0.2784150950045405,1.2784110978517664
2683.12644063332,1681.1609084202728,15689.460000000001,29684.489999999998,55439.29726973999,-2059.44,1965.39,55340.63,15690.080785221464,-687.7167069136543,463.33541808090496,15667.530791831356,29684.818114909776,-632.3581841570542,912.9418641669441,29663.70858203136,14968.790699811916,-575.7582257305504,541.5743032817696,14947.254423442735,-0.12077800817993546,1.1207751189153452
2711.4146488856054,1675.207524457791,6995.139999999999,24753.35,52824.09148815907,-1967.12,1277.73,52745.39,6996.532253536445,-422.74356546110505,146.8813917698035,6980.809219153106,24753.74347806157,-743.5216723344722,439.2395707897763,24738.281677285537,10729.017854737487,-336.7991942257277,-153.36130537870324,10721.725177641956,-0.25902430001031607,1.2590204391378619
2725.162375244795,1663.349857967349,6148.56,8159.779999999999,36659.86863450141,-1076.0,-3682.08,36420.65,6150.143903094933,-378.70719047243676,-650.9731081528978,6102.262281313893,8160.973569591789,-281.95765365750515,-590.2251290514453,8133.5197686475285,21678.879288839536,-219.34948617669957,-2165.3282473302725,21568.902768780976,-0.2784149524584118,1.2784109553066396
2724.0736735574383,1671.0195241228873,13225.799999999997,7974.439999999999,23606.012512692607,-1026.89,-1254.47,23490.92,13226.536417187066,-867.278127341008,-665.9104517317769,13180.522658836797,7975.661306047026,-514.5045703069804,-280.1834523015082,7952.8910211186485,10819.150290927464,-732.9400544187093,-629.2263437675277,10775.036248079989,-0.27841460528947265,1.2784106081401405
2683.3887353443292,1671.0195241228873,13225.799999999997,7974.439999999999,23606.012512692607,-1026.89,-1254.47,23490.92,13226.536417187066,-867.278127341008,-665.9104517317769,13180.522658836797,7975.661306047026,-514.5045703069804,-280.1834523015082,7952.8910211186485,10006.91337220303,-523.6467801436967,-445.54933552020805,9982.29007406931,-0.10190852908774843,1.1019057724396213
2717.8102986382432,1673.7174193991052,12160.9,7961.300000000001,31351.680197314785,-1686.59,2682.45,31146.21,12161.700899346923,-556.6488904233406,1131.442014027921,12095.349097553279,7962.52332148395,-71.06749208422526,464.3627436102686,7947.428159091192,2742.304052740281,-184.35742550130306,433.46943111801465,2697.937759557984,-0.27821883238633405,1.2782148366129122
2731.263642687736,1670.6069256410976,11079.839999999998,15504.160000000003,41653.66760673662,1072.8,-816.58,41598.31,11080.719037173343,837.8189838918034,-233.43184605744582,11045.65178471043,15504.788204318556,669.7798813063537,-318.1144320663424,15486.419063951113,7833.543466731757,398.42695209682194,-281.68025606486003,7817.086125097132,-0.2784151048488333,1.27841110769599
2689.2268953822936,1671.0449575038508,6700.590000000001,10892.33,72254.32017633962,5751.49,2538.43,71960.9,6702.043442359635,377.84452459618296,411.0628275713183,6677.287414446211,10893.224168448742,622.7263540305862,358.3050294431775,10868.609948966405,9136.176151283193,562.5866804588786,-41.1085985263976,9117.67739186891,0.7448181333071209,0.25518506091889576
2674.477636138587,1681.7022625910374,25012.390000000003,15159.030000000002,172211.26718086598,-6544.18,2814.76,172055.64,25012.779403082655,-638.5635396566462,203.6505086633891,25003.40809946201,15159.672506227693,-527.8766186498298,63.086400919917416,15149.704846049042,32509.859602108038,-1065.9119297973116,128.4616366736362,32491.826984018906,-0.27758674466796796,1.2775827533369175
2689.5598163101135,1682.1622246382778,2812.55,5802.24,24615.224414788503,903.48,-3591.7,24276.8,2816.0109122082204,-159.62403260625973,-348.57379109783403,2786.2975402627408,5803.918415413485,162.64422343352084,-676.9138978817107,5760.323206994404,3317.427303691186,352.78406623383484,-184.48944536776673,3290.494036958495,0.8059436600185259,0.1940599638034074
2701.649346145158,1665.1790444273552,5512.02,10384.02,24961.01792624852,3300.0,437.53,24681.94,5513.786760074765,692.9156394276315,420.6583032115053,5452.089414983564,10384.957935185668,1089.8133417695608,278.87240287965534,10322.906975431542,9452.510467890303,1310.3624076476772,472.3357341758413,9348.27917347596,0.6750312573719608,0.3249714463853676
2732.8265786544534,1686.1350034917486,14903.65,10098.229999999998,25886.388895745964,-1047.98,-1352.85,25774.67,14904.303515350046,-746.2180405732208,-440.6153025247659,14878.434061204292,10099.19447718855,-557.834148577015,-306.5455656443356,10078.149632336539,6290.988433368461,-497.18179832690197,-302.45020499677935,6262.458754076535,-0.2784151049257758,1.2784111077729323
2735.022514190009,1671.909537026486,4845.81,3746.97,32000.910615927794,-3759.03,339.31,31733.54,4847.819562574063,-288.1802336298063,376.3803772468513,4822.568249456776,3749.568526654203,-308.7506594002149,301.2453547462374,3722.057018298315,8841.221723810335,-799.6192016250322,376.1057242509828,8795.844202291113,-0.27841510493565436,1.2784111077828104
2738.0038673430254,1670.1270909724385,4020.32,9825.38,22334.99667992588,-128.21,-1424.59,22226.49,4022.7419576174375,-89.92059819083894,-561.6221674217322,3979.8828788648443,9826.371257975945,-214.16198401269142,-589.7267200241059,9805.327591911111,7533.063074744281,252.03681146849087,-618.2171437831435,7502.122655735336,-0.2784151049360908,1.278411107783247
2687.0360738812233,1683.1039035068513,13508.27,10242.51,92257.43260052818,3889.35,1191.73,92152.34,13508.991018876124,612.038861160651,512.8202907127788,13484.649872160659,10243.460892456014,385.8957978210008,287.47513236243395,10231.200006919877,11887.969342056522,487.9547637153828,596.4048005062967,11862.147216461297,0.348191439583402,0.6518089671131305
2695.7796671990577,1683.1039035068513,8901.479999999998,13508.27,92257.43260052818,3889.35,1191.73,92152.34,8902.574130304994,382.30961731213097,54.53257266149502,8893.099108040433,13508.991018876124,612.038861160651,512.8202907127788,13484.649872160659,11887.969342056522,487.9547637153828,596.4048005062967,11862.147216461297,1.4086484191267237,-0.4086405594393965
2693.3736598733426,1661.6340601952506,27857.1,15795.06,84808.8232632814,370.88,2713.59,84748.3,27857.44963856483,-125.11883166871559,1023.139506724423,27838.02347936616,15795.67663504086,-283.10234904671773,433.78131495377403,15786.564136453542,28104.916559920188,223.32938960690592,1127.7928762307986,28081.04453358103,1.340166420470855,-0.3401590420814167
2719.173540694119,1658.0398065184568,2732.96,12148.169999999998,38793.308964202835,-2664.64,-2112.55,38608.4,2736.5215725032704,-250.1204892757038,-321.0767472955787,2702.4840100897127,12148.971738549551,-493.7152404605856,-444.3687163373955,12129.996539743017,4248.473201936877,-557.1920749855892,-282.1351866189345,4199.997776242834,-0.2783545588200315,1.2783505620927114
2687.7310517390706,1677.8333498890054,4715.1,5574.4,42948.33850464416,-1715.45,1810.63,42843.01,4717.165246753158,-298.65637014325875,-212.1730222728928,4700.846199482859,5576.14699547777,-313.5038940271556,274.4892030008986,5558.804398957184,11217.728300096049,-424.14174848441843,361.5573915725231,11203.005323991945,0.46931255126373694,0.5306887066832924
2735.1110762048247,1673.0824845178665,22853.860000000004,15563.860000000004,56516.72082524074,-3021.61,-1741.7,56384.19,22854.28618125659,-1239.805173395278,-12.494517294125425,22820.202538949125,15564.48579474362,-940.3227664963398,-114.10635144649737,15535.009202925126,8529.382008843066,-481.5431311677655,-161.33373508261272,8513.105493082383,-0.2784151049357085,1.2784111077828646
2704.2817615461954,1670.3944145022986,6448.430000000001,2472.8999999999996,36272.627433024485,-1389.1,5359.77,35808.61,6449.9402648455425,-58.04972641290911,878.0162696471172,6388.111389479552,2476.8355547302226,-159.95000431569946,440.33416768757735,2428.1178362851947,12259.744493980117,-944.4210466398066,2218.3715328495655,12019.515453270422,0.21729921079587322,0.7827002759778383
2658.1896339370805,1672.75035495445,6956.270000000001,8562.07,45150.65320506338,-1543.31,869.53,45084.87,6957.67003156055,-376.32463517574683,255.87772878798518,6941.3686452867605,8563.207497198451,-327.3726197849757,-340.8607451411592,8549.016540230632,6272.493000297071,-291.1896737285572,225.1872160489229,6260.126817824219,-0.27841510491472365,1.2784111077618798
2706.7119699711325,1673.7828413506932,59883.39000000001,10616.44,120309.30195900108,-5365.41,3225.28,120134.66,59883.552648847384,-1907.371600116232,1678.6603220855732,59829.46122934943,10617.357403270165,-583.7106718766302,262.29913044289555,10597.135428563053,9983.565648768768,-471.2098144999294,265.91489832280985,9967.91621582309,-0.06998490127785235,1.0699823689919663
2714.277515928242,1666.2666353256682,24066.22,11802.139999999998,64116.49167595572,-441.07,-2634.78,64039.14,24066.624712318422,-31.03086932991859,-995.1197030012465,24045.617458286393,11802.965243309653,-129.29906055337506,-824.4188531290205,11772.600557529564,13001.749149832714,230.89303141328674,-409.5447939379827,12992.496390986724,-0.2754168534731037,1.2754128773922515
2703.3911204822925,1672.5250371818056,18432.719999999998,9059.299999999997,49136.97149647096,1719.2,-1381.45,49058.95,18433.248399388962,171.41557351486952,-399.12009769346156,18427.60121250657,9060.375071992094,515.326172141931,-109.84003192349208,9043.964318466353,13052.98620901653,346.25537712991905,-490.66719055794175,13038.417156216416,0.3604536726898111,0.6395468201868421
2690.437216070491,1672.5250371818056,10148.840000000002,18432.719999999998,49136.97149647096,1719.2,-1381.45,49058.95,10149.799668011965,387.42452151956064,-14.30347624809568,10141.432393715031,18433.248399388962,171.41557351486952,-399.12009769346156,18427.60121250657,13052.98620901653,346.25537712991905,-490.66719055794175,13038.417156216416,0.9610236718120365,0.038981041926717884
2691.356967527704,1673.2326496933656,4953.94,2572.37,25853.79151513758,417.55,-4053.41,25475.76,4955.905717300902,174.33527053464366,-933.1350919881871,4862.138175447897,2576.1536002489784,100.48145241323073,-565.2565956086547,2507.483973177464,9760.477950673097,121.21262036794884,-1007.9116216633311,9706.537566711391,1.1078029010352397,-0.1077971557183399
2724.341117489093,1677.5456774703703,7546.130000000001,16900.92,47848.72893632599,-2129.96,1231.4,47755.98,7547.420614493126,-631.3057525387679,354.90649771457856,7511.296319650253,16901.496288837145,-409.0744075481065,101.66103385427276,16895.6627573376,7029.605701856668,-336.0415165562752,162.17394595892128,7018.308348797642,-0.27841473012733525,1.2784107329771257
2695.4564463384977,1676.123503802819,3025.3200000000006,11401.190000000002,35999.22093201602,165.11,-3880.6,35749.8,3028.537775490967,255.05501623411286,-560.006133564215,2962.0771717604316,11402.044262818656,194.66494456329647,-1385.4905832753868,11315.018993316513,4765.03449046025,42.82793416529059,-712.874466137168,4709.145305008626,1.4137368957501353,-0.4137290003005187
2655.326458622196,1673.7850071021667,11265.269999999999,21777.81,38082.26005506501,1975.64,820.88,37985.26,11266.134569055872,541.6143114256446,416.5156434238855,11244.530974182164,21778.25723861475,1065.9198148828596,379.5464982118698,21748.396901841643,13664.382818996097,775.3128818662184,490.2584460176819,13632.843227302976,-0.27841510493573685,1.2784111077828932
2689.6366770972577,1670.6789787388839,6315.22,4692.410000000001,32991.08099283199,-3548.24,-231.84,32756.32,6316.762113897893,-768.8361229081063,-418.7088033899905,6254.244766754445,4694.4852287844915,-404.879874144554,187.1900916410212,4671.160858416687,3064.919539364087,-378.5602790274028,-283.3172268010662,3025.008312672949,0.8199260374850625,0.18007768460632653
2709.3156518468804,1671.1379356593761,5504.56,13914.979999999998,32790.877054383585,392.87,-1636.72,32704.98,5506.3291536899405,83.58526587859373,-461.40845075707364,5484.550714370135,13915.679945858761,7.853975271708036,-513.0234835896423,13905.517380549274,3040.8946859889393,316.201975452243,-178.55637631790816,3015.9069062715307,-0.2159713262108652,1.2159677679187362
2668.903361650455,1671.1379356593761,12322.560000000001,5504.56,32790.877054383585,392.87,-1636.72,32704.98,12323.350393004972,116.20479401096165,-375.53815730188535,12316.288097144334,5506.3291536899405,83.58526587859373,-461.40845075707364,5484.550714370135,3040.8946859889393,316.201975452243,-178.55637631790816,3015.9069062715307,-0.2784087638673526,1.2784047667590743
2703.8397267952305,1664.1783257812247,13834.42,18586.22,109884.39363097837,-6109.89,2438.99,109674.66,13835.1240215466,-636.7645289491358,262.7762240633944,13817.25936382245,18586.74403556405,-648.854973742062,598.1725659763055,18565.2565479921,12140.862274104576,-912.5642225391259,474.7691593825219,12096.399364630814,0.2862076910293798,0.7137922800395731
2681.4315064396174,1673.150546125625,5563.250000000001,7037.07,50136.792675278906,6699.25,1422.33,49638.65,5565.000495748027,580.1858956983384,-37.94792448589037,5532.783643335418,7038.453959505295,998.3416970501473,97.1223463998845,6965.2160979154705,5019.420833679496,340.63599336749115,335.59265345300946,4994.642153485163,-0.2075238715147415,1.2075203725921138
2683.111111981348,1671.927854304689,1844.6500000000003,8691.7,23298.25594722918,2357.11,655.86,23109.03,1849.922586941349,432.22536149648874,63.00945436418559,1792.189908475092,8692.82053450868,728.7782840582098,-95.38515422378569,8660.567693577534,4667.857072370124,627.6457318875619,92.44712266340407,4622.437025818155,-0.1218301166574111,1.1218272199985042
2672.3850137501636,1657.6014297775196,26486.460000000003,36818.11,60021.5443873831,-1638.61,-2888.39,59906.68,26486.827731662695,-798.1778168702282,-1623.547077291999,26424.601612740975,36818.37454216679,-1078.426618340424,-1736.122644468487,36761.33972210913,10018.942203450211,-220.00518164373145,-582.9888449098556,9998.572130442455,-0.2782628593563673,1.27825886327352
2675.153770242338,1663.6221776593386,10304.12,10706.55,48262.188312409744,1707.82,764.49,48197.2,10305.065207439291,375.17189579955965,433.8442570993706,10288.144350833345,10707.459682748087,648.1333182028403,-12.712930453887976,10686.906684618081,7454.336733477753,271.545931892233,465.8167578331321,7433.500772576445,-0.27703213513543806,1.2770281477022354
2698.7508619587147,1677.1215668518257,4162.65,10301.850000000002,55334.82603553661,-8341.17,-2964.31,54596.41,4164.989192984271,-505.0312451781251,-238.85004368430418,4124.990802477726,10302.79541569548,-1498.7469638777134,-107.32165783370543,10191.6805789098,9280.149608986689,-1227.6324974188983,-769.1041768885942,9165.320181334288,1.1636549625563986,-0.16364882470598865
2675.5467217203422,1666.8332250108288,10419.81,3950.6400000000003,27940.213558747182,1976.1,-2263.78,27728.1,10420.744713852066,479.07013021066325,-1364.2930771299748,10318.993974517824,3953.104648852061,234.43567933613718,-526.9760575716485,3908.3107036928945,8192.259010802562,367.85156542098576,-682.9213495673777,8154.258482598058,-0.27656676131005287,1.276562777147541
2688.048790844746,1679.2796818877293,10881.81,15105.890000000003,85641.57551816174,-3275.33,-2481.54,85526.45,10882.705032815866,-557.4367374930794,-399.95256931909444,10860.160730950905,15106.534766361074,-1049.3534800403124,-696.3281111567176,15053.301867950442,8313.86161727965,-208.91396527675448,-390.7388614930279,8300.87303440617,0.5268372745646859,0.47316438767147656
2652.3363370787188,1671.7258297939047,10532.64,8676.429999999998,32064.18602459916,-921.13,-1972.96,31946.46,10533.564701694093,-574.5586675053994,-545.9336613537957,10502.777925129867,8677.552506327791,-393.38542613341195,-285.58829999386535,8662.801208287792,2675.0535215721893,-19.314691803944648,-371.89609176705204,2645.3263745158006,-0.2784151049360918,1.2784111077832478
2693.951845493597,1671.5386624305877,7076.180000000001,12592.169999999998,41251.946594016634,2077.22,1837.54,41124.66,7077.556311861869,225.02126318287037,562.2888454273179,7050.214186662956,12592.943471010887,761.5776523907413,760.3350866067404,12546.100403884615,16402.683814646785,622.4409902422697,481.71360556329535,16383.194913812793,1.3787668409321487,-0.37875919125534685
2693.7829253703,1673.102059050792,8873.77,8480.2,53509.95243791943,1409.84,3107.52,53374.82,8874.867546508836,466.58313697,830.1268335406228,8822.527054615988,8481.348477404745,414.9842197108863,684.6473357672187,8442.324215701374,12832.859009791067,128.70539838060168,621.0502021451579,12816.416112815748,1.3688955625664398,-0.368887982265905
2707.2719478286426,1675.7321534183557,11166.680000000002,7000.51,24193.09054319022,-396.48,2125.85,24037.91,11167.552201694685,146.57624933758981,867.2106371293834,11131.990088765791,7001.901185769175,-158.97481383634192,914.3032801827225,6938.725875873237,7679.378433654364,56.268308908855204,672.4089186873589,7648.403316744105,-0.1137231141332197,1.1137202744510843
2669.4790677495666,1668.319363910879,8595.270000000002,12074.239999999998,27503.070456479945,1494.94,-0.88,27411.69,8596.403104093934,453.6520146269145,58.10093262274154,8583.093294620146,12075.046647229803,492.3224374564673,511.52197689347594,12053.349553644077,6251.888119926314,254.90707468657453,264.1946286977468,6239.539140861447,-0.27840404152492376,1.2784000444498345
2670.745821467224,1660.5721152664455,8031.3600000000015,21502.549999999996,51818.65769732655,-1934.91,1688.11,51728.35,8032.57265169608,-363.12919771206975,154.11658284197415,8021.6662056122805,21503.002963718245,-962.3408315383618,720.0576994346997,21468.932752606466,10848.147884209351,-792.1910358594755,64.41178591065052,10818.092116775477,-0.2783790491471058,1.2783750522476656
2716.5991521997666,1675.4512824907802,6832.66,11059.420000000002,39938.10834482149,-437.95,-1688.81,39864.79,6834.085354367165,146.3322142188653,-464.2680396859162,6815.2978471969955,11060.30066008948,150.06708498203176,-662.6069075790981,11038.532633119019,7744.177818308136,370.92925346176105,-211.01658284734754,7731.15085980669,-0.27788848987258885,1.2778844964208451
2695.3217780552495,1667.996327933608,19292.87,14663.53,52708.921364571666,1980.43,-1233.19,52630.84,19293.37484195224,313.3101215981946,-686.1277502368961,19278.119677887647,14664.194216392381,270.05917304291125,-653.773549482591,14646.458966246835,10909.202858654513,135.3129093668075,-337.2538636456808,10902.255606254825,1.4145387484929899,-0.4145308474078772
2719.76518701999,1674.0840779363502,11621.28,6529.8200000000015,30726.690978654045,-2634.05,2264.76,30483.76,11622.118085511598,-736.7318466631791,340.88137598267804,11592.893293394038,6531.311444692849,-351.3732726067003,293.4660182586429,6513.751895169564,3173.3907508492825,-444.26240165301243,122.47098577293018,3136.6480004172136,-0.2783795349284544,1.2783755380256
2661.887213164071,1669.8103185691482,25533.270000000004,22300.48,130937.4646646887,4773.54,-1048.01,130835.57,25533.65145935998,788.2772345426021,218.6667029375253,25520.162240225443,22300.91675661733,806.1960630047388,24.222087546173658,22285.88946909839,15771.427583173176,465.2707799035538,203.55877392644567,15762.630966403593,-0.27841510226104915,1.278411105108224
2700.3663828342847,1666.4628708735158,36540.27,8766.140000000001,52878.09082999688,-3005.11,990.73,52757.02,36540.53655364239,-1933.9241293953773,1086.182266586983,36472.88687804126,8767.251020404046,-649.2447537942812,409.8828776836525,8732.450273311173,8254.220084100969,-396.305446228323,196.48582137203064,8241.177376861242,0.9086411867513892,0.09136315883836307
2663.709032323493,1666.891568159415,15424.010000000002,6266.800000000001,73096.59612036186,-4791.62,-4021.9,72809.33,15424.641468613649,-785.0473812342798,-792.5858138115996,15383.614426299882,6268.354025992453,-363.18387831749703,-441.47060867108104,6240.6717116196605,8551.749021532132,-888.4146188118516,-238.1808007331583,8500.995279574241,-0.2784150809569416,1.2784110838042666
2686.5640013902334,1667.2196166072422,9067.74,12586.950000000003,47020.763065401225,-1091.69,-2628.72,46904.91,9068.814071463576,-20.768775157696417,-659.4697693032729,9043.703720763608,12587.723791761393,-244.73752214836762,-377.86476164809477,12578.896297754321,7265.8606362615965,-137.77928143022544,-742.3157078635573,7225.180626798724,0.27087971101627095,0.7291201523262054
2655.3905227983896,1683.3476319524734,7153.78,26416.789999999997,47860.96099382565,-792.64,-3756.77,47677.0,7155.141385296014,-224.87072737526782,-746.2342475771784,7111.197922439836,26417.1587014818,-369.89865196501773,-2697.6825545427587,26276.081856439137,7747.827225750184,-178.92359235157997,-627.2382511145834,7719.061166316714,-0.27841510493570115,1.2784111077828573
2725.7167875394966,1668.818144676046,4083.1400000000003,24557.199999999997,71618.64645928043,-4522.51,2160.12,71423.57,4085.524717190654,-396.2967507637929,158.8397762755998,4060.7574503295295,24557.596620906854,-931.8407762088556,768.9421169907682,24527.46364034635,5683.064118736984,-387.83849049550867,316.5683372024235,5659.249386241169,-0.27841502301987203,1.2784110258676038
2652.377311654479,1672.2259865220497,7955.52,9144.13,32780.35633584235,-2284.66,-2874.14,32531.14,7956.744210138703,-261.56654961768044,-339.34679483608323,7943.97414165955,9145.195099727274,-291.95282535657026,-845.0167636439139,9100.319976452865,6017.9487056700455,-218.3590994804983,-501.44990232486606,5991.41836029103,-0.27841510493609145,1.2784111077832478
2727.041826062575,1682.9812090454602,9105.71,5746.22,24955.2765892927,1616.22,-1243.56,24814.81,9106.779593208335,969.8739433586717,-313.5323775908687,9048.48034679283,5747.914773513589,693.4593601321162,29.702398412596263,5704.145525122382,7167.679003525182,564.6109491872952,-198.0698754522601,7141.297161083281,-0.27841508721924013,1.2784110900665209
2728.4202322904903,1669.8348720756078,4027.1699999999996,11697.9,36078.43629429773,-2505.91,-1827.7,35906.06,4029.5878404715004,-419.5414114878123,-175.8732188279248,4001.3937351685245,11698.732596532658,-469.0456051175378,-1086.5442574331723,11637.88134528613,8047.450409463593,-348.4242693396992,-293.9134689738267,8033.317716789922,-0.2784151015742588,1.2784111044214386
2651.3374220624632,1667.6775767515735,3369.42,3650.28,19103.21720596036,-78.66,-1425.73,18976.64,3372.3094596397546,-155.03515376332396,-320.2416361575752,3350.582118374164,3652.9473078017118,193.0965613203795,-594.8863301787811,3596.2992159402793,6526.912450123395,203.95465302906254,-841.5020517500282,6467.7185291885025,-0.2784151049360946,1.2784111077832507
2683.821873123269,1670.6237607549601,15277.320000000002,6897.12,66040.2385974763,4426.54,1887.86,65843.48,15277.957531606631,1345.9012989710984,798.7364304623715,15196.942988327626,6898.532035844711,601.5460516669019,192.0845567671859,6868.151874061574,25654.599660949218,1621.1893156932388,899.1552398677229,25587.15046396727,-0.06702276581935952,1.067020254351638
2650.079056543308,1676.5373541916686,2374.2200000000003,8660.850000000002,25847.12095916874,-1958.73,2253.95,25619.25,2378.318852377825,-365.7706394482928,110.8892135560467,2343.253300442466,8661.974525342119,-1265.3658609137788,589.0703440953783,8547.641083377408,4554.0192675894305,-434.21495423325223,345.36897047105833,4517.940812157235,-0.2784151049360953,1.2784111077832514
2687.7843802508737,1675.3679446617093,8493.610000000002,11704.92,47970.51295363955,-439.14,-1601.16,47912.49,8494.756664394561,153.8919482947843,-625.9558401474546,8469.114911638368,11705.752097220227,138.21423077972963,-623.2758431246762,11687.496577804299,15938.241119147237,63.449147213575536,-609.8650413470845,15925.830868559435,0.4788912687036428,0.5211100565635081
2727.6040470732264,1671.0813864082145,5451.78,7286.16,31354.39217031802,1153.83,-79.64,31288.46,5453.566275711314,352.26759247557186,31.514274118733358,5440.295907597144,7287.49665528402,428.5429354168787,308.9822814743154,7266.980696812068,16623.565924180522,413.3430935269106,403.21800037421013,16612.947565426428,-0.27841509586465796,1.278411098711878
2690.1182063649603,1676.8108122260223,18236.39,3456.53,83483.92144670374,5893.13,-2337.53,83225.96,18236.92408788488,1152.5779975988014,-338.06525688593126,18196.790817988698,3459.3467007624104,326.58593155766965,-152.77215383700315,3437.6739140326576,13130.811786027385,726.1410641102373,-762.175053426493,13087.801440572328,0.9059510175135196,0.09405330916947177
2655.552365697479,1671.9180601931066,11153.539999999999,6166.97,29373.36080062341,-936.0,-1175.94,29287.2,11154.41322915624,-121.63465181024176,-684.6259831696883,11131.84381880414,6168.549175946949,-401.2044402323777,-174.106789904471,6151.4421726735745,3541.8610287920346,-341.4221190031805,-269.79334613055613,3512.2559814368674,-0.2784151049355949,1.2784111077827511
2691.3282638977203,1672.2794323913233,14298.14,30907.600000000002,78241.38982350325,3637.22,-3948.37,78039.09,14298.821189691678,465.55850522353103,-485.94690819932777,14282.293875292775,30907.915130515936,1333.5118085308434,-1305.9860688795084,30851.18935153719,8460.961245111323,417.92545342433914,-664.7723866687838,8423.28921653547,1.1035415207692811,-0.10353580540176027
2692.4957470150994,1673.491933054667,28926.649999999998,13971.17,82876.85740095664,1095.8,3862.54,82762.63,28926.98671098799,-227.07414714612116,1522.720961895909,28885.65108191956,13971.867130919753,287.48438468240374,714.3806237988015,13949.93205079525,15284.61725381358,227.1931354042287,586.9934946911632,15271.013933489008,1.2565087496582874,-0.25650195922278085
2705.703990904617,1672.8709603552809,7140.229999999999,5683.78,34241.82883274928,-950.18,-1309.0,34162.67,7141.593968301177,-251.78095633668516,-651.8649207672534,7105.95264042755,5685.493386116615,-467.37108582491544,-211.3188307312847,5660.588636203235,2491.741973815863,-88.83788250600807,-344.3537531081849,2462.280737903815,0.029524036871470396,0.9704741302007637
2676.5447675273667,1661.4468092587813,7401.84,18559.929999999997,146568.59502884338,-2638.69,-6101.71,146408.33,7403.155769047128,-152.8134392097888,-415.6377508898011,7388.580966493644,18560.45477783547,-377.576040306115,-688.6181379744269,18543.307229260354,11392.844952656724,-559.5172206406745,-656.056150359863,11359.311905546107,-0.274652506419808,1.2746485357108581
2687.289226151642,1668.3868706028586,13649.069999999998,4363.880000000001,51437.86520975477,3445.17,-353.24,51294.02,13649.783581437316,398.52295985148993,247.7100897284543,13641.001833693077,4366.111383093174,342.90034497440683,193.06024808460847,4346.101212400138,5889.8739140643565,379.2603948239635,3.417006999529178,5875.992226456834,0.39142303065222006,0.6085776798799761
2722.015365467789,1676.6922794597701,8199.89,7755.620000000002,43065.61467281409,-1162.26,-1562.99,42988.86,8201.077732059108,-720.555820078267,-275.88326539139393,8163.5092788658185,7756.875758936442,-509.3288459680022,-229.24640479888467,7735.4813552197065,6078.092683998474,-456.5214424623597,-337.80093702167267,6049.893339524207,-0.2784109269504789,1.2784069298269984
2704.5075278633167,1684.501187295232,28046.42,6913.299999999999,85025.16044343462,-4425.99,-2190.44,84864.91,28046.76727845075,-1101.9845972641626,-177.89676636151535,28024.197713838494,6914.70873176707,-464.24953448620414,-171.36314697021692,6895.565526596771,15666.121734659662,-593.4659874755406,-287.7686126975662,15651.60942514398,0.18391206834842724,0.8160871837773257
2731.820691034262,1675.7320788240584,10510.27,5085.69,43173.96587373692,-1569.84,-1430.29,43089.13,10511.196669650692,-463.51987629713864,-458.38133318824873,10490.033906073042,5087.604812804918,-396.2966189508824,73.6639769671021,5069.690856887181,3532.6881775888132,-386.0870018133514,63.75409873712488,3508.1730354737338,-0.27841510489489596,1.2784111077420526
2692.7065836179695,1666.0200328926906,7941.499999999999,6923.540000000002,34405.06763862847,707.66,1371.61,34330.03,7942.726371037577,139.52503294922917,404.669762929266,7929.955699633591,6924.946648659165,39.919056395653634,495.3423154254697,6905.682340731105,21255.518237831224,328.19446705890056,1487.993000452121,21200.37124264567,1.2792370474763213,-0.279230097304213
2733.5631748850765,1670.5662962001838,10162.33,5028.72,32892.92738517203,-2719.79,2654.6,32629.89,10163.28839421945,-870.3517157997838,1092.4236695665445,10065.885427813846,5030.65649727506,-545.5750378564943,326.3862677943209,4988.370948582631,8230.613469242482,-1168.9282465721826,441.0004409647668,8134.042260176337,-0.27841510493243904,1.2784111077795952
2672.1565345883837,1672.426007331864,6132.640000000001,9268.82,33010.546188528904,-974.7,-932.35,32940.55,6134.228013758193,-433.9592626963655,-140.24826389422535,6115.658848594704,9269.870772970666,82.69719924587311,-453.92626675151297,9257.328789126479,6020.877917943177,-428.1360750102048,-165.9044590628015,6001.721932857097,-0.2782898063178761,1.2782858100456427
2671.1621114201344,1671.7791421118516,21954.929999999997,3479.21,34481.680942381565,-3193.77,-82.68,34292.63,21955.3736306189,-1801.9867323222481,-20.080051750063138,21880.845319890093,3482.0083542800085,-429.4659206309831,8.450390953960982,3452.5917566386715,4247.463747235022,-432.17881994290514,-248.1135928205025,4215.818952653263,-0.278362630717733,1.2783586339336828
2652.0944342543507,1684.5089046959652,4189.540000000001,6008.96,26080.05282622142,-1590.0,-3423.58,25750.39,4191.8641875394505,-99.17878397286131,-345.9273098239487,4174.055974316544,6010.580690480394,46.678436116215906,-912.5520408558333,5939.07991004765,5844.976621961441,-493.5723523778976,-848.0964680542943,5760.329024451814,-0.2784151049360929,1.2784111077832492
2689.8771838726143,1675.548193875664,9596.97,18062.789999999997,30074.326897540035,-1758.59,-484.42,29972.16,9597.984847668586,-643.7304160223367,-106.76767930252682,9574.760832263333,18063.32922080743,-949.7147570346899,142.91788464506857,18037.2392272936,5594.871147048497,-465.98713828678814,96.23911344217618,5572.853597296016,0.8632671640458491,0.13673686265102927
2734.5396194953323,1664.8581771427398,10115.549999999997,15365.95,75596.80070557879,-2903.84,-2842.47,75469.15,10116.512825953207,-279.85471345020727,-474.0375841804308,10100.560455273957,15366.583854509621,-219.15516246699494,-631.4026348257818,15351.407789841267,4280.585989239765,-417.857958369727,-220.94735882669838,4252.118700995375,-0.27841510493519955,1.2784111077823554
2737.808685191048,1664.8581771427398,10566.42,10115.549999999997,75596.80070557879,-2903.84,-2842.47,75469.15,10567.341745754973,-414.2476044760427,-790.9991945084128,10528.625304989864,10116.512825953207,-279.85471345020727,-474.0375841804308,10100.560455273957,4280.585989239765,-417.857958369727,-220.94735882669838,4252.118700995375,-0.2784151049360891,1.2784111077832454
2671.218839787277,1664.8581771427398,10566.42,10115.549999999997,75596.80070557879,-2903.84,-2842.47,75469.15,10567.341745754973,-414.2476044760427,-790.9991945084128,10528.625304989864,10116.512825953207,-279.85471345020727,-474.0375841804308,10100.560455273957,18039.009947779166,-381.65656337707793,-999.6997165346617,18006.702604455146,-0.27835990506064473,1.278355908295751
2735.3818432949333,1671.7466165661106,6167.21,5840.01,36771.0482256367,-1466.9,-2626.35,36609.64,6168.789114508274,-205.90603055142287,-563.2382685664123,6137.983752300495,5841.677563446632,-290.9150059388459,-409.6902372826732,5818.353647630476,11660.365336303823,59.340434691193295,-1354.3476046462638,11580.4516794251,-0.27841510493583654,1.2784111077829925
2706.989484592968,1671.0320912538214,5725.69,17411.55,32295.703450836925,-766.32,731.48,32235.04,5727.390848482035,-475.75879613421966,186.99597124617316,5702.824918471425,17412.109388516823,-254.78169999701117,565.6305785457827,17400.494870447234,7001.871191729806,-269.0504612021607,242.33037186736425,6991.109216039865,-0.09264012017639678,1.092637428667514
2667.3361469809593,1683.5003712502948,7173.77,15038.31,30665.813180577814,2428.54,874.08,30510.59,7175.1275924596475,555.7119470906341,224.82231691866292,7148.679260575066,15038.957663723764,930.9825588517153,542.7001055220223,14999.65052015147,3538.6135554445286,209.95973488445696,381.878412862115,3508.901783623639,-0.27841379551969364,1.2784097983760525
2732.346019177758,1663.9827973864672,8061.160000000001,7241.930000000001,93703.0660150008,-624.12,3731.74,93611.86,8062.368169512962,177.3409783518142,420.5281483759051,8048.23004140791,7243.274817378931,180.7563911258832,463.0320600026581,7224.85145614613,30104.7135383693,-319.72392827229646,1325.5679688408077,30073.49237188414,-0.27841510491600757,1.278411107763164
2696.0477345420854,1672.1926473943608,10630.98,8646.06,44583.14019680197,-1292.77,2468.88,44464.52,10631.896148645159,-213.03008432812942,341.6711260302232,10623.35233272475,8647.186448711267,17.972922403137357,626.2302122624733,8623.332663124505,6403.911122687118,-454.39060903951884,526.3571290291931,6364.51687555598,1.4010530894803714,-0.4010452831737312
2672.616059532179,1666.545528931028,15734.770000000002,17848.67,46198.53372004246,1576.79,-848.43,46133.73,15735.388997672597,307.5730595197533,-422.78673537858344,15726.081429979487,17849.21568932584,429.57597658588344,-559.2221906593192,17834.73453098516,19291.444892458825,294.5069437602434,-508.4255819406798,19281.989917311574,-0.27823007675094796,1.2782260808984995
2660.528040156297,1677.737762583873,5704.97,8011.47,21596.8191915893,-487.55,-1392.59,21480.94,5706.677023984779,-390.64401451749166,-285.2654925351388,5684.426404976174,8012.685661878655,-19.672084573376623,-474.1911996713557,7997.400032269412,8652.095809460026,-19.619751789700164,-699.4354683179678,8622.62645786645,-0.27841510445535683,1.2784111073025164
2711.6113044077433,1673.658716704215,3626.99,9428.19,49409.267112211855,288.53,-3864.87,49228.59,3629.674422765184,-246.66471468955805,-355.0308671781934,3601.1339966707455,9429.223013126573,235.5209613967843,-657.722882275495,9402.270851394038,9574.877297113302,-294.96505096853053,-677.3460750066992,9545.312630447477,-0.26118780090445975,1.2611839248267194
2652.8655004798147,1674.7298289574949,2939.1400000000003,22546.59,37898.76050862218,-1042.31,-3871.37,37648.87,2942.452020811176,-163.1431384562012,-326.8668051688497,2916.348118392825,22547.021989240082,-969.7830211636079,-2793.9785794993672,22351.776779872813,3403.7627363222273,-156.38118181293396,-521.5672889390399,3357.0274498555373,-0.27841510493608695,1.2784111077832432
2734.613908792898,1665.5925372071047,9408.290000000003,12970.009999999998,49775.13677758706,-1568.77,4454.89,49522.55,9409.32519787024,148.11411602112955,635.4201663186909,9385.63925073678,12970.760939716518,-48.10588166353885,1139.4000868020455,12919.776030041885,12075.00664990193,-143.5464328394499,923.940295571718,12037.94145158706,-0.27841510493529165,1.2784111077824478
2712.9147347677485,1682.0561821767567,16502.37,8546.119999999999,55366.15484682858,290.13,3217.06,55246.25,16502.960206341035,-454.0438248371325,996.1691482912177,16466.01672688389,8547.259619876757,-94.88701196184309,565.6048746421312,8526.854908765717,16521.419546881432,252.86947664122135,862.0437414778943,16496.386316538,-0.2708374603037765,1.2708335164073277
2696.873881999963,1673.5661773589952,6751.66,9616.46,51974.74839587297,2795.89,1389.51,51853.89,6753.102450783326,237.98007165248598,356.40768285401475,6738.045102602008,9617.47279105981,401.90621202307716,656.3994536685045,9585.609739894533,11555.712901940571,723.3990388611095,42.41215879124955,11532.125378969027,1.3586938579661036,-0.35868634936410254
2728.0856092348563,1686.8976702811585,19902.05,18030.379999999997,47074.05634244727,-592.83,-3793.07,46886.91,19902.539389677782,-506.0763274004073,-1475.2140250935622,19840.847374381774,18030.920190039542,-202.3427574638691,-1823.379293180199,17936.804294692618,10383.46806977687,16.61180147479268,-777.2016976907393,10353.386439714226,-0.27841509987062507,1.2784111027178167
2685.3378914968716,1674.6196583105072,17788.140000000003,8884.609999999999,59163.69417916025,-1490.24,-5616.74,58853.8,17788.68754615629,-70.75873450540796,-1402.8324482853343,17732.59650990596,8885.70620757156,141.9367964222071,-751.7057848568147,8851.614949314853,10068.31743528559,-266.38950846897,-804.4046325401683,10031.625284041744,0.09467286487204656,0.9053257600722415
2679.5641333248695,1670.2010358036314,14808.149999999996,11275.689999999999,61782.0642232501,2981.07,-3051.6,61611.97,14808.807729782828,1018.4810553876647,-381.177865447532,14768.165295567665,11276.553770158494,715.9193986682807,-450.2721731631617,11243.927221428701,9656.118737219203,639.3514239304162,-118.59360163848841,9633.188175597348,-0.25268925347430304,1.2526854371251483
2738.142023194107,1669.7750597011564,40972.73999999999,34669.64,96590.52248374578,2076.84,3523.85,96489.43,40972.97771779316,483.4917612584091,1422.5858826806086,40945.18174621762,34669.92093565798,407.598208854287,1203.8209069701732,34646.336265955746,9423.873599575483,311.03051149475294,165.06503695884092,9416.258663614391,-0.2784151049360916,1.2784111077832478
2671.565257525652,1671.4121275138093,7284.5199999999995,5399.83,33963.23673709118,-3526.53,-1953.42,33681.68,7285.856956156617,-880.2988114588376,-152.68389705373713,7229.522339720975,5401.633455175922,-459.1128342472411,-344.6352084746924,5369.227691894717,2998.8396761540575,-493.46808328693294,126.60496517600077,2951.951876584357,-0.2783400964695723,1.2783360998438948
2689.784805503891,1671.4121275138093,7284.5199999999995,5399.83,33963.23673709118,-3526.53,-1953.42,33681.68,7285.856956156617,-880.2988114588376,-152.68389705373713,7229.522339720975,5401.633455175922,-459.1128342472411,-344.6352084746924,5369.227691894717,2412.919975791939,-555.7075063536886,-161.18548778908678,2338.3565297679393,0.8466996228099237,0.15330428744872612
2678.1165603250106,1669.8310543282653,4173.089999999999,6968.52,63996.73887807018,-9472.91,3340.67,63181.47,4175.423344198258,-674.1644513413488,143.92523460471645,4115.758492367062,6969.917570931221,-802.9516932019611,133.800817130374,6920.811867846095,13874.252035972093,-2107.0770479481844,1108.210836252951,13667.753460569938,-0.2677294372525571,1.2677255151995848
2701.945174773861,1672.5884879431642,22436.36,9441.46,67830.97310280385,262.49,-1402.26,67795.34,22436.7941115654,451.3366945810101,-577.5422479997502,22424.383830765564,9442.49156138229,-212.28174415672387,-288.59663586879867,9434.660321095984,15916.321960782137,29.30491663841308,-639.8178906873462,15902.817331929497,0.6200721687205893,0.3799301487791256
2681.7596809137435,1682.8161664304755,8605.69,13893.8,38506.24967391917,2102.6,990.29,38399.19,8606.821732281654,418.65116448358447,156.93627340647325,8594.06787177445,13894.50101281711,483.1918471201831,249.831267909142,13883.147640807234,12045.11865160637,252.22508968975433,583.9819014165702,12027.49978254204,-0.19490074798649018,1.1948973377803547
2705.8578071631327,1671.2922395559672,8404.939999999999,20913.239999999998,54536.092033824716,1326.53,-501.1,54492.03,8406.098759756262,429.424538910146,-84.98711875666109,8393.532519662222,20913.705727411765,767.6486447547793,-43.53847037199156,20899.10111122973,11620.83817782417,768.5393592014539,-86.4721185208941,11594.2343354823,0.01253887341661003,0.9874591742823075
2697.907594146664,1674.7413233093641,7549.249999999999,4359.2,26610.515622681945,2680.2,-1879.11,26355.27,7550.540081191262,457.33124799058254,-478.0829486865459,7520.2034803778115,4361.433777460776,687.2044478179224,-144.43094010445665,4302.268516775749,5584.564361485662,772.6994248718169,-610.4720122239501,5495.2833114857685,1.267136157453728,-0.26712929232780624
2713.594796125402,1680.4950163567876,7073.31,6887.26,23550.20594028638,1711.47,1322.37,23390.39,7074.686870192615,317.9079283336429,761.1667065813717,7025.046202694662,6888.674056941276,511.54065344265405,619.1253174443592,6840.274870849481,5685.613349954056,361.57203294029733,50.90882248667639,5672.159480020678,-0.2736025471553063,1.2735985838255686
2667.29055714448,1680.4950163567876,6107.200000000001,6887.26,23550.20594028638,1711.47,1322.37,23390.39,6108.794627025513,274.57493131608834,657.0689599488732,6065.538791316438,6888.674056941276,511.54065344265405,619.1253174443592,6840.274870849481,5685.613349954056,361.57203294029733,50.90882248667639,5672.159480020678,-0.2784138559523954,1.2784098588083295
2654.375210324812,1662.9921827835049,24417.8,10997.180000000002,46557.586750868,-2600.91,-2041.17,46410.26,24418.198885158905,-1757.6229110569677,-839.3658219922457,24339.99144534358,10998.065643901922,-833.8804244321368,-465.2983099207713,10955.642786844312,14250.353506635398,-724.6755526288892,-658.8947062312393,14215.96983038521,-0.27841510493600924,1.2784111077831655
2708.7255672409137,1669.9100275165242,10299.199999999999,7950.270000000001,39423.33938247368,-1525.51,-1875.34,39313.7,10300.14565893006,87.05481609947306,-367.1882530215349,10292.284240431609,7951.495018427402,-360.2695277425305,-660.2729472499065,7914.609186524001,9285.94895340136,-154.34044219113022,-508.10989768082277,9269.701795083975,-0.19433656648974265,1.1943331602487275
2708.442130993275,1670.0173651791767,14031.409999999998,16626.07,56649.00803355695,-445.72,6077.76,56295.5,14032.104138128241,-498.73444574222594,1750.8426802967679,13912.809940827245,16626.655815288766,17.55290127713393,1601.7513912507245,16548.72466449252,15397.17259521292,-258.6523021588739,1608.906126967314,15310.06087619494,-0.1819047335436522,1.1819014146747213
2652.5634968929835,1671.4716569538355,43589.98999999999,21303.82,100936.29369640487,-7482.24,-3040.58,100598.77,43590.21344470884,-3553.4568766169505,-1416.3579781022368,43421.81597427714,21304.27718904295,-1811.1325856986919,-894.8727783963077,21207.822803388037,29311.682291838453,-2323.494507264848,-1101.8711136418037,29198.330297229877,-0.2784151049360901,1.2784111077832463
2703.9297289270103,1673.1155817816284,9514.130000000001,11461.829999999998,39736.75435931576,4006.84,939.49,39487.63,9515.15368305083,725.5331877319906,391.588045931693,9478.340047322783,11462.67974358857,1051.7652412183916,57.73442219301795,11413.325701247591,9005.701599518818,981.6495108176383,-191.50340060475594,8948.903398175014,0.2718154428610635,0.7281844270578237
2726.384442467359,1678.708953332817,12973.649999999998,22016.31,43861.897455553604,-2915.93,1444.65,43708.79,12974.400729038536,-670.3831848442055,83.82730833220029,12956.046993213473,22016.752393831288,-1574.1725435693952,475.0874038816457,21954.821310542367,8265.46847790709,-322.5183379664562,167.57131217055505,8256.294022205895,-0.27841506675578465,1.2784110696032092
2710.6391223243168,1671.5136852565702,9013.87,9154.6,47434.37190769368,1097.73,-4094.21,47215.02,9014.950489718498,446.74102549525867,-442.30243344794036,8991.921006681803,9155.663881727845,241.9634469374137,-675.7482447206686,9126.418747794947,5063.314002437117,402.55503097789733,-608.2376744413142,5008.559185087524,-0.2479415443581911,1.24793776137638
2722.9309078984943,1675.6579304858137,13681.72,18253.16,95617.38152489536,-7291.63,-3977.42,95241.21,13682.431878638232,-932.1293777427848,-902.8050190318867,13620.041853061968,18253.693597208643,-1245.069425861666,-1205.1794181384466,18170.72355962965,3267.7819687328856,-288.61566900231867,-244.4696927801829,3242.8158450516903,-0.27841344856374106,1.2784094514225381
2706.8470951066215,1677.3176502973567,13571.06,6604.049999999999,75639.21810819239,2376.03,1462.53,75569.13,13571.777683073642,416.02538612623715,-234.42345655116915,13562.656009967852,6605.524684510366,323.81760191286725,264.8942026639978,6590.785205465764,14346.388930991512,414.7867301673327,393.9870892639939,14334.298781107864,-0.08126138534342014,1.0812587738053494
2669.3317387152465,1667.0859305986598,39829.44,20881.85,72639.34230639481,680.6,2761.34,72564.5,39829.6845414168,72.24054478737449,1288.3223583718834,39808.5329737006,20882.316427486578,284.07263477618835,842.7405130670214,20862.903695035042,26174.68211710079,129.94029366704407,816.589028374253,26161.24618314121,-0.2784054990590107,1.2784015019736779
2705.634999505535,1673.8213763720073,11510.33,5621.64,26630.606358552934,-1312.71,350.49,26543.2,11511.176163367312,-373.3333037969733,191.24650312480998,11502.684196665514,5623.37231959398,-329.9707144093187,234.00660959224544,5607.066659484204,14295.391353134612,-283.5079591291574,312.3739834925564,14288.484164376832,0.03735635138837491,0.962641870730098
2716.4608064746626,1659.502711657923,5115.0,9147.17,19421.263492836915,-426.12,3529.37,19020.87,5116.90384462868,120.00683193777733,706.2220547158162,5064.590187736933,9148.234745789801,245.78453024930374,1282.0951633118273,9053.537483536618,3449.964367174793,-16.78590660011394,365.36192459739414,3427.6818809501706,-0.2778276860541516,1.2778236930297426
2733.8033311050467,1667.169832380541,8493.99,6179.86,37722.11830145279,-1010.82,-2165.3,37609.42,8495.136613102568,126.43323788813308,-398.30066601167084,8483.704222561733,6181.435882930095,80.1527662598397,-420.73947894043823,6164.99987384605,9302.147126614143,-465.1152875865695,-181.75498162420453,9287.685077881788,-0.27841510493349975,1.278411107780656
2734.433327760814,1679.142712815084,4097.21,13018.319999999998,37838.89044052429,-3208.68,-171.24,37664.8,4099.586532722023,-301.4474462108732,193.58465555606668,4081.517389697878,13019.068153196515,-1388.1536452802568,307.66482098422495,12940.441547235698,10492.518319415782,-1280.54576982197,175.37128331903054,10411.671728040512,-0.27841510493504956,1.2784111077822056
2724.496913954282,1669.96115224277,3691.2199999999993,8495.15,46180.1545739022,1624.21,100.73,46121.25,3693.8577454438832,424.2649346512539,-121.8606660066081,3664.731140439335,8496.296456555396,424.3166707784278,-160.22253205157566,8483.033515531015,7285.9469396418035,609.1410669493451,-151.01793940395518,7257.5259968279815,-0.27841478831031397,1.2784107911596954
2665.466308239852,1675.3160149655348,8557.15,6565.76,66113.1903955315,2247.15,2105.88,66020.17,8558.288151124369,286.3975255431017,294.04846970969544,8547.299461076824,6567.243282593981,375.81937109721537,154.20913212647645,6553.181190954275,13816.954947370848,533.4800130286285,1027.3833536617474,13767.66670800894,-0.2784149279433614,1.2784109307917615
2667.40318523389,1672.500523169112,14483.63,18605.43,76305.89955357581,3684.18,-3811.68,76103.16,14484.302466189933,879.7813436095433,-373.9026884502046,14452.048973896617,18605.95349451556,1143.1175684638254,-686.6175579996889,18557.582386685393,21467.823706004194,886.1460827506689,-907.8009496238009,21429.85341230284,-0.27841370150079303,1.2784097043578126
2660.437714442669,1658.6130501114837,9811.130000000001,11050.55,28933.20119537242,431.25,3236.87,28700.45,9812.122697565283,367.3686348402233,829.8635439491447,9769.06539344782,11051.431366916946,-122.93165043840496,792.7107657243204,11021.395227180868,3704.4901693452734,4.688426891070466,381.0437606851145,3682.193793202122,-0.2784151045082204,1.2784111073553794
2697.193832368238,1674.182337739847,2465.24,3761.0899999999997,21860.309816665456,-568.34,-2068.47,21690.29,2469.187763774916,-16.045530535247,-463.5254158052746,2421.2176662688526,3763.6787779080946,144.89930931649573,-432.15998408237016,3733.3684423610703,5312.363771060465,323.8435755022859,-273.62142671724865,5293.5796522152295,1.3347921427726748,-0.33478480215416284
2719.83657140849,1668.7807675065535,14812.269999999999,10575.82,36855.29469395544,902.43,-1857.55,36759.53,14812.927546844874,-140.92330437002644,-824.964584264715,14788.607662991615,10576.740926560307,292.0350023296669,-724.4231674513802,10546.937721645749,9894.894392729806,266.96059450451736,-309.5191946141627,9885.46331727791,-0.2783817752658371,1.2783777783472372
2675.205870420971,1683.3153299368003,11870.889999999998,21792.66,37921.89840942302,1470.35,2148.64,37794.95,11871.71046426233,254.887712074575,720.5239666086023,11846.26130303886,21793.106933862728,404.05782125485916,1113.8304815755146,21760.426209313915,7570.456686625698,98.21831188325196,521.4206849115869,7550.550186672301,-0.2769774380454031,1.2769734509966166
2700.7473514673316,1659.597918171748,11703.65,3080.0799999999995,31432.07813404325,-3646.11,-1459.8,31141.55,11704.482187507303,-1619.1418136834263,-604.083957028546,11575.356827439173,3083.2406266095695,-373.0536484252786,-132.38178847026393,3054.537418968378,19406.66189484363,-2558.4395716309514,-1411.86834610824,19184.89146899639,0.8408934044806918,0.15911046497131298
2681.1213845980874,1663.910153824347,11802.04,6122.83,35063.87896020775,-1217.52,-3556.71,34822.04,11802.865250301546,-404.0931050659386,-1330.687212446941,11719.817765932556,6124.420557414046,-352.34146198081737,-812.6739734571321,6058.420892933621,4371.568596142096,194.9623713909617,-383.4333120470258,4348.114603429199,-0.2179344652306904,1.2179308931414368
2717.515342074605,1672.907573657171,10249.089999999998,30097.769999999993,53544.63502168541,5655.91,5413.43,52942.75,10250.040282031858,1241.9941633238636,994.264826718087,10124.85722273261,30098.09360953074,3253.7854674946807,3204.5572572314527,29749.276493547626,6018.6985039604515,362.8248028721834,624.5447614970473,5973.57127099923,-0.2781642471793574,1.2781602517895654
2732.6196543940214,1662.2117795274708,16046.85,6523.989999999999,28199.89826678458,-1068.15,-688.83,28122.16,16047.456959832476,-387.63507582177,-32.5509343821521,16042.134346998952,6525.482777180226,-438.0724572001841,8.030995541811414,6509.260598981515,8876.61733013065,-556.5754715210965,-216.35827435872267,8855.408974859241,-0.27841510492233357,1.27841110776949
2680.9006721980954,1669.0984093216314,23822.54,10119.4,79835.05382909754,-1369.36,-5568.03,79611.38,23822.9488520371,69.94712689960112,-1405.4344977556386,23780.943491029888,10120.362459673852,-18.862532767851516,-823.9393063659596,10085.783290567111,23414.425985602884,-454.6149594059714,-1691.1455146779056,23348.430704588456,-0.22452440637346027,1.2245207879694842
2685.1578618284243,1673.1492013564962,8229.83,14309.490000000003,26774.544594608888,-633.91,1474.91,26673.95,8231.013411729795,-168.46526089174768,498.31691413790713,8213.001980875004,14310.170649411413,-512.1939960174589,481.85608635274633,14292.19983356616,3602.9643382603404,-321.0686456656871,269.9266399661378,3575.7414058355776,0.07214702769753233,0.9278514389330661
2661.461758846062,1664.4796484188314,15567.44,2347.3899999999994,49521.72857444801,2534.88,3380.62,49313.05,15568.065650837158,1094.3378748833177,1021.487518858271,15495.295286570457,2351.535618968118,360.20732381631785,221.37787330862727,2309.0002886917173,4071.2930581297837,294.1362486859769,298.5918718428128,4047.2551156652257,-0.2784151033614102,1.2784111062085772
2730.509951964186,1678.5275541378521,9154.88,5245.44,49339.25745112202,2614.77,1085.34,49229.36,9155.943849193034,450.2373788658845,330.64961007491576,9137.821674361416,5247.296518091556,289.7676963368347,-236.6794052284437,5232.079733232316,19197.46736412842,851.460773286929,362.8684561262607,19174.634658232793,-0.27841510469958397,1.2784111075467417
2694.5759145716756,1663.250883060039,5728.22,13005.659999999998,30326.295020112495,-1893.18,2439.87,30122.76,5729.920097486158,-615.26359937596,564.8264201246092,5667.003280995359,13006.408881423638,-339.6886040029412,971.9340708730892,12964.842762246928,6141.426152024933,-381.1372355824942,386.26185895856247,6115.813225529898,1.404932181672933,-0.4049243481036704
2688.9469615072103,1672.574363070294,41627.71,7376.029999999999,71057.7792215335,3515.32,1231.63,70940.37,41627.94397756483,2454.4995832907493,687.9930507471854,41549.58889329531,7377.350372327164,528.3724732459743,75.06568705044268,7356.698052322357,16511.21991108094,1036.773183742313,33.008261446413584,16478.0130724869,0.6929513777506175,0.3070514519509922
2718.9611459139696,1663.8691354791097,28060.039999999997,6364.450000000001,39716.44591028004,-1032.87,-3644.93,39500.32,28060.387109888125,-449.13509703024124,-2922.5180077202026,27903.81713960953,6365.9801882880365,0.2912082125300371,-628.2409949840429,6333.366953676318,12118.753737809666,-225.75348957141176,-955.3737001686134,12078.121073141818,-0.2783420521718002,1.278338055532378
2681.292658295287,1676.9508042873886,8364.12,3683.0400000000004,28613.890672409445,-7.61,-1817.46,28506.83,8365.284414147303,222.21244613709948,-445.5594769525579,8349.287499881624,3685.683599656348,-38.32068433921527,-360.4335507548147,3665.1606816403087,3933.906684210465,416.12060370340623,-144.4992550784236,3906.674474966566,-0.21235844776117316,1.2123549148606918
2651.546849417055,1671.5820350792724,5091.869999999999,7692.929999999999,45870.474842678486,-4728.24,2197.06,45542.54,5093.7824896706925,-298.16647862840097,221.00908958242874,5078.325691627535,7694.195990490219,-612.5066538797706,376.0215438934956,7659.282954845117,20254.690880862036,-1793.4244582602632,496.37414616970767,20168.54640631367,-0.2784151049360944,1.2784111077832505
2692.0353073880424,1670.452857760291,15043.3,20544.77,61621.25852184131,-3593.92,-777.96,61488.76,15043.947448897039,-1004.4951589310286,-61.80727478477128,15009.598403237436,20545.244080031654,-1092.4938127334383,-709.7679401271214,20503.42071687568,19406.371902343715,-1287.3946904780942,-146.16105584532022,19362.568071244652,1.2014324611358103,-0.20142605778160858
2724.323651715909,1666.022208733236,23674.64,73378.87,201829.3118369205,-1238.27,3683.46,201785.02,23675.051406169652,-182.29696082069128,390.4302741041491,23670.71843330359,73379.00273533346,-1164.0219910107385,1107.225686645288,73361.28179469178,45958.811928891024,-490.6762368129497,934.4447939383659,45946.47933974602,-0.2784147229930255,1.2784107258428659
2692.3055679920476,1670.723121884617,8738.24,9951.78,30398.535662214057,155.67,-1554.82,30312.34,8739.354567287894,152.67481692178725,-461.3107906586437,8724.718966952449,9952.75866901111,212.3908722601666,-300.9111772804431,9944.961927989883,6013.569884658843,-355.99908389508573,-314.66297999162373,5993.145640128283,1.234644994279889,-0.2346383575048992
2681.36258332051,1680.5783974572564,11545.79,7966.61,62561.92817249721,-4495.03,1305.93,62363.93,11546.633564778775,-441.7704694033763,-172.86121827609074,11536.040246795226,7967.832506226255,-452.16111961657947,87.51502205716872,7953.286511557433,9710.713065438385,-529.7151939740711,270.327177808648,9691.480450081453,-0.2099598017965726,1.2099562857539992
2654.447474729919,1673.0035116521653,5912.51,4733.11,48470.58950273764,-2929.6,-3049.23,48256.8,5914.157121287511,-694.4835801894618,-371.8988851242556,5859.79165808739,4735.167391684878,-327.89932058227896,-255.45937062043606,4714.822670856655,16823.378964856493,-1414.17628783752,-1372.641612231685,16706.961431429958,-0.2784151049359992,1.2784111077831555
2692.2375447331137,1665.1722133162314,18639.49,13162.390000000001,65508.100094356276,-1850.93,1650.08,65439.97,18640.012537959192,-422.97357383366807,763.7627410506162,18619.03185698229,13163.12996468833,-644.7075591403017,97.44551072002338,13146.23014585276,18986.04301417427,-380.26204019836126,537.1522051577412,18974.11968103338,1.2265187951065355,-0.22651221544323347
2672.948063817776,1672.8121532317255,8900.02,4022.7200000000003,34587.629336585065,-1851.45,861.4,34486.75,8901.114309769075,-420.8492650508877,353.72504734546163,8883.0242872226,4025.140513519469,-306.4295425676696,366.12256923070555,3994.2873454649803,18058.829355173486,-1060.9308400216628,437.84239114292376,18021.780087363986,-0.27817108104657173,1.2781670856087506
2686.249157186796,1663.9704775025307,29574.81,15652.959999999997,41710.856792773986,3403.12,625.7,41533.77,29575.139331730556,2655.412654418655,571.7998359851227,29449.80840546201,15653.582232727935,1164.1142559250936,313.3764384618313,15606.46628704169,9104.429869287576,640.4567419620324,219.65191120074928,9078.145817796783,0.22203269684854013,0.7779668231925541
2667.123716668094,1675.6403999665322,11007.37,39262.62,86034.67045913351,-3039.66,-1602.5,85949.69,11008.254824088866,-620.0314553724781,-304.3530500242999,10985.67815531611,39262.868071749115,-1041.1738517388676,-993.6391556527675,39236.23284036337,6631.358938202318,-280.71186535075424,-262.62113771926107,6618.736465427094,-0.2784140549761108,1.2784100578306463
2669.879955842413,1663.791753795986,8046.35,10564.759999999998,39988.62072795334,-1230.32,1305.24,39913.71,8047.560392918824,-437.239850946523,295.85962489926095,8029.012188158562,10565.681890572692,121.15001146834943,506.5361041820787,10551.914409597968,12482.750299356136,-370.7979265065129,569.5965966164437,12463.452318507958,-0.27839892188554266,1.2783949248464348
2737.1749339142216,1666.398586773356,4414.060000000001,14141.28,32859.77736156166,-296.33,1991.9,32755.65,4416.266028986001,-231.08332186441527,456.0284597666207,4384.354482228712,14141.96874531887,-458.9975822677388,1065.3258095977887,14093.622748508533,9182.960718917173,175.43307526919293,732.58709739547,9150.946781116765,-0.27841510493607846,1.2784111077832345
2676.6957564044787,1668.5259962015805,30276.2,9685.94,52414.93704660724,514.67,-2513.1,52325.53,30276.52170238807,108.90014713076978,-1600.6155386175956,30233.664301494962,9686.945526778592,82.41564673093656,-596.2636849768002,9667.218367387375,14260.583016313734,153.20366514251907,-379.6097208991295,14254.023049889662,-0.27423889267481594,1.2742349248727824
2693.1285414409745,1679.112339898674,10966.35,5862.33,34578.62386952089,627.33,-2134.53,34466.1,10967.238133535524,41.61427732685309,-475.8878173435766,10955.940459847641,5863.9912162345345,99.29883135663862,-452.51645547010395,5843.995348091918,24188.602671406545,504.76190363723356,-1650.0789846716764,24126.571948890323,1.3197665315065328,-0.3197592964894212
2664.9783878695407,1678.523160400237,22852.140000000003,24439.380000000005,80461.51044429815,-1359.37,1528.47,80417.99,22852.566213333153,-777.8556729177184,97.1105714713429,22838.691133000997,24439.778532948614,-593.8310956951659,347.5582998484287,24429.692233886046,12211.317644938066,-385.5128935952779,27.403886233064718,12204.4019724971,-0.2784150021577232,1.2784110050056017
2739.830439250931,1669.4624883478145,5063.85,9857.289999999999,33301.85163682194,-1372.7,-1415.03,33201.5,5065.773068118604,-66.40742781357979,-417.6902064777377,5046.157128691473,9858.27804939969,183.29553791715227,-714.2447998573535,9829.670556827243,5764.249969317411,-304.95409441409157,-186.798955571633,5751.452590789342,-0.2784151049360951,1.2784111077832512
2702.1787186410343,1668.3188394310234,7420.569999999999,17131.870000000003,59226.627986728236,796.01,4523.29,59024.71,7421.882448548734,-36.13085381394624,411.088929343663,7409.086284993159,17132.43852030632,59.22687356461799,1118.5709814928946,17095.211634656935,9648.539529694417,-180.88873625963015,351.83489764847354,9639.415260833568,0.576842428934454,0.4231595847426084
2717.7922897848907,1670.0907160989789,9761.16,10410.800000000001,45033.66170545873,-1591.19,-955.16,44964.4,9762.157778932677,-408.57980072451545,127.72622870817099,9751.768716624687,10411.735522725103,-407.6563002372973,-311.9251140573687,10398.138088335678,27026.270391662918,-832.9874493585547,-656.835723137313,27005.083041348378,-0.27821585122936165,1.2782118554768913
2687.046742290696,1679.1961618584055,7587.299999999999,5484.58,27567.458199625515,-3708.42,-781.01,27254.04,7588.583612583824,-1196.0795334054774,-586.5843076625205,7469.433304459757,5486.355596529975,-443.2223869433249,-507.3682479546528,5443.045944421165,3405.091618161804,-514.7317285691,-98.04568993069589,3361.6375865328314,0.34999005788914844,0.6500103614482418
2666.6259098894548,1673.775522583884,24940.85,10517.84,80790.90049834945,2918.35,-1507.79,80706.74,24941.240520023774,932.430055446622,-217.84499807966193,24922.462086860745,10518.766002757917,94.3330594727812,-364.6882347020206,10511.09233291005,20718.12012412506,788.3216852085505,-556.1060803114474,20695.1761642797,-0.278414483232974,1.2784104860844996
2653.2722648855306,1681.2519888464074,8422.27,14490.130000000001,55583.484798178135,-976.0,-1826.88,55519.43,8423.426375773446,-548.0612501181504,-143.51545594984427,8403.193686505296,14490.802164548235,-379.1340304688817,-426.71091489069,14478.882643317253,16076.065879647787,-370.58986212554214,-572.0109255403554,16061.004976860952,-0.27841510493607946,1.2784111077832356
2676.71531357006,1673.3546396385914,6090.64,6269.749999999999,25199.924181247054,1636.15,721.16,25080.65,6092.238961562143,142.43590640895482,343.44325106699387,6079.2807432674135,6271.303294983887,349.83733679999506,-33.36410519333812,6259.893428546953,8234.002981999447,202.211148138953,527.7067643554255,8213.401328001808,-0.2741823575708663,1.2741783901661667
2678.838408780903,1666.2596586361,19791.21,29583.699999999997,107106.47461909946,2678.99,-3365.44,107007.09,19791.702130420104,481.4713435331236,-522.9131116011768,19778.441305804965,29584.029232766377,1200.5630316107352,-1028.8012369399355,29541.420448448316,43292.30498231268,1467.0510785042131,-1373.6314888464806,43245.4054021038,-0.26168822474616976,1.261684345151404
2654.934050799841,1673.3596445474595,20849.249999999996,7651.569999999998,55562.04017751688,-4784.18,3839.66,55197.0,20849.717156778785,-1693.9771086485455,1404.5267032511,20732.799421634532,7652.8428325737705,-540.4121874041359,833.1645827685645,7586.851449094356,6408.779966793662,-683.4344085525171,283.48527366061893,6364.395824932956,-0.27841510493589544,1.2784111077830516
2684.398951987365,1670.8848703605408,4608.58,5417.65,35815.6622899661,2868.62,-1299.52,35637.79,4610.69296001976,575.9746890007481,-219.15966494532282,4567.190801279441,5419.447525133514,439.4520545859403,98.66374607735258,5398.896079702792,11908.517928154442,617.5357496660466,-598.0053429591132,11876.630772137221,-0.012915465191221975,1.0129133339946679
2718.7790719685636,1677.3105705265555,14196.47,12094.240000000002,27662.821554427526,-672.54,808.81,27591.88,14197.156067891758,-321.6745856255743,264.21779545144955,14190.36556535558,12095.045313382492,102.59527787241103,336.10426621812917,12089.133521836387,6606.994356405625,-166.10711672494722,322.28197673366464,6595.561933879931,-0.2783294078678211,1.2783254113172642
2701.991744943329,1672.5576223259027,4006.9000000000005,7524.18,47783.595532452346,-2675.55,3228.39,47569.88,4009.3300643842954,-342.1130625387709,427.04733295643086,3969.362270926546,7525.4743789063405,24.155200561939505,462.8001099366493,7509.894623556874,8489.42738431608,-649.9384563662738,600.0447679886269,8442.062759642675,0.6114348452135401,0.38856741158225805
2699.1838810268628,1671.3341975798855,4663.59,5087.4400000000005,42224.13009575686,-2795.83,-719.17,42092.16,4665.678047537761,-377.6377494273791,185.73402572126065,4644.562873941615,5089.354154386957,-454.96676558031646,62.16368348707556,5066.674123354758,5501.070845315098,-114.75534501989303,-379.73954989048246,5484.973069673027,1.101733772109951,-0.10172806944745677
2685.558298405747,1668.2394912002294,3934.6599999999994,9471.000000000002,73913.66750988954,5421.96,-7215.72,73341.55,3937.1346523551574,307.3883358242453,-291.0465025998986,3911.822294011266,9472.02834429753,397.91913835995075,-837.4826036933644,9425.503925405681,13185.218724980476,1359.2220341976551,-1090.2420542137509,13068.833176507203,0.12346180146281864,0.8765370258128072
2726.9822496645033,1670.6104423236895,4661.2,17240.63,67699.37747476266,4076.7,-1416.3,67541.02,4663.28911769105,256.0933447873466,-325.1023074935567,4642.7912001745235,17241.19493399677,680.5817175961312,-490.01121155523936,17220.221262664545,20875.50657964438,885.8464328070581,-484.04167780877384,20850.61809043624,-0.2784150859299761,1.278411088777266
2691.349191093125,1676.0343075248306,1871.0799999999997,5491.96,39311.17206415881,1923.01,-3560.23,39066.43,1876.2783166619422,222.9275517886103,-356.0354599586322,1823.3163259033197,5493.733211284998,184.60362010431615,-354.0176750389412,5477.428012379935,8655.325389329726,163.87394693208722,-625.9522689305747,8629.977214717173,1.1066506541190468,-0.10664491690024616
2680.37032304934,1666.2973924242935,4876.48,25413.14,49078.37848820395,-4845.55,-3222.4,48703.67,4878.476928876037,-399.3304110360132,-178.88821471647557,4856.808769125809,25413.52326252257,-2407.3565865790083,-1232.1955631666256,25268.8348171966,14204.535711443574,-1206.9787327565386,-582.4956984787268,14140.482874443403,-0.2378915376401444,1.2378878252907202
2652.453661271007,1669.4671305539382,15915.829999999998,17200.96,53887.72684105816,1658.5,-1571.12,53813.39,15916.441956168335,328.16330517662203,-606.4153155061583,15900.887204780589,17201.52623684235,265.45409308015144,-787.5263285998179,17180.871960637767,12154.281388283542,561.2770300588259,-200.07081196609974,12138.863862657308,-0.27841510493609095,1.2784111077832472
2681.9514760236875,1675.7215609996329,19147.45,19013.849999999995,77462.4821371488,3813.34,-1916.01,77326.68,19147.958675996662,905.9909434134656,-417.88679054423847,19121.438035441828,19014.362250090733,560.3738158603678,-722.4804896844328,18991.853383780723,21972.683281128317,1283.7296613221347,-734.36282436464,21922.410451782736,-0.18669163262577645,1.1866882801140715
2737.1461647638016,1675.7215609996329,19147.45,25527.120000000003,77462.4821371488,3813.34,-1916.01,77326.68,19147.958675996662,905.9909434134656,-417.88679054423847,19121.438035441828,25527.501551259887,895.7359973736978,-1038.449056715373,25490.2557082901,21972.683281128317,1283.7296613221347,-734.36282436464,21922.410451782736,-0.2784151049360777,1.278411107783234
2737.331054842536,1671.959329648829,3442.76,2443.8600000000006,39555.59498937287,-6383.84,6062.84,38527.11,3445.5879574864684,-272.8962071725916,462.88565471204424,3400.5677391242507,2447.842244666877,-215.05560758214042,314.8801897525385,2413.9290071062333,14569.508533261369,-1989.5836777251318,2387.0703886153765,14233.571255827732,-0.2784151049360821,1.2784111077832383
2683.8232051688897,1671.959329648829,3442.76,2443.8600000000006,39555.59498937287,-6383.84,6062.84,38527.11,3445.5879574864684,-272.8962071725916,462.88565471204424,3400.5677391242507,2447.842244666877,-215.05560758214042,314.8801897525385,2413.9290071062333,13128.981889422186,-1807.2275571456714,2064.1138205319526,12838.381836905392,-0.06690807498556862,1.066905564323905
2739.5914019717393,1671.4353113417578,12983.47,3279.9800000000005,25210.94032246517,1503.74,-456.92,25106.33,12984.220161260195,855.311521073624,-287.3747715476939,12952.07902938739,3282.9481804585002,266.36632118921244,244.72299728614738,3259.973686693715,7393.357513117823,388.7392910578368,-264.5603532539682,7377.068858610037,-0.278415104936095,1.2784111077832512
2681.3002054524763,1657.6771398555757,7065.8,15190.270000000002,34364.96794259817,3690.29,-1858.14,34075.39,7067.178333336139,890.4901244765258,-469.47869345484565,6993.721951479178,15190.911184918297,1695.5373200086872,-714.7686820973198,15078.41376274211,5310.044572249443,936.269623740715,-421.0521450667627,5207.994593593114,-0.2121030326288439,1.2120995015234437
2720.744916551337,1677.6680988801093,12608.85,13480.040000000003,57968.26715868605,-1570.94,1140.34,57911.46,12609.622447864003,32.5708811897094,414.2392590701896,12602.0015591351,13480.762528758372,-519.3138048927722,24.0264598100148,13470.011666768401,9135.686208467088,-486.7824517942072,161.1545957676343,9120.216805826942,-0.27840077825921394,1.2783967812070594
2727.195490018458,1686.3563532064866,7310.88,8452.87,31850.244649292727,-4496.55,912.77,31472.88,7312.212136527207,-1036.5295168498526,-201.74519352097013,7234.2153556546955,8454.02219018118,-1174.8893569178185,-199.706007533904,8368.4385488845,3815.9233105600765,-331.41140697215997,163.48602673017325,3795.4221840649975,-0.27841509016417443,1.2784110930114345
2677.1763242920883,1681.053315632791,20421.61,23732.51,230874.2288605844,6454.03,-2955.69,230758.95,20422.08693907838,693.8600994246891,78.7947847624036,20409.666938400063,23732.92040300299,675.2361593566609,-161.31461455533062,23722.353690650685,28334.61375046563,1030.627467013531,-137.49118138918973,28315.186025032177,-0.272627782005928,1.2726238255269307
2706.8423798537956,1686.692399342854,15733.729999999996,25454.73,70217.3727371197,-2957.86,-982.86,70127.88,15734.349038586744,-586.4264751365806,218.8742499449686,15721.274050307431,25455.11263632663,-1055.6709863800354,-2.4336674846585877,25432.829811459793,15567.895657669207,-798.2564670847819,-228.56752197243964,15545.109801913806,-0.08087578227915983,1.0808731734511434
2678.2250596299464,1680.1630873221802,10377.64,18623.15,55658.00182813789,3076.87,-982.8,55538.79,10378.57851176045,656.3327428737987,-300.1991618299355,10352.512727037256,18623.67299642248,969.7915621895406,-480.7582055443237,18591.66726778983,17848.96569696899,1488.7169113080536,-543.5825710907413,17777.917100796476,-0.26697047266747115,1.2669665559485728
2726.1493392664865,1660.0941238375613,11011.76,10994.1,52203.77983223629,2025.34,-2408.17,52082.41,11012.64447136907,623.6312796167533,-699.1664216623161,10971.832510547338,10994.985891995304,169.51718349885775,-657.2126554774039,10973.129465197198,12542.946554301974,271.2833464536155,-227.7921665344321,12537.166521335772,-0.2784150548863247,1.2784110577338326
2700.811353204107,1675.19469017776,15548.78,12159.559999999998,40865.99360458277,-3256.94,-1683.99,40666.69,15549.406401646842,-1000.8908269623402,-787.6553491709236,15496.527872133975,12160.360987601302,-916.420763337451,-612.0068798172787,12109.521871534826,2819.266910258015,-450.2179586275516,-134.5965359163974,2776.323741631827,0.8293309253450478,0.17067286284477226
2650.4588534509917,1674.803197393652,4715.08,5705.679999999999,48234.92788260494,2089.94,-1128.68,48147.29,4717.145255509498,430.7753246525611,-202.88262415740738,4690.975449401274,5707.386811630676,365.8536721139687,-33.41976845944534,5693.840397488925,26875.752410067995,1446.107314638046,-741.1660498372661,26826.219155393832,-0.27841510493609517,1.2784111077832514
2679.094083235195,1674.803197393652,4715.08,5705.679999999999,48234.92788260494,2089.94,-1128.68,48147.29,4717.145255509498,430.7753246525611,-202.88262415740738,4690.975449401274,5707.386811630676,365.8536721139687,-33.41976845944534,5693.840397488925,8593.533482519037,-2.574223174960631,-424.8842198980784,8581.888168291209,-0.2589041053502354,1.2589002453225207
2652.9664908038844,1674.803197393652,4715.08,5228.54,48234.92788260494,2089.94,-1128.68,48147.29,4717.145255509498,430.7753246525611,-202.88262415740738,4690.975449401274,5230.402516707081,347.4469124349437,-206.74119166528908,5212.884926248444,8593.533482519037,-2.574223174960631,-424.8842198980784,8581.888168291209,-0.2784151049360855,1.2784111077832416
2692.095303618007,1670.620393745988,4659.6900000000005,6458.680000000002,33733.57588998237,1236.94,1444.7,33638.46,4661.7797943785135,178.62738075802707,593.853939104364,4618.239995274581,6460.187868597615,552.4593762548279,253.9901065472861,6429.994168408261,2842.0791293832353,260.2054905662899,273.2516479709026,2813.4605847710645,1.2090174251547317,-0.20901096849269352
2669.9424951220376,1659.6424313688776,5966.13,4433.87,33300.277208955784,-2172.69,4550.96,32874.34,5967.762322016165,-177.410113892101,875.0336521812393,5898.944730707278,4436.066177603279,-98.32578674119905,693.6552369559851,4378.1705801402095,21016.24345508911,-862.8831921225998,2716.7650911088144,20821.566440709616,-0.27839794190419614,1.2783939448719757
2692.6967130064713,1674.1065527618007,8541.4,12569.05,51479.8237777248,7859.44,3473.02,50730.04,8542.540249549647,1034.9631542885493,313.9959279884048,8472.64845172227,12569.824893675956,1686.1939603700102,984.0331212797159,12416.498968982207,4551.870278036904,893.8379817582173,211.0162624814634,4456.071012925483,1.278209122352786,-0.27820217940503117
2689.7758180729347,1669.9517957113383,4315.860000000001,4112.53,39471.641328728656,4786.7,838.97,39135.73,4318.116197461084,778.1354084376549,-21.16028097879772,4245.080101510979,4114.897684763956,503.1989003653594,231.83051575990572,4075.0396905470243,9553.659556671242,1167.817334048873,-292.63521793711266,9476.470770973647,0.8450822245452434,0.15492167434618037
2691.7434516663047,1673.4743798456436,13353.349999999999,17248.99,38144.47144397992,-567.09,1416.94,38077.17,13354.079383382283,-238.5780981471488,442.0489328723404,13343.89858529099,17249.5546602014,-771.0418496245223,949.5336062607302,17205.567018172027,6980.085534667592,-210.5080472651738,372.6242270142417,6965.554655846054,1.162873171670281,-0.16286703931437058
2661.2878437215654,1672.9228165099319,7837.180000000001,4240.649999999999,39448.39207415303,2504.83,-405.24,39331.14,7838.422692581447,742.5083037565756,-239.05173691229442,7798.264296516999,4242.946190758936,371.6220852891952,82.0568879461466,4223.538340700354,11081.059010201858,438.1363015383674,-486.3329726351241,11060.827530225855,-0.27841510367054295,1.278411106517708
2675.139705800778,1667.602020867125,4499.600000000001,5764.509999999999,32152.35271037098,2792.19,-139.42,31987.14,4501.764111454062,245.4826198300829,451.8648029335306,4470.118191192623,5766.199397807516,466.0634083407619,209.28311163378828,5741.8255823989175,3719.409611655561,431.9277227972312,1.448475945187805,3691.6072716767467,-0.2770465642559258,1.2770425767213138
2722.845187595808,1667.602020867125,4499.600000000001,7195.0,32152.35271037098,2792.19,-139.42,31987.14,4501.764111454062,245.4826198300829,451.8648029335306,4470.118191192623,7196.353587420213,659.7550519153128,271.52064566683623,7159.540823994852,3719.409611655561,431.9277227972312,1.448475945187805,3691.6072716767467,-0.2784132962967431,1.2784092991566105
2658.549534218894,1667.602020867125,5764.509999999999,7195.0,32152.35271037098,2792.19,-139.42,31987.14,5766.199397807516,466.0634083407619,209.28311163378828,5741.8255823989175,7196.353587420213,659.7550519153128,271.52064566683623,7159.540823994852,9703.39382212614,421.1618767486625,-111.04395325501962,9692.60871108078,-0.27841510490112786,1.2784111077482843
2732.198331547663,1673.775298539346,10433.59,13510.38,55999.35761435662,1862.04,1813.09,55913.97,10434.52347945395,29.071505267637807,372.915906062944,10426.88298882685,13511.100906276131,291.37008454678227,677.6150689854874,13490.230132822604,13900.500710232554,835.048704098206,575.7911807314094,13862.741367347795,-0.2784151049114869,1.2784111077586433
2729.954660402456,1669.8510412605808,11645.89,22494.799999999996,68272.50306691999,-2101.97,747.36,68215.61,11646.726314603418,-367.45900004747153,-213.57612925630752,11638.131852337643,22495.232983794045,-533.7805615345657,231.89840153355036,22487.270365331,17407.559534730186,-497.61055456569215,538.678776399863,17391.545587205328,-0.2784151044496547,1.2784111072968145
2697.592158987021,1678.921975554552,17771.6,13436.280000000002,57504.2760243184,-6233.0,-3894.69,57007.93,17772.14805574092,-1838.1490780114061,-1353.2260079155926,17624.40790206884,13437.004881802188,-1127.3889866228667,-1190.490308239868,13335.866943593448,8498.636140892006,-719.4406934722115,-864.7995533783154,8422.699277615988,1.2994150295621831,-0.2994079375773299
2677.363455927882,1678.921975554552,17771.6,15612.789999999997,57504.2760243184,-6233.0,-3894.69,57007.93,17772.14805574092,-1838.1490780114061,-1353.2260079155926,17624.40790206884,15613.413833600764,-1531.4328945564807,-1439.671314259036,15470.658401647615,8498.636140892006,-719.4406934722115,-864.7995533783154,8422.699277615988,-0.27185915974523744,1.2718552086681894
2651.9914944855414,1678.921975554552,4027.7799999999997,13436.280000000002,57504.2760243184,-6233.0,-3894.69,57007.93,4030.1974745135963,-256.8705998888648,-304.96690134550425,4007.995061423661,13437.004881802188,-1127.3889866228667,-1190.490308239868,13335.866943593448,8498.636140892006,-719.4406934722115,-864.7995533783154,8422.699277615988,-0.2784151049360933,1.2784111077832496
2739.6068652054464,1678.921975554552,15612.789999999997,13436.280000000002,57504.2760243184,-6233.0,-3894.69,57007.93,15613.413833600764,-1531.4328945564807,-1439.671314259036,15470.658401647615,13437.004881802188,-1127.3889866228667,-1190.490308239868,13335.866943593448,8498.636140892006,-719.4406934722115,-864.7995533783154,8422.699277615988,-0.278415104936095,1.2784111077832512
2656.0708234140293,1678.921975554552,4027.7799999999997,15612.789999999997,57504.2760243184,-6233.0,-3894.69,57007.93,4030.1974745135963,-256.8705998888648,-304.96690134550425,4007.995061423661,15613.413833600764,-1531.4328945564807,-1439.671314259036,15470.658401647615,8498.636140892006,-719.4406934722115,-864.7995533783154,8422.699277615988,-0.27841510493502697,1.2784111077821831
2707.1271980362326,1665.0286784316959,33833.770000000004,9280.9,82121.51757387159,1587.95,1210.06,82080.36,33834.05787617081,337.2654820979359,344.03594798048954,33830.33969196855,9281.949405441497,1.8867012946661617,380.8525315291615,9273.082152099487,12968.51107000244,254.63174623059203,424.3833065001704,12958.312424871365,-0.10316283885884381,1.1031600733953104
2679.8208701208105,1671.9694973291369,26236.940000000002,7528.869999999999,71600.96528038153,3649.38,-1311.66,71476.32,26237.31122883547,1267.7719833246838,-819.9263711507983,26193.46283918544,7530.163572730393,443.614866170679,-120.05662965643201,7514.830386182239,4918.160809446533,390.99655468346594,-339.97170772024714,4888.800131379421,-0.24860238619630176,1.2485985985700325
2696.125106517049,1676.2004653383428,6502.839999999999,7502.479999999999,51294.15261329599,2329.54,-2232.07,51165.14,6504.337631210096,466.3096302711387,-395.14277519016923,6474.051712917607,7503.778122091281,53.6581148422175,-529.1472354643648,7483.6040889608785,21071.452240775332,833.0243719896748,-800.6146087419962,21039.289584585316,1.3982948735327094,-0.39828708661106876
2684.0137842136355,1669.3619290016884,3453.4499999999994,11108.069999999998,32458.172810158307,-622.24,1986.91,32348.28,3456.2692108219476,-228.81783604858262,300.9361888253939,3432.6952545574572,11108.946803368703,-313.8983502500398,681.0957420290056,11082.725095426676,10553.502954544323,-562.5916090523046,245.71962402321574,10534.707267133426,-0.05001864518389491,1.050016253222723
2731.5851844289946,1684.4899821607726,4178.090000000001,3324.57,25290.23428456328,2237.58,833.11,25120.86,4180.4205533983995,401.134232754182,-192.65065614097023,4154.324626230017,3327.4984057209963,353.8211791954169,-4.60462122971665,3305.685262621972,5909.268484302924,90.89948349909028,411.77866659586493,5892.55035430637,-0.2784151048794325,1.2784111077265892
2668.7740553453846,1657.4482646526255,14249.130000000001,21590.95,66923.31227474399,894.18,2546.07,66848.34,14249.813532537042,409.8705542861978,530.6292525787161,14233.346215206631,21591.401109184088,102.79345158985349,576.0059236470663,21583.020469450836,6837.384666433196,289.0055156642385,461.81677865288646,6814.216770581218,-0.2784095184929504,1.2784055213793688
2658.2643251963163,1671.1570841785042,17722.35,6085.160000000001,37874.164846818734,2534.5,-1485.48,37723.06,17722.89957872796,1698.8722426709774,-982.6594077718561,17613.344461342356,6086.760401130949,661.1253428596724,-334.84291215546966,6039.864711300074,5018.491193344447,503.37924167100255,-333.33939479320645,4980.087156810976,-0.2784151049124151,1.2784111077595715
2665.142606349029,1662.8070393163484,9134.739999999998,18614.51,46053.39327416493,6900.76,-1690.22,45471.67,9135.8061944623,1777.9117436047782,-164.987300935561,8958.531346715386,18615.033239166554,2631.269055165743,-567.7691627025852,18418.850232229783,3199.7454344331472,484.60428171401844,-161.76325838042897,3155.6112289669945,-0.2784149814045415,1.278410984252566
2692.5133268729587,1675.6041447787961,8098.959999999999,3960.1799999999994,30810.17097226823,2349.78,-1214.82,30650.64,8100.162531503659,501.5473855283442,139.41397157269137,8082.2130042581775,3962.638715247173,277.4675744810802,-282.79259213652915,3940.3128971370134,8809.475694505083,579.30522023841,-611.8210964215164,8767.979383226111,1.25846520464367,-0.2584584004580149
2735.858360372561,1679.0062537107362,12768.77,12435.259999999998,33097.684443178194,-1127.91,1122.36,33016.75,12769.532774071093,-49.05013878171485,368.0833179804077,12763.369307036839,12436.04323017477,-47.77855718071998,358.49088700184586,12429.999708809743,13759.777876843644,-275.2677757342754,420.7705134082823,13749.87953007547,-0.2784151049359686,1.2784111077831248
2708.783499469198,1675.6747148536915,6048.919999999999,4726.589999999999,44171.772734479426,1388.59,-2254.28,44060.5,6050.529986833862,455.7927412280755,-398.25529620027584,6018.561195376535,4728.650228477019,377.1674590767221,-58.47456927391033,4711.154684433725,8580.43521303994,701.2151783368357,-252.33083001186932,8546.871644987747,-0.19670601280849626,1.1967025899147912
2662.478287067619,1678.7207182852067,9899.41,19692.92,67442.38750816952,1358.66,2413.49,67364.58,9900.393845866727,360.1242757015919,208.62670258755074,9890.657397418932,19693.414586647377,493.52949843513437,683.4509969523061,19674.867763096634,31237.891801649745,311.81958522833554,1334.1759854106008,31207.51747964939,-0.27841509941253434,1.278411102259729
2683.6263143500764,1675.5831074584155,2832.39,10662.99,33892.77175690121,-2117.99,632.67,33779.08,2835.8266990907205,-337.7485131673837,121.42599567945794,2809.5577555064556,10663.90339862828,-308.65313100242554,466.42181646599926,10648.31158794421,6790.084592821783,-219.8474881731391,426.02169207912306,6771.7015160387855,-0.08336269932949276,1.0833600730231912
2703.3476500030547,1682.7923223024284,13452.769999999997,15165.19,48442.28771279284,4810.63,-639.89,48169.2,13453.493993311762,1262.283696748052,-256.3262463083994,13390.965514005233,15165.832245256961,1177.3576558976372,23.67864351577152,15119.399988360665,7241.585131224778,378.69933698153733,55.640291661396866,7230.115229214095,0.36785403052726395,0.632146514359796
2672.0296628330416,1668.0589767751019,8200.49,9320.8,35715.932154132555,1825.06,-2027.93,35572.49,8201.677645169662,702.5235031763843,-509.7141026056537,8154.427539759593,9321.844913705429,985.693133303183,-743.7130852336965,9238.647765436841,6549.227363802219,511.55320529586754,-557.6365325928696,6503.864537586043,-0.2783027462826116,1.278298749919435
2668.3072677257924,1666.84214909518,4980.94,6806.69,34016.130965073025,237.33,2036.46,33913.35,4982.895066000865,160.91272692746986,586.800578477243,4943.635854208068,6808.120791472179,-205.03393547205224,414.08161685019377,6790.9886066751405,12185.449338357439,-236.01571996723789,880.1656897400972,12150.526760640161,-0.27841158730434507,1.2784075901762233
2687.774429258791,1686.5750798585518,4853.83,2609.37,25222.6540517706,-1231.48,-3945.93,24824.4,4855.8362435399085,156.49812926924218,-617.053058175307,4811.903940004593,2613.1000271852918,-44.92714330805958,-361.9609284378509,2583.752626506374,5836.149143534267,-63.10481082472945,-466.77168764612577,5815.436255764717,0.4771013582601955,0.5228999544272974
2652.814434692957,1675.7942892849348,20420.53,23466.74,66955.19944527162,2317.49,-3189.34,66818.02,20421.00696430212,583.4931081006599,-904.0982390767138,20392.159955428884,23467.15505089562,497.0105534782341,-1230.3104011476764,23429.19552725102,27529.483803952367,1119.4365728337732,-1250.7375656135184,27477.909597679827,-0.2784151049360876,1.2784111077832438
2707.787809212757,1686.5509182944936,3697.8,11881.21,47517.730778531506,1391.15,-2713.97,47389.76,3700.43305508636,-19.42089161583403,-365.9126264504929,3679.5999264557213,11882.029751657574,330.9356505332013,-399.14597984107144,11869.891117701243,22696.31914754628,704.6504852435094,-1410.0621636795613,22641.08246706207,-0.14738041616243513,1.1473773399336344
2736.7679245953236,1663.4368037288828,8653.01,11336.9,40030.47577835792,1462.55,2739.44,39875.16,8654.13554407809,820.034208508278,480.6024939433603,8600.64806859295,11337.75910685951,687.4838686355646,682.3584479795481,11295.443970417313,8649.42615698728,182.8822253631465,506.7481495144611,8631.503536152311,-0.27841510493606375,1.2784111077832199
2657.2329896065157,1671.8311816687713,5759.989999999999,11951.759999999998,27172.250326612626,1004.12,1085.21,27080.44,5761.680723128951,34.413174106412896,419.1635373829139,5744.615083926559,11952.574913079428,324.12896843379787,212.75430785789146,11945.469564395948,7195.893673948759,467.77631241124993,188.15040761613113,7176.851019580999,-0.2784151049304546,1.2784111077776108
2652.277052617584,1674.3524121283428,13873.700000000003,5374.94,42043.11338125425,1338.75,866.08,41979.49,13874.40202838219,511.21669450609227,609.8175064568715,13850.860326711732,5376.751803717163,481.81779256089595,191.41755257210292,5349.877656445898,12391.34605556538,463.2200142613232,308.8514259614581,12378.045691007497,-0.27841510493609206,1.278411107783248
2654.444366016864,1674.3524121283428,20820.01,7905.329999999998,42043.11338125425,1338.75,866.08,41979.49,20820.477812847515,712.1525517004038,473.7726940432193,20802.43241973365,7906.561981296026,571.307277165807,49.8556744756513,7884.50155784625,12391.34605556538,463.2200142613232,308.8514259614581,12378.045691007497,-0.27841510493599964,1.278411107783156
2724.3718927924474,1659.0596734295002,15112.84,10137.23,86775.54601499492,3454.78,2550.36,86653.35,15113.484469862526,204.151838329315,643.9983012514722,15097.732315831143,10138.190766999593,257.34984096560316,618.3178750334029,10115.082112255399,9305.516747396448,177.6135417450816,451.3944134593883,9291.816748848765,-0.27841474238549196,1.278410745235196
