Omegac_M,Omega_M,pi_Omegac_1_P,pi_Omegac_2_P,Omega_PE,Omega_PX,Omega_PY,Omega_PZ,pi_Omegac_1_PE,pi_Omegac_1_PX,pi_Omegac_1_PY,pi_Omegac_1_PZ,pi_Omegac_2_PE,pi_Omegac_2_PX,pi_Omegac_2_PY,pi_Omegac_2_PZ,pi_mi_Omegac_PE,pi_mi_Omegac_PX,pi_mi_Omegac_PY,pi_mi_Omegac_PZ,sweight_signal,sweight_background
2669.103132741103,1683.6989784400653,5456.12,9731.98,27952.30640600879,3861.51,557.67,27627.42,5457.904855306271,670.2194460110202,52.589353285516445,5414.543905862219,9732.980770328058,1209.9194948561355,-63.00146794203617,9656.270519792008,5019.590767948694,498.04072902282843,433.14402671668097,4974.047969898768,-0.21680071140560547,1.2168014069555535
2709.4297988814537,1676.1924859632802,9530.33,5748.94,41477.62204947265,3012.42,878.29,41324.78,9531.351943144045,747.9162840692973,-105.43386538056045,9500.35235351589,5750.633971900469,221.46763465447333,326.3014193484246,5735.39803275516,11822.353889817196,511.32845906147054,379.8632291420791,11804.3559195324,-0.2044072728358747,1.2044079417696798
2658.1502185558966,1682.5493306289716,5138.82,17151.32,30630.71956093425,-1876.48,-1661.41,30481.61,5140.715022988123,-132.016818685907,-324.1854269217831,5126.884664292302,17151.887875612287,-926.3547295436535,-1443.99941665072,17065.301355152347,3687.342409537765,-364.64245429981713,-241.28943056481762,3658.6649725302686,-0.2168007191138146,1.2168014146637791
2719.253876444498,1659.2346127055089,7451.28,11694.93,24827.862679475653,690.86,-1361.23,24725.28,7452.587040322022,272.63388629712045,-675.8263865060833,7415.558178434355,11695.762807960657,506.58962168411557,-1056.6651129338773,11636.073800866443,10446.812381275726,305.4586384071345,-923.016969307158,10400.535739518109,-0.21680023341830537,1.2168009289672268
2684.752814174477,1663.708508122742,4455.32,16007.699999999999,43870.71085057661,-2748.3,4604.8,43509.93,4457.505609371206,-280.91861330962735,467.18404018053127,4421.843519132805,16008.308444216576,-307.9195097868644,1553.669836121457,15929.147965469432,8856.729794460014,-389.6294993445062,722.8447048448879,8817.475096807375,-0.13200101656350988,1.132001529997673
2703.2728666034986,1666.74960626964,9352.04,1538.4899999999998,31438.587263647838,4466.26,-1245.7,31050.08,9353.081423615204,1036.9781426637812,-606.2430883346283,9274.578039516628,1544.807895913201,397.1147500879615,-116.25436708844765,1481.8016997882812,6157.3320535501225,962.1853844045079,-71.58046264311994,6079.665581749226,0.21636213936261886,0.7836376259269925
2729.7926974607713,1659.0013562381077,6910.170000000001,11963.839999999998,24647.39677058208,-318.47,1657.66,24533.5,6911.579369729887,-323.48168831574213,350.13124883148527,6893.70851826621,11964.654090310163,-515.6584401221407,1288.9748066062932,11883.017624604663,3254.903777882808,-145.19667515330116,406.4792012536393,3223.136862215539,-0.21680071911379073,1.2168014146637554
2703.137785283365,1686.5839735987058,9119.280000000002,6635.669999999999,27121.898441086312,1009.75,1654.06,26999.95,9120.348001780185,506.41925642386326,809.3567473033136,9069.164730597726,6637.137658966835,358.95896965136046,62.55118662195063,6625.658620549281,5917.876085900733,384.2069099677993,141.6996147999181,5902.0406371354775,0.2392584377900869,0.7607412783274448
2734.4281618090013,1679.3512884444042,4827.979999999999,4277.009999999999,31081.4823936311,2857.84,-265.94,30903.08,4829.99698090752,404.7664803136608,215.2607092703985,4806.1645627109865,4279.286680660197,547.0568196662927,20.107132249316592,4241.832042807601,19778.862449900294,1437.1298506254686,64.3163732651533,19725.98390584032,-0.21680071911381468,1.2168014146637791
2729.659223580163,1686.4607170044153,5520.16,2534.29,69556.68522994033,-4679.7,4228.83,69249.59,5521.924155652247,-308.76547276720464,232.1975646137884,5506.624610359259,2538.1303668794817,-185.67305218905722,333.615287297525,2505.3646764238115,4663.68893850949,-279.59987410213216,589.0154072976213,4615.777217367417,-0.21680071911378396,1.2168014146637485
2729.258990777807,1658.532936061229,4028.9299999999994,5289.089999999999,32487.275545814857,-1063.62,-1275.47,32402.38,4031.3467848940713,-396.55823684904857,-323.9098909035159,3996.2608638903994,5290.931201903476,-46.28912131678172,-386.65578698825317,5274.73484146229,8464.79072421615,169.47544036770145,-336.3671239094736,8455.255009913362,-0.21680071911374965,1.2168014146637143
2717.8956121605147,1677.45007377276,7526.569999999999,6985.339999999999,33835.95939053155,2037.89,1712.8,33689.34,7527.863967957694,525.4850825542359,148.7339999877396,7506.730286227193,6986.734206392552,394.014651052433,346.05393365694783,6965.628043856244,7825.5447379192565,964.3475402399539,622.5438869992006,7739.647499750429,-0.21679800280164946,1.2167986983457806
2727.048469276381,1671.7684498754743,9318.290000000003,24163.789999999997,82307.43842752124,881.93,4399.62,82168.03,9319.335195134674,31.41356728965412,615.8913368217095,9297.861021391864,24164.19307817407,271.40175836624144,1520.5086033812984,24114.376248136694,63674.87296440861,332.13132226084866,3515.105342066887,63576.754323395166,-0.2168007191103581,1.2168014146603225
2651.025726692848,1682.966948576234,6510.51,3941.6799999999994,67198.48676649647,1697.6,1666.71,67135.27,6512.005867263617,238.13702629485002,291.309901533009,6499.628432308748,3944.150247844999,207.81672121643322,286.90596358828003,3925.727754294779,24120.983800242804,287.16664933190106,684.2387748703123,24109.162825591342,-0.21680071911381468,1.2168014146637793
2650.899398832002,1673.5519113549722,3371.59,8339.8,26474.590513567906,-2051.53,98.79,26341.69,3374.4776015371285,-466.7249997263339,-67.48371506311084,3338.4476708392085,8340.967809263848,-431.1914339532162,-157.9685677048392,8327.147405858901,11168.112157960079,-726.2399021088105,169.15829903913374,11142.316199608193,-0.21680071911381468,1.2168014146637793
2730.9484791346517,1660.2405699174326,9631.860000000002,5806.63,40434.36840168645,2040.5,752.97,40341.68,9632.871171918361,365.40104352540516,228.20270481270518,9622.22077602186,5808.307146843715,182.31196078709658,497.06769589705203,5782.442218608809,13282.113335594446,313.66823613696783,520.0176160007699,13267.488406668672,-0.21680071911381207,1.2168014146637767
2724.516158558241,1674.3683137231187,4340.659999999999,10313.399999999998,34382.055574611884,-1469.68,-837.72,34299.57,4342.903313542193,-325.2154075822496,-162.92218145500567,4325.392529824438,10314.344357019292,2.333629765354917,-501.86050347969257,10301.181978259543,10366.549600868933,-528.5459468381215,-22.96913680164075,10352.1003797749,-0.21680071887874602,1.2168014144287103
2671.9160164518175,1670.9177119176156,4208.909999999999,11839.11,30672.11393100091,1628.77,300.47,30581.75,4211.223497188883,316.870725148639,270.40675349378853,4188.245040504283,11839.932666500928,565.9860207697357,564.0141062016711,11812.115538903216,10166.128126483345,521.4214286417914,20.903096411908177,10151.766540027087,-0.2168003322325902,1.2168010277817238
2712.2750819007556,1675.9366783982255,32892.09,8586.62,54634.364902468675,-2013.29,2078.28,54531.94,32892.38611781267,-1572.478759096393,1181.7726392942484,32833.21958854029,8587.754245411066,-292.0631756081119,199.6455297524881,8579.32886584397,8012.655666430186,-134.8067281732538,506.1593783394971,7994.298011918132,-0.21566272316726506,1.21566341627327
2659.752979878376,1681.44506303358,7734.01,11675.69,48477.32777515073,1430.28,1264.49,48410.53,7735.269267147445,36.08899249270521,515.6724115230456,7716.7149894702525,11676.524180220575,290.252938651679,220.50369076157108,11669.99864310466,17261.04428432926,277.2863741695678,341.9189580902924,17254.865213127523,-0.2168007191138139,1.2168014146637784
2679.170678110595,1674.0639922058294,12494.900000000001,4845.799999999999,26195.82041686231,1717.0,-1111.2,26062.15,12495.679491935434,1248.9365781448112,-325.75301068181903,12428.05569708326,4847.809566719362,293.737152686764,-350.5091232139768,4824.172413966487,5251.195139277894,652.3753061781965,-162.83822012807656,5206.098405673333,-0.21555250516006558,1.2155531980293666
2726.843781673629,1667.6553900611482,6656.01,3535.04,42400.02104197827,5257.68,2550.57,41962.27,6657.473174957281,831.9884948866655,367.68502515454304,6593.562920512197,3537.794193671499,647.5146344704563,50.24283975278157,3474.8680920000643,14241.4639333032,1324.557706997471,1055.8875849594415,14139.676916293462,-0.21680071910888857,1.216801414658853
2718.1351401260285,1663.0348011993015,4665.379999999999,13957.48,43377.73449172052,-2815.75,-329.01,43253.04,4667.4672467598275,-438.7541133191842,-351.39727385003937,4631.391295105203,13958.177814656745,-988.7843950686108,-150.93708368519432,13921.593707878326,5554.963659581921,-439.6420754321479,205.11728854128972,5531.978221897767,-0.21679869907727947,1.2167993946229059
2725.1147048779876,1663.0348011993015,4665.379999999999,13957.48,43377.73449172052,-2815.75,-329.01,43253.04,4667.4672467598275,-438.7541133191842,-351.39727385003937,4631.391295105203,13958.177814656745,-988.7843950686108,-150.93708368519432,13921.593707878326,5391.966689509104,-286.0669329930361,203.9205316608322,5378.699373660432,-0.21680071902428683,1.2168014145742512
2676.136360354688,1664.6977203084407,5581.34,4715.139999999999,23881.88068373804,-1918.85,-163.03,23745.83,5583.0848238922335,-532.924312981773,-243.80226468170864,5550.487215368483,4717.205229240696,-516.2404915560869,-293.9704202408586,4677.565859130295,14682.743377229466,-1204.5639579551016,-122.13977197812598,14632.073696974625,-0.21674009889568802,1.216740794315465
2732.701981430328,1671.1612728878083,6467.48,15761.78,43835.85710555458,-4462.91,1271.99,43557.48,6468.9858173886705,-634.7359853480323,530.0605245738428,6414.393472464311,15762.3979369757,-1523.1131209694545,711.5028710002474,15671.872857246166,3799.9940210578984,-506.7935839962977,-79.68766981866489,3762.6167414977385,-0.2168007191138146,1.2168014146637793
2731.3012127632037,1671.15723377541,8178.770000000001,10874.859999999999,31954.7847403374,-983.66,737.69,31887.36,8179.960798688206,-314.22711893108635,408.5611995525936,8162.512957223923,10875.755604774124,-553.5984463215656,462.2548730379255,10850.91835800929,9873.106565290167,-391.74606542047854,-162.3434400703234,9863.008309947514,-0.2168007191138134,1.216801414663778
2732.6039602144033,1658.6839662817024,24120.47,23853.61,45581.26492329716,-356.99,1205.94,45533.71,24120.87380208428,-381.18182612532524,812.4568284156436,24103.769152111723,23854.01831950491,-144.66669433997774,744.5832043886674,23841.547295244724,16539.168914173883,-275.8990201643417,305.14572396079006,16533.46286275869,-0.21680071911381454,1.2168014146637791
2673.286927972434,1673.444800404244,9304.32,5794.78,23853.30846371002,-2931.78,-388.66,23610.03,9305.366764269733,-1455.876714890185,144.75812729070853,9188.571093375936,5796.4605755215625,-853.0963739988549,-174.20170550259712,5728.992545890594,5617.404160648918,-441.5180277803081,-98.51010853367154,5597.419685762509,-0.21679849313100155,1.2167991886761858
2696.1712846876094,1673.444800404244,9304.32,5794.78,23853.30846371002,-2931.78,-388.66,23610.03,9305.366764269733,-1455.876714890185,144.75812729070853,9188.571093375936,5796.4605755215625,-853.0963739988549,-174.20170550259712,5728.992545890594,7080.465746211599,-637.5329385797564,53.7738647709452,7050.118818274871,1.3888906538307595,-0.3888934066628394
2674.609075357212,1671.5295390748443,26823.480000000003,6196.73,39317.93799367027,-1076.94,3983.21,39065.08,26823.84311141071,-701.4239003323569,3115.1342563536923,26632.743425853343,6198.3015938300205,-290.94150479237356,640.3421554564243,6156.685606528448,5884.945299599289,41.666061134280774,593.048325964822,5853.175108137451,-0.21678981306358863,1.2167905085901314
2688.563819736127,1668.9389593391365,7611.639999999999,4825.05,43218.63386341822,-2983.99,-2180.1,43027.99,7612.919508623204,-303.71184989624567,-281.9862520101359,7600.34909431862,4827.068205202385,-360.0303951254594,211.104873878636,4806.965815284158,4665.937931185516,-286.3087573633997,-204.503604440734,4650.559363531206,0.3026263193421192,0.6973732606865795
2721.6269632725816,1677.6537932481779,4051.500000000001,10006.6,32138.506498418683,326.42,-3069.84,31945.87,4053.903329530168,154.4447555577539,-465.6100215135165,4021.691979173305,10007.57330800908,261.41201778615084,-928.552196063829,9959.994886351198,12069.816996759964,574.1689648875678,-674.5648111578129,12036.456899578361,-0.21680070033140433,1.2168013958813286
2736.3812382049155,1669.3053195866353,11783.500000000002,22072.93,36855.343601889,-1739.13,2016.8,36721.08,11784.326548648241,-633.7397572599191,936.196689746023,11729.142420832683,22073.37125905501,-1383.3387899691306,1247.6324898694809,21994.181633952394,11884.669569562117,-513.9988591482904,584.2691533888259,11858.344131947451,-0.21680071911381468,1.2168014146637793
2705.851435764495,1679.2982165178405,2496.95,12426.209999999997,58836.32843524824,1912.06,2797.12,58714.68,2500.847707813447,248.35494409784462,286.6317467708885,2467.9792069596583,12426.99380056479,326.18586560619315,318.84183353396713,12417.835464780783,7483.761594731341,235.41524000911392,454.14511323941116,7464.9540877685395,-0.08723138187431163,1.087231799161228
2674.650607286935,1676.4689081518752,6946.86,4026.65,18299.448014860995,-1166.61,-543.42,18176.99,6948.261927617277,-124.09895123748967,-541.1925171079323,6924.635295041042,4029.0681525230834,-438.7110584831929,-171.61092103809412,3998.998939915465,6580.150372451665,-296.08918502837787,-253.37987240678902,6567.11723693649,-0.216789272780369,1.2167899683057515
2689.378487286001,1676.4923948530156,4541.289999999999,1919.2499999999998,28927.679655203938,-3758.93,-1469.64,28595.64,4543.434253874019,-831.8396654634549,-133.56119262039525,4462.456615238681,1924.3181955372586,-422.65464982478386,-97.60578787832006,1869.5873126586362,11331.859554158607,-1198.8012861713205,-796.7553199118372,11239.20003543251,0.4620002497260643,0.5379989880312558
2657.5806481997333,1670.0700584105816,17005.47,24787.489999999998,60705.31965094163,1939.82,1823.55,60623.91,17006.042745920517,477.4174526071784,409.5162114927403,16993.833557186874,24787.882936129816,1335.8574272293906,828.392255811748,24737.601171187296,12919.213936102142,543.8927783443456,482.8922208621026,12897.969007572307,-0.2168007191138147,1.2168014146637793
2687.7270148175035,1671.081162002612,12592.21,13625.070000000002,39316.47607641992,872.22,-2420.77,39196.58,12592.983468554055,582.1191971261583,-759.309033819744,12555.809002831991,13625.784838315765,630.0780131862921,-821.6320336546225,13585.670944177613,4871.099954340474,-55.32266708204142,-490.7999123717397,4843.984894539084,0.16082802328128007,0.8391718612733733
2729.1344112734023,1661.532951824982,9257.47,7390.6,41180.822037495804,316.33,1379.25,41122.95,9258.52206111082,423.5587807758899,369.5646062658266,9240.388020095434,7391.917769779084,-7.93737353914636,438.6969563750566,7377.563984037588,5013.663063427355,400.4394600849299,368.01989065921657,4982.122736072052,-0.21680071911373272,1.2168014146636972
2698.0294755554955,1684.6849111925944,10381.09,8948.29,27983.708080983477,-2667.17,-4602.98,27421.68,10382.028199888295,-817.8095618533869,-2085.914742163508,10136.428207069102,8949.378407424494,-959.2178203327128,-1858.185539173315,8700.513869839146,7555.229280357796,-823.524975378431,-1304.325138685816,7394.76518025557,1.230476234719656,-0.2304786473410035
2691.9699397389527,1670.4943878983493,2734.55,9591.429999999998,23821.718380026658,2722.18,-751.35,23594.68,2738.10950432516,553.6614290336513,33.695156160757,2677.7018805221237,9592.44543378151,987.1656476370255,-116.45547759558012,9539.78362179999,6408.500033204008,1051.6326944934442,-206.79277481729858,6316.699940994175,1.0065632629605064,-0.006565194706460035
2687.347102118051,1667.8913333908292,7258.299999999999,8508.95,38306.04541514825,-1527.24,1978.17,38188.03,7259.641784907556,-640.3731772576205,555.5899640451436,7208.617126446742,8510.094597457526,-801.9778881194737,586.3502905011233,8450.754694481238,7733.30958630752,-507.1995161471403,531.6018929207073,7697.060820908409,0.10512635451513372,0.8948736496643975
2659.7400051103587,1677.1423612801145,6687.799999999999,13361.060000000001,28872.135176261214,1041.23,332.53,28802.65,6689.256221372879,47.74317134174083,390.19439539498796,6676.23679653385,13361.788962514554,436.11791066377344,167.5631356866912,13352.889128842386,9075.553273799662,336.9855287944971,262.4068979626168,9064.423348657361,-0.21680071911381393,1.2168014146637782
2700.5803227411125,1671.6119465952618,4510.52,8531.33,48995.04679469548,-5361.2,-67.38,48672.1,4512.678874634863,-495.61656947432647,-219.100132372601,4477.851049159274,8532.471595269202,-791.4838584745918,-104.62589081430619,8493.891822577298,2767.6514614517073,-305.8244696736508,276.63443018928035,2733.195829552409,0.7584363272323076,0.2415622738990306
2699.4389951429366,1678.3196954096677,5946.78,16473.54,33117.5934298131,4092.68,-438.56,32817.92,5948.41763190647,846.9983033759241,132.25086945173962,5884.666171500943,16474.13123921185,2117.0726253589582,-65.55159699322857,16336.805887892755,10351.930927864412,1180.2482964757537,-409.35717940103376,10275.331363923935,0.994403191295821,0.005594903073190002
2718.504881804803,1680.2293742224956,6499.889999999999,3595.34,31426.198301017896,1432.4,4529.6,31019.57,6501.388310759154,97.51054175262662,954.7899445335615,6428.641992533469,3598.0480361962614,305.8389007872223,619.2111532962439,3528.3862926270986,4400.114130926124,-187.1362057085379,901.2859919419735,4300.486950479233,-0.21679944821801755,1.2168001437652527
2718.7382673688267,1673.0168110332902,6483.56,3584.7300000000005,31165.625331217085,2219.62,-712.67,31033.25,6485.062083648527,1027.894364688392,-334.60907495740867,6392.810040631428,3587.4460453191177,338.03946521306557,-229.3669528596342,3561.377443320822,5957.445149665735,407.9398358152133,-319.80110603222244,5933.21035351315,-0.21679977421088284,1.2168004697588184
2710.6546043848107,1677.2654083358423,8410.39,7607.830000000001,28217.315033712897,1731.17,-1606.6,28068.23,8411.548008974078,344.27333845171535,-599.237273543164,8381.947894763356,7609.110149293135,370.54093583713535,-679.1584435525667,7568.389560026638,19252.195921797487,944.1869361030572,-1315.0676821507984,19183.5000945384,-0.21211405024907057,1.2121147357339472
2728.542797614025,1657.8232716425243,6436.709999999999,12097.28,37493.38285339027,-2206.1,1609.6,37357.03,6438.223014099136,-269.9639142647833,329.0110200889044,6422.624608192113,12098.0851110238,-1234.2827777397015,867.065002200395,12002.871644108105,3632.752146799417,-447.2123436915638,117.88457988942912,3600.4878211673195,-0.21680071911357204,1.2168014146635366
2700.7444318780877,1677.547614823496,10299.039999999999,14894.750000000002,87864.54844111987,4671.93,2471.57,87689.39,10299.985673619927,346.82741937049906,459.02724436447784,10282.95821501303,14895.403905825307,949.5732394409727,344.54162509935674,14860.456900580532,32266.021866253916,2146.439148655907,739.5004792881641,32185.751896462665,0.723013479539006,0.27698519766642343
2697.0855447945637,1674.2354971747552,12555.000000000002,7641.289999999999,71659.11560284498,4842.51,3864.93,71371.13,12555.775760787375,610.3108192527019,561.5281766642374,12527.578848712757,7642.5645446588,313.7485919016615,557.2503066729305,7614.482699493947,29621.198819630434,1751.3309310123157,1202.726186047269,29544.580370152078,1.3356583452316648,-0.33566098374206343
2656.136291103446,1682.8211431997518,3499.7499999999995,13268.940000000004,25291.650781491117,-1170.92,1680.76,25152.33,3502.531943848017,-169.31829990290322,314.3776368612184,3481.4864752372,13269.674023078935,-630.2110243118636,275.2195452732613,13251.10776464879,4478.165521201262,-216.92901624142056,401.9088670041793,4452.62816150596,-0.21680071911381465,1.2168014146637791
2700.7572683744856,1673.8682743869203,19737.55,10051.68,74278.93505326324,-4868.76,-1581.27,74083.42,19738.043468329775,-1498.4477671479112,-540.7387747043546,19673.157750324695,10052.648943317168,-509.2021148387932,-489.9668832904601,10026.809885597828,9964.897476721762,-476.6810713818387,-534.9288194036066,9938.124978121261,0.7202372015609793,0.2797614816067833
2707.032753103304,1677.1761237268802,7047.220000000001,11374.95,48310.77433166436,-3230.95,-3033.51,48077.82,7048.601966601305,-537.6898896595209,-415.7097169598698,7014.369874919848,11375.806233303896,-1285.2223894487242,-609.8167427321621,11285.64639054597,8473.339563081121,-303.2803121083265,-460.87375180744135,8454.207226776642,-0.15190026913424595,1.1519008253040344
2724.7601017936645,1680.4593865964862,6312.120000000001,5594.320000000001,42430.684945993984,2209.79,579.61,42335.8,6313.662871073794,424.91839199752076,437.46673290843876,6282.5891248863845,5596.060776794314,552.962867539443,126.59585810314223,5565.484868206336,7887.115019420965,544.7213415848573,532.1155677074566,7849.027650417938,-0.21680071895482442,1.2168014145047885
2678.3546632284924,1672.2368253330271,9400.770000000002,12268.819999999996,29538.81428751161,-218.84,1682.96,29442.57,9401.806025869488,161.85933984597446,704.172555286408,9372.962133679302,12269.61385486828,116.28817580634117,342.85861217117724,12263.477044648782,7012.998983835359,188.43707569206416,343.27417329342256,7000.666332753929,-0.21621891337215932,1.2162196076726381
2669.991112737116,1672.2368253330271,12268.819999999996,10142.35,29538.81428751161,-218.84,1682.96,29442.57,12269.61385486828,116.28817580634117,342.85861217117724,12263.477044648782,10143.310282036915,259.4062427170174,418.07357099843256,10130.408995345255,7012.998983835359,188.43707569206416,343.27417329342256,7000.666332753929,-0.21680069129489074,1.2168013868447958
2702.7424414414954,1671.4453326387913,11570.349999999999,11947.77,92510.83167639884,1021.9,-5408.93,92331.79,11571.191774302064,-115.4160420791119,-664.379002272905,11550.683044784391,11948.585185203969,54.78212493065103,-894.6060431940709,11914.10453702538,46239.60064195273,780.0093526100484,-3030.0966418513744,46133.40749741972,0.3099152002717294,0.6900843641033721
2724.278398536784,1676.6746852028273,7980.340000000001,4401.84,28020.70296386941,2672.77,-2525.33,27727.74,7981.5604032529745,325.5834185096448,-930.7391367670538,7919.188507194516,4404.0521500972,473.69382792956367,-235.0357832213675,4369.961981938396,10806.97130560065,1102.9690810872942,-851.4319310368423,10715.860754875286,-0.21680071877078008,1.216801414320744
2687.687128406697,1666.4355673111882,8621.990000000002,10625.509999999998,37264.75106743234,2490.62,290.22,37142.93,8623.119593005527,292.4288080653491,318.18872727970205,8611.152819811388,10626.426620236727,291.08560316747344,284.9494224605957,10617.699174414765,9144.955127679728,701.3292682531513,214.92105541016798,9114.421019984367,0.15471557279609607,0.8452843248856531
2695.9372617348913,1666.4355673111882,10625.509999999998,15297.299999999997,37264.75106743234,2490.62,290.22,37142.93,10626.426620236727,291.08560316747344,284.9494224605957,10617.699174414765,15297.936698953088,927.4232262199658,78.21525034132492,15268.960535153718,9144.955127679728,701.3292682531513,214.92105541016798,9114.421019984367,1.3943852978672333,-0.3943880624996084
2693.647881142278,1668.5875014513808,2808.6900000000005,23370.48,46061.37262121158,-4416.1,-899.3,45809.99,2812.1556627035734,-460.9764806599744,-75.11354046257952,2769.5844736020463,23370.89676040643,-1909.5556502569168,-538.7280071083576,23286.105401791192,9377.098755946627,-918.1265233591163,-118.70542932582282,9330.244039238902,1.272875539105447,-0.27287804278352046
2664.314418341114,1686.0982326068668,7206.8099999999995,20998.27,40679.20428741079,-540.41,-3440.98,40494.72,7208.1613696750555,-262.3122389821038,-657.7385721597982,7171.937160633337,20998.73384154568,-408.3341127227364,-1417.5545179800654,20946.387407709266,9980.695929321551,-72.71861092652549,-558.9823303605732,9963.787534686275,-0.21680071911022866,1.2168014146601933
2690.6994747179747,1675.5067144001541,4932.549999999999,7718.350000000001,34392.888865134606,-2838.47,-750.69,34226.35,4934.524238229636,-417.3051512069987,25.206983082586284,4914.801168031111,7719.611821696463,-630.9731484533161,-193.45395582882722,7690.082910827758,16209.050908602752,-1378.7181644362347,368.7858538471483,16145.494251324602,0.7441979298408282,0.2558007018688854
2737.9562230580364,1675.5067144001541,10140.070000000002,4932.549999999999,34392.888865134606,-2838.47,-750.69,34226.35,10141.030497936381,-946.1133677281485,-213.47170764006415,10093.57810344495,4934.524238229636,-417.3051512069987,25.206983082586284,4914.801168031111,16209.050908602752,-1378.7181644362347,368.7858538471483,16145.494251324602,-0.21680071911381468,1.2168014146637791
2727.8722296035025,1678.766958216939,3988.039999999999,6430.14,51019.48183020777,-3092.02,150.45,50897.8,3990.4815494844433,-390.98163933304517,-34.99409881599331,3968.673810273716,6431.654559658485,-366.11630997358475,-410.56718226686576,6406.5664638725775,9556.709231282272,-349.49797357034,-231.26004123869865,9546.495762105407,-0.21680071911300317,1.2168014146629678
2713.881926588119,1673.6579698373262,7304.569999999999,3359.239999999999,47427.379206945436,-109.93,-3640.19,47257.72,7305.9032870738,-268.2641639238897,-477.1459199077832,7284.031095099029,3362.1382084583856,4.3491604667297095,-515.7286343946855,3319.412363366236,17675.581050027064,-44.60274057858366,-1346.360913205462,17623.620751361665,-0.21655858851947918,1.2165592835494443
2706.0743039971926,1674.2419180034885,4916.6,2554.69,63664.641877897186,-11143.78,-4463.99,62500.18,4918.580640304251,-744.611075068673,-321.5256269875293,4849.240268132252,2558.4997461941975,-584.8306830251946,-151.30945755879577,2482.240825614136,28515.431570700024,-4543.609790289964,-1811.7176149114314,28092.41262450594,-0.10233505089988956,1.1023355006234385
2667.103124996968,1671.5227339165926,12605.250000000002,13755.500000000004,57001.069088752185,2344.03,-538.63,56925.77,12606.022668457956,499.80569501289085,-252.66929736946827,12592.802708527579,13756.208060551275,177.37557006839228,-351.96445756446684,13749.852332943592,23127.901139220907,632.8379349941672,-265.86017956547613,23117.2914863172,-0.21680071874891146,1.2168014142988755
2714.4703762368886,1674.1484402525364,13095.670000000002,17262.21,56869.28932161101,1326.11,-449.97,56827.39,13096.413734457072,282.8895571317043,-387.0015515057445,13086.893292393654,17262.77422777914,452.45896246567753,-475.01092790772566,17249.740276008582,14723.861524585724,147.92284030373557,-599.8830471985201,14710.230365395382,-0.2166681698221681,1.21666886508747
2727.5888903379546,1679.1150943280327,6985.14,16373.689999999999,33352.25297092537,757.61,1464.82,33269.11,6986.534246303798,349.16832754608515,-35.955926952486884,6976.314891829043,16374.284844574913,675.6897593217598,615.8911875029746,16348.145020472624,8436.924525446211,260.59671922262794,476.1961835758683,8418.28616985537,-0.21680071911247312,1.2168014146624377
2690.7027697222375,1679.1150943280327,6985.14,4066.65,33352.25297092537,757.61,1464.82,33269.11,6986.534246303798,349.16832754608515,-35.955926952486884,6976.314891829043,4069.0443813843776,51.465021560172744,502.073597461285,4035.2094960222444,4976.407615707919,201.43711880306586,321.27147476778185,4959.975859736502,0.7449088699917492,0.2550897601911498
2673.23080345367,1672.9237131441469,12398.19,10296.719999999998,28411.85549413132,675.31,-893.78,28340.43,12398.97557184769,244.88625746132456,-277.7479957886097,12392.659200020067,10297.665886674306,391.98834455482887,-475.2292190578931,10278.275394514721,7942.086469862673,429.441683184779,-482.73164782507666,7914.531416106166,-0.21679864278406408,1.2167993383295694
2732.4108882704004,1679.51503416909,6209.69,16059.8,49317.758697015015,-4911.57,1550.89,49019.3,6211.258314647344,-657.3615726430086,10.888497699792028,6174.788020614971,16060.40647042209,-1163.133495104103,312.29199556500276,16014.57992649426,10041.699999904185,-609.8890755439279,98.97632686624776,10021.701349329474,-0.21680071911381452,1.2168014146637791
2721.9015291718993,1671.3192394034834,15672.82,9084.739999999998,35321.5767749431,-1870.29,-771.45,35223.96,15673.441444289629,-819.8291525963068,-263.2878457421505,15649.148424858065,9085.812061823408,-344.9473721693361,-141.2766373148726,9077.089461373753,9801.713751868892,-617.6175101450416,262.3955801316226,9777.720066001564,-0.21680070647880856,1.2168014020287459
2719.0198865542416,1671.3192394034834,12253.010000000002,9084.739999999998,35321.5767749431,-1870.29,-771.45,35223.96,12253.804879109011,-382.5654895884034,-243.31527382632072,12244.619037920243,9085.812061823408,-344.9473721693361,-141.2766373148726,9077.089461373753,9801.713751868892,-617.6175101450416,262.3955801316226,9777.720066001564,-0.21680006097370152,1.2168007565222525
2713.3199838020137,1666.2341522129936,21056.15,22035.21,80118.82684319148,2131.77,-190.58,80072.9,21056.612566547257,574.611331845612,268.13263408231177,21046.600189350174,22035.652014389674,561.5768341251331,350.5109319526474,22025.263977760984,15694.08062699997,242.14082429230737,-260.2831432260313,15689.43298141024,-0.216377895134662,1.2163785897765702
2696.579057402644,1664.1179345226708,4544.11,11341.81,25392.605749999348,397.92,-3753.23,25055.34,4546.252923812727,163.31154609789564,-903.6822950187913,4450.350923318371,11342.668734970433,56.46413053402886,-1278.0438299861,11269.430768530303,8304.432947695814,127.28778831520111,-1134.6196655474405,8224.388284918146,1.371329589272198,-0.371332304390144
2657.1573159900167,1664.1179345226708,4544.11,11341.81,25392.605749999348,397.92,-3753.23,25055.34,4546.252923812727,163.31154609789564,-903.6822950187913,4450.350923318371,11342.668734970433,56.46413053402886,-1278.0438299861,11269.430768530303,4214.491702160033,-110.50596821557549,-581.6814856020959,4170.359149125706,-0.21680071911381465,1.2168014146637791
2714.89705586771,1672.6296661245729,11949.099999999999,13978.35,32198.963564343183,919.97,1049.47,32125.19,11949.915094475598,-5.006323711375953,508.0306514933288,11938.294292061413,13979.046772855285,47.86637102242347,445.1777322544166,13971.177270356638,9744.499587212047,43.59530829816643,541.9943549359397,9728.316083388325,-0.2167161068629205,1.2167168022311718
2719.600831953043,1680.280854500223,21416.81,7790.300000000001,61987.19931949902,-1405.85,-1093.48,61938.82,21417.26477707356,-462.1612144541672,-241.78658541871582,21410.457651228895,7791.55016958601,-396.17681736376437,-88.40536302674933,7779.71737990344,6648.5751336113935,-453.5428442246032,-302.71059861882327,6624.706524370456,-0.21680041130394737,1.2168011068532507
2679.3116771697,1674.108419428049,3365.9000000000005,11197.61,23878.97329753731,-1666.9,1903.21,23685.48,3368.792478793518,-304.7700414812269,202.24566638788096,3345.966933823892,11198.479792689532,-1164.925582410157,632.3459914435227,11118.882886632617,7990.958967656872,-654.4551285993088,928.7094981112233,7908.54806019209,-0.21538184059564025,1.215382533098422
2695.202903651703,1666.5939817484757,5900.04,25811.72,34916.480944432245,-1755.63,1805.58,34785.64,5901.690601579836,-189.6936739373755,399.99392659529866,5883.408295397747,25812.097344337904,-1306.268928539756,1449.9884772389219,25737.833713438395,10469.090397010417,-591.1056553289158,823.036573444931,10419.000848863108,1.389731946348503,-0.3897347009873422
2711.947885477112,1669.3003025219878,7240.73,6500.720000000001,30773.204706760716,-1937.79,2547.25,30560.76,7242.075040212975,-401.47263781675935,416.13549107438195,7217.604997992944,6502.2181195016665,-249.17964431302522,514.4778721461711,6475.537239668381,7904.542296127953,42.154779132229095,369.8719627987353,7894.537773792188,-0.21526831304962013,1.2152690053085902
2728.5063737678074,1663.2284118544874,8123.51,7572.080000000002,36869.76677880673,3230.22,2914.66,36574.36,8124.708897879097,531.4242619124694,641.7340945634439,8080.6670718342075,7573.366192227589,375.5156639587452,788.1104183274125,7521.586633220775,8663.154372171595,1169.4378393280476,636.3805794247688,8559.10033934518,-0.2168007191135554,1.21680141466352
2700.2236030310114,1677.7404447648514,9074.42,4137.4,31167.20856365228,4057.66,1626.89,30813.45,9075.493280895302,1062.4032974326026,334.7816424015801,9005.79362532338,4139.75346067562,291.4184993550065,196.65015634016024,4122.436504574092,5416.988341438052,260.0378441070537,416.3353509830009,5392.896061603081,0.8346353791088134,0.16536305837747625
2675.5333063520557,1661.2717267202256,9097.589999999998,5605.09,37740.61666868335,5071.2,-3603.36,37187.27,9098.660547755133,1218.594712327538,-833.2595431154983,8977.01783829097,5606.827432985233,895.0700350160811,-861.6754214664006,5465.656320018394,3129.873488302007,361.1666234663889,-51.904822293726504,3105.3973428720105,-0.21676944630862666,1.2167701417914296
2727.169256417214,1672.780619208592,4392.28,7666.699999999999,22262.491303582803,-291.11,717.78,22186.04,4394.496962517527,-304.09259360631773,402.1699732434593,4363.2454211899585,7667.970321093826,-204.4796087004966,366.7480264093743,7655.192542630819,11487.637897290975,-466.87596125061475,502.78731813823777,11466.279965779037,-0.2168007191110132,1.2168014146609778
2689.476444615676,1673.1749011983177,7318.239999999999,9984.41,48689.608316972524,-471.85,-2926.81,48570.46,7319.570797032826,-214.12372132982057,-355.8119726017071,7306.448218506523,9985.385470940808,-171.38235865752333,-982.6318943636529,9934.460513556853,17281.60361299772,-356.6058705898631,-1474.3540540928818,17214.33867035968,0.4822420873754672,0.5177571069104918
2690.3312576808053,1657.690335979534,5974.370000000001,6819.18,21574.248941603968,-2224.01,-332.11,21392.61,5976.000071291481,-723.3872565122092,-77.58054936657153,5929.906325767358,6820.608171385875,-861.0143224673836,56.30302995228561,6764.369902490862,14878.204661775417,-1348.5112290396607,-333.9045602174062,14812.54600709547,0.6645238016145222,0.33547500120331214
2651.4766909243576,1672.6416233013688,6942.8,8842.79,39635.727688620784,1870.0,1493.43,39528.04,6944.202747268816,346.0374432863861,224.79550657992644,6930.526452446834,8843.891391196286,381.66774909778076,417.2256097373611,8824.691921193507,20192.092371700255,505.91267876333325,302.3805854828633,20183.00603812746,-0.21680071911381468,1.2168014146637793
2727.8591978189384,1670.9824206136227,8508.28,3542.5099999999998,39171.44957350698,-792.01,3151.06,39000.69,8509.424687578812,-34.29942299617173,607.272843967973,8486.511167786277,3545.258390480977,45.9388154353054,457.7987461202107,3512.504381974087,16315.98697006331,-588.8768201515685,864.9988585487406,16281.798178257139,-0.21680071911298407,1.2168014146629487
2726.3512206282116,1674.2823835900563,3708.309999999999,9295.479999999998,23856.22024652271,1139.05,-1051.75,23746.84,3710.935597834563,-69.06418898033812,-409.0180249408708,3685.0369671380436,9296.527759630244,106.66361597493683,-744.4166136053345,9265.010264906105,4896.289661077638,-54.68144266310858,-411.7100672975564,4876.646106732999,-0.21680071910237006,1.2168014146523347
2719.72790466499,1673.3125081706162,2276.52,6567.28,36594.62039867336,2107.72,-1879.35,36447.11,2280.794437378295,-87.80989810036607,-347.19442947068285,2248.1745395631833,6568.7629393650495,451.7406792586944,-517.1602186443441,6531.281824064448,8264.188660435808,354.39957712729716,-451.2534369479566,8243.064086580587,-0.21680045909121454,1.2168011546406208
2680.943915500117,1662.828238273001,13800.75,8020.890000000001,117150.7927637645,-4644.92,3103.89,117005.7,13801.45573907607,-580.4959467569275,512.4313536482946,13779.010818128309,8022.104234381139,-676.438367982352,258.94304731468185,7988.11968016684,11782.766658080598,-628.6432304787949,432.10261624673916,11757.219279294146,-0.21102949777415267,1.211030180929845
2698.015842498952,1668.0034472387156,6641.41,6355.620000000001,39940.613193954596,-2289.47,-1587.69,39808.39,6642.876390787033,-392.7328053996254,-248.02767421635465,6625.146791165141,6357.152313699569,-409.5516182348155,195.17265356473706,6339.406966878034,7050.621570668488,-367.98822649539716,125.40621313299073,7038.511385546551,1.2323310611918348,-0.23233347779660657
2710.2794475820588,1672.3560476166551,5785.87,5338.44,35603.4499282401,971.51,-1040.49,35535.65,5787.553162786133,376.8390789516074,-232.3055097926603,5768.9096123613235,5340.264187170497,659.1189715757359,-81.76514099559083,5296.9631182996645,4881.055873351151,360.85354579746274,-167.13416489794773,4862.826068554094,-0.210431150821548,1.2104318326922308
2677.7872794607324,1670.5307539820633,6639.999999999999,5492.59,24195.0333214939,-1814.16,-1257.49,24036.15,6641.466702105474,-799.9373902246596,-298.9276853028185,6584.8570531698,5494.363007963323,-460.7542012893721,-110.40208979096508,5472.116761607338,5121.452153215509,-212.69905030130138,-606.9816418233659,5078.988541332845,-0.21646588612885947,1.216466580959737
2691.4195972617267,1676.8686591383587,15135.09,13974.73,54384.6081321517,-880.68,2765.37,54281.22,15135.733522471772,-601.2765809710543,638.3078014473524,15109.665083379155,13975.426953337625,-243.7479176209135,438.0143912378373,13965.736962961317,21639.15011374467,-386.55937300176856,750.457137989721,21622.227536153274,0.8967620553803747,0.10323624868269424
2689.1426498631104,1674.4973126284083,5662.869999999999,5243.7300000000005,36434.966892096934,-1132.26,-5055.59,36025.85,5664.589710833059,-4.304463393584267,-1147.0129740769867,5545.488197245933,5245.587123294758,-245.57325653423203,-936.7666434316615,5153.529503585766,7617.798688963616,-459.15040465653175,-1397.1553161363145,7473.186391285567,0.4140974544557646,0.5859018861775762
2695.564770485204,1677.4032013798958,20986.49,12563.449999999999,51981.44056818837,-3830.88,757.04,51807.41,20986.954101900443,-1395.6717561292721,441.2834743732535,20935.379904947706,12564.225239053769,-732.1135483040223,301.62325330043575,12538.473155370957,18654.212140191707,-1506.0306314684537,-46.55137840526979,18592.73662811226,1.3961775597688932,-0.396180328250329
2716.053402180468,1672.508445419705,9094.649999999998,15733.460000000001,38937.84421244197,-115.78,-1107.06,38885.98,9095.72089378713,-220.85642846972135,-623.5059061153214,9070.56345799658,15734.079049209578,-350.1947510800777,-723.5674602933111,15712.91116688186,4586.114289382219,-78.39659868419615,-385.0599308671043,4567.11584515385,-0.21677688990724023,1.2167775854060292
2690.5684050410327,1672.508445419705,9094.649999999998,15733.460000000001,38937.84421244197,-115.78,-1107.06,38885.98,9095.72089378713,-220.85642846972135,-623.5059061153214,9070.56345799658,15734.079049209578,-350.1947510800777,-723.5674602933111,15712.91116688186,5303.816727185788,-184.97042097487304,-351.1183202968917,5287.106372006928,0.7158741541091452,0.28412453842869617
2659.7083408629674,1672.508445419705,9094.649999999998,15733.460000000001,38937.84421244197,-115.78,-1107.06,38885.98,9095.72089378713,-220.85642846972135,-623.5059061153214,9070.56345799658,15734.079049209578,-350.1947510800777,-723.5674602933111,15712.91116688186,6197.021918444032,29.7853434665428,-356.0372896134839,6185.13952827414,-0.21680071911381396,1.2168014146637784
2707.7227270569156,1673.9920848079782,3761.24,10180.26,35426.76638855711,1351.93,1564.37,35326.74,3763.828674737437,348.43883167023785,-112.47034395308884,3743.3764357749747,10181.216706404779,825.093233779807,599.1599200302207,10129.063244614488,4778.868569449862,275.20078897759646,239.39566949545556,4762.883484620733,-0.17510321971337114,1.1751038257138056
2735.818006200807,1665.8387527007299,10888.45,10248.25,48592.2143983797,-2155.06,2435.74,48454.63,10889.344487051358,-463.1757040997795,697.3648690977227,10856.219135084737,10249.200359914708,-386.7369856119475,66.27179553002459,10240.735843462471,16218.380562916132,-970.579885529631,623.049651232516,16176.716970581649,-0.21680071911381468,1.2168014146637793
2684.630472589723,1672.3812364410214,5927.369999999999,7808.73,27362.191520923538,2859.78,377.03,27158.28,5929.01299307699,390.64889532557726,32.33488221940429,5914.394560128091,7809.977219433855,992.3918209856926,146.03037618723667,7744.036274177137,11351.12809495496,962.8820113508683,-249.3421848528624,11306.604962585796,-0.13798419969638623,1.1379847259800304
2683.59617480799,1679.1268564345996,3758.22,8260.349999999999,17188.591750719428,-901.52,1117.75,17046.0,3760.810753491296,-394.19552071467837,291.05826354043535,3726.139093897772,8261.529039934177,-343.5779996645524,548.2223614883543,8234.973498622241,9290.06848820695,-660.2411124046866,567.9930696186326,9248.100243117817,-0.17582696785425783,1.1758275754090133
2662.644404593566,1678.8790158912584,10453.040000000003,6687.3099999999995,17347.00308259614,-1704.22,1059.76,17148.54,10453.971742681144,-860.6750986315444,375.04415824001825,10410.793701517943,6688.766328051516,-505.5064321693167,300.1286940083463,6661.418846624815,2608.107178026964,-366.67430770200775,52.57312470593667,2577.892378577878,-0.21680071911363144,1.2168014146635957
2656.9292024384736,1667.0851807871484,9037.93,5663.010000000001,24865.58388949071,-1488.87,-1794.78,24699.8,9039.007613675063,-326.48741852307313,-791.4940544901721,8997.284135346225,5664.72966833156,-408.17250192578626,-276.1633976741983,5641.5256133918865,2451.2367210809675,-402.1562707908506,-64.32167025354275,2413.1337642574626,-0.21680071911381463,1.2168014146637791
2721.5615281481205,1660.5706850357199,5027.540000000001,23467.21,26510.43986962495,-1817.64,-47.65,26395.83,5029.476951609957,-370.9816331746083,7.038162501092777,5013.829030164044,23467.625042583146,-1499.5196490941157,466.63571246065897,23414.60307410606,5955.235756473103,-438.89870906191044,-77.72507000376376,5936.891416951863,-0.21680069848295827,1.2168013940328786
2690.573710808418,1663.3805187027294,5645.98,3236.55,36055.19785601238,1745.93,-1067.63,35958.62,5647.70485379466,417.5489971866146,-333.46068818739775,5620.635814993001,3239.557972575236,-13.98888634803094,-379.10690063076146,3214.2399057091056,9253.872589763472,580.3903559168785,-613.3439582574528,9214.208277222071,0.7170220721489449,0.28297661792362816
2674.135022857022,1674.4252745344836,6980.98,8222.15,30637.934193509194,2521.48,1916.95,30427.73,6982.375076976012,631.6259788551282,592.9659678586783,6927.013912516469,8223.33451695088,1006.7478880804383,288.3110024274749,8155.1876789087355,3466.3210288828964,282.28093917099596,499.0837116384753,3415.718729675778,-0.21679448109549382,1.2167951766320617
2713.0390009939883,1671.7492335873824,13190.55,6211.93,41999.54773802689,219.42,-3350.82,41831.7,13191.288385054575,15.609853231904458,-1038.8472384560223,13149.568892177962,6213.4977492613425,287.2017268689707,-749.7293777230367,6159.829165907324,8294.584340596928,363.69603588477116,-518.2190302979935,8269.209373224185,-0.21624562112142798,1.2162463154792644
2699.466877050337,1671.7492335873824,13190.55,6211.93,41999.54773802689,219.42,-3350.82,41831.7,13191.288385054575,15.609853231904458,-1038.8472384560223,13149.568892177962,6213.4977492613425,287.2017268689707,-749.7293777230367,6159.829165907324,14871.34496376423,-86.49255847900558,-1387.9117404943433,14805.527383853156,0.9889870653266272,0.01101104067405307
2705.108038280189,1660.2690294045722,8000.600000000001,4479.03,19666.846411087365,-242.01,2835.96,19388.84,8001.817313284264,21.372785478325664,1536.974476314525,7851.550994752477,4481.204045351626,-67.75552776122447,404.2170093130809,4460.23850693433,6838.954339376436,-215.78510497395993,1154.5498782277248,6735.893991747178,-0.025206360145617186,1.0252066442276258
2705.2142283108046,1660.2690294045722,8000.600000000001,9485.260000000002,19666.846411087365,-242.01,2835.96,19388.84,8001.817313284264,21.372785478325664,1536.974476314525,7851.550994752477,9486.286798467345,-130.3340586573699,1443.8398028570284,9373.819761678784,6838.954339376436,-215.78510497395993,1154.5498782277248,6735.893991747178,-0.03523487756382386,1.0352351831830717
2706.1972079127913,1660.2690294045722,11300.710000000001,9485.260000000002,19666.846411087365,-242.01,2835.96,19388.84,11301.571857899935,-347.8748315126631,1828.4337597437357,11146.383251617066,9486.286798467345,-130.3340586573699,1443.8398028570284,9373.819761678784,6838.954339376436,-215.78510497395993,1154.5498782277248,6735.893991747178,-0.11003644508953421,1.1100369113525936
2674.0544246814675,1660.2690294045722,8000.600000000001,11300.710000000001,19666.846411087365,-242.01,2835.96,19388.84,8001.817313284264,21.372785478325664,1536.974476314525,7851.550994752477,11301.571857899935,-347.8748315126631,1828.4337597437357,11146.383251617066,2604.6022143075465,-89.80272981533159,438.44264640009015,2562.06484210205,-0.21679505333777352,1.2167957488755703
2657.777657830519,1677.3724243591453,5959.299999999999,7131.33,36176.62702206219,3320.72,1778.45,35940.85,5960.934192320509,466.06757142775126,100.38591212020668,5940.198664818478,7132.6956702270545,767.630610895251,697.4019552586186,7055.511414980351,9161.803168742263,525.1917894274429,461.94505748549113,9133.998998017392,-0.21680071911381463,1.2168014146637791
2723.7651133003765,1676.8131977057667,7438.32,9645.84,45108.675057116234,-4678.53,-5043.24,44549.5,7439.629317215728,-898.48382191323,-1120.7359477069665,7298.306802243761,9646.84970655062,-1281.3517244731825,-1196.637690912511,9485.16870174048,4923.568632940519,-265.5692556862808,-395.3309254733979,4898.493090522695,-0.21680071834634138,1.2168014138963044
2705.994435565264,1666.4093134638458,17282.12,4296.73,51728.01784260054,-5119.22,-5318.86,51171.42,17282.683577777374,-2101.635724882751,-1625.0252058166873,17076.711980201486,4298.996237271645,-289.2979285787455,-319.49778971693814,4275.057492453878,11256.765288713086,-871.174559381535,-926.6366562179504,11183.813491132603,-0.09709432624282681,1.0970947647113978
2712.9303858543763,1666.4093134638458,17282.12,4296.73,51728.01784260054,-5119.22,-5318.86,51171.42,17282.683577777374,-2101.635724882751,-1625.0252058166873,17076.711980201486,4298.996237271645,-289.2979285787455,-319.49778971693814,4275.057492453878,8477.199039640143,-1180.2925843429782,-949.769867769423,8339.56055293816,-0.21618475569692927,1.2161854499240512
2706.0732934587936,1666.4093134638458,17282.12,15409.220000000001,51728.01784260054,-5119.22,-5318.86,51171.42,17282.683577777374,-2101.635724882751,-1625.0252058166873,17076.711980201486,15409.852074681827,-1499.3144985469612,-1569.7561121238034,15255.555800799159,11256.765288713086,-871.174559381535,-926.6366562179504,11183.813491132603,-0.10226991755364524,1.102270367137314
2693.8813189344405,1666.4093134638458,17282.12,15409.220000000001,51728.01784260054,-5119.22,-5318.86,51171.42,17282.683577777374,-2101.635724882751,-1625.0252058166873,17076.711980201486,15409.852074681827,-1499.3144985469612,-1569.7561121238034,15255.555800799159,8477.199039640143,-1180.2925843429782,-949.769867769423,8339.56055293816,1.299254986558878,-0.2992575468894408
2708.7189197609105,1666.4093134638458,17282.12,11213.36,51728.01784260054,-5119.22,-5318.86,51171.42,17282.683577777374,-2101.635724882751,-1625.0252058166873,17076.711980201486,11214.228571095553,-936.6127597808553,-1016.6025331071385,11127.835293420543,11256.765288713086,-871.174559381535,-926.6366562179504,11183.813491132603,-0.19583869760722705,1.195839348139164
2736.938427014921,1666.4093134638458,17282.12,11213.36,51728.01784260054,-5119.22,-5318.86,51171.42,17282.683577777374,-2101.635724882751,-1625.0252058166873,17076.711980201486,11214.228571095553,-936.6127597808553,-1016.6025331071385,11127.835293420543,8477.199039640143,-1180.2925843429782,-949.769867769423,8339.56055293816,-0.21680071911381465,1.2168014146637791
2701.4556597290866,1670.1069576527127,8162.94,8272.269999999999,94185.27546961149,103.99,2710.62,94131.39,8164.133107610125,-128.0616896143283,551.8503536781714,8143.257998761822,8273.447341228186,5.289643814966351,399.50985319880897,8262.615496909279,15647.712466149029,-284.21713189770867,319.3464382217602,15641.248797408436,0.5694951002436227,0.4305039066578066
2692.954766283506,1676.5147628338266,16663.14,10533.19,44717.658526899635,-1444.5,-2135.6,44611.78,16663.724512088396,-602.8243928644316,-1146.8779019881817,16612.69118742953,10534.1146534142,-292.08984804886353,-223.03040174753272,10526.776930127433,11163.912486076546,-288.47386673679745,-769.780537296915,11132.730248874659,1.1779650260703578,-0.1779673259186578
2698.8353810158796,1674.8651438250185,27389.4,3760.82,56697.67645259372,1763.0,8273.73,56038.01,27389.7556088983,1407.5306570119296,4175.524107197836,27032.630065159796,3763.4089636359977,241.98458267344722,482.2618123382086,3721.912690876645,3966.3763968609655,41.90679473966867,462.47802128400633,3936.625416112623,1.1053463682832891,-0.1053485121757934
2725.8857388286833,1665.8735696324259,2454.9,22155.81,30209.158968125874,1527.35,2649.81,30007.73,2458.86436494081,249.09403428457003,295.72768492352554,2424.25891943365,22156.249608434995,1285.4366987412113,1839.2978304801104,22041.881787642826,10575.311051088556,702.1110143593586,825.2600087149513,10518.731383281496,-0.21680071908874113,1.2168014146387058
2706.882538047182,1669.7543981076979,13493.069999999998,12252.15,29072.946982634905,-633.93,952.11,29002.41,13493.791831063487,-478.376810929544,206.94623986409454,13482.999180652312,12252.944934899355,-109.43619294338316,488.0128625607711,12241.938032360287,10786.493016883469,-310.39767069357873,170.50519850298346,10779.774251412295,-0.14560473579265448,1.1456052784421584
2667.5187811092915,1672.7046959937438,20386.800000000003,3411.34,48834.33618450444,1998.68,75.58,48764.68,20387.277753422008,854.4922110059667,180.68506172602835,20368.083125561898,3414.193982593223,331.60690835273084,128.6961262420148,3392.7444290755298,6379.596921442276,509.1038752473412,94.51955111977536,6357.016298827953,-0.2168007184133103,1.2168014139632735
2699.905539686206,1685.8466715570548,11514.12,18111.21,34300.53384750447,2145.41,491.14,34188.31,11514.965884863741,767.7455963552497,-115.01463899495167,11487.91964223697,18111.747779252993,962.2267497530871,32.16470123185002,18085.602361496127,7957.774051685295,589.8529964102331,-156.00920462811635,7933.121861738743,0.9010330895415959,0.09896520534900202
2736.1058361552255,1670.2296997718963,13630.909999999998,8771.19,32175.484002168483,-304.02,-766.15,32121.53,13631.624532067912,-86.94912745296143,-415.0824864674421,13624.311131457735,8772.300380816641,155.16300429669573,-316.27368595851,8764.112585639681,17866.56515941371,279.890283106717,-519.4912804332034,17856.272311974197,-0.21680071911381468,1.2168014146637793
2703.168677782547,1666.5660052935198,5842.73,14779.150000000001,27502.75389870076,-504.25,-2347.86,27346.98,5844.396787357595,-180.0983965693989,-407.43624496439213,5825.723485262791,14779.809020338382,-463.8646598181574,-1251.3745946283707,14718.769171496322,13926.179418116648,-668.7865875644394,-1314.596599709767,13847.149652933105,0.23396419433117616,0.7660355331562703
2691.8659197216407,1668.5401553455274,16603.629999999997,8054.99,62377.86606211053,4371.41,-626.94,62198.97,16604.216606997023,1013.9858033301788,-116.06197341839727,16572.232546819727,8056.199094813619,353.05541500593216,-236.32684275691707,8043.778054958226,9271.410598435159,617.8637911000689,-514.6055972554915,9235.420940299406,0.9864359408285529,0.01356217065092121
2720.9500879002017,1674.999850746262,8383.68,11260.329999999998,54399.90878038216,880.09,2175.97,54323.43,8384.84169782446,185.43722750174013,586.0082005058368,8361.118212655314,11261.194948320348,444.8472965247306,765.8187526266424,11225.447172821223,24339.380176898,540.1766281359289,1397.6870778679393,24292.810201439774,-0.21680067008299528,1.2168013656328547
2657.039080643055,1684.4498359999086,9305.269999999999,5803.87,24881.65127057487,2068.4,988.02,24718.51,9306.316657414776,1302.863542820159,486.6674567158298,9200.747314662209,5805.547944171658,573.7249786379894,56.42200342084306,5775.167805641393,5838.558454556723,464.3887053868281,266.72693887026776,5812.270188359283,-0.21680071911381465,1.2168014146637791
2683.3825147463763,1671.7020518022941,17498.51,5489.65,42938.7558656431,1439.68,1236.87,42864.2,17499.066608687324,432.9213153295254,-122.56487309061946,17492.72446495164,5491.423957196874,343.7803430815333,111.72625470567243,5477.735795218694,9118.34823603353,453.7257415285687,196.443993867835,9103.863866905504,-0.18128572973950657,1.1812863490174965
2676.5272092107825,1668.7367977005483,4224.760000000001,6216.92,29936.29895510799,3345.34,-1540.44,29661.98,4227.064822400502,329.521647413936,240.39870145265712,4205.0233062166835,6218.486491227248,815.7170749217696,-376.07221007199126,6151.688356288268,2815.671330122849,316.0513024992873,-241.50947406698165,2783.9378283690885,-0.21670862080293304,1.2167093161551072
2714.293751555484,1681.436736841443,12330.160000000002,7477.229999999999,22573.292640811178,1454.06,-912.25,22445.04,12330.949905857853,330.8533028648609,-270.731484318001,12322.7466979153,7478.532504982228,459.7140017541086,-138.36352038722728,7461.801863204172,5198.11409001147,417.0866236399919,-54.97706894598652,5179.182021117881,-0.2166415738608045,1.2166422690689886
2714.3794349502427,1673.2724673524517,10338.46,20025.43,32132.04827481902,1566.52,-2055.95,31984.18,10339.402068145708,355.14145453690526,-649.5362023520252,10311.921859707021,20025.91637454016,884.6744882275274,-958.6273987127036,19982.898469571843,9742.9397472619,338.0631970715605,-784.7388626294708,9704.395558501557,-0.21665505207128424,1.2166557473084143
2691.023468878305,1673.5198684210475,15104.519999999997,8157.28,48046.27043924949,-1803.97,2376.09,47924.35,15105.164824839736,25.651104038427604,453.8926330770493,15097.676905037408,8158.473935337158,-123.73206831997717,383.71120758889066,8147.310788403737,5685.523377075832,-298.4267800395851,360.62318734450605,5664.502492700017,0.8136802315797584,0.18631825090979656
2724.518089384897,1674.5180649967551,8263.25,4066.64,44425.01990747894,5332.87,1921.41,44030.07,8264.428626207366,788.2150944526893,568.8232757907145,8205.879453678055,4069.0343872687745,431.52903872724744,420.41911481659855,4021.764705478425,14110.380287266387,1242.7666512194955,974.6731841342038,14021.016194657448,-0.21680071887946945,1.2168014144294335
2697.7352491659017,1669.2668300785458,7278.490000000001,10312.75,55013.73951293077,-3652.75,548.6,54864.21,7279.828063579234,-618.7955049230962,221.26222884469826,7248.762089438007,10313.69441653551,-829.1814855607572,63.95756532686427,10279.162419980565,24263.67142557111,-1072.0616725350774,200.71303318009478,24238.743142776464,1.2684015091733851,-0.268404003243034
2684.138580541506,1657.905003309936,8030.320000000001,13207.360000000004,26765.383287793582,-492.3,-2183.5,26620.05,8031.532808721868,-110.37225937687518,-876.3749032568027,7981.5928420147875,13208.097445308915,-534.7050438792397,-729.9945281159676,13176.325613560517,5505.929282217106,-26.7464985815473,-557.1465399607831,5475.82410815243,-0.15860006512558233,1.1586006356838496
2658.7481905987083,1657.905003309936,3559.9999999999995,13207.360000000004,26765.383287793582,-492.3,-2183.5,26620.05,3562.734898245415,-293.8636545619299,-372.4053195867461,3528.251469279223,13208.097445308915,-534.7050438792397,-729.9945281159676,13176.325613560517,5505.929282217106,-26.7464985815473,-557.1465399607831,5475.82410815243,-0.2168007191138146,1.2168014146637793
2660.9119277895497,1679.0407975984383,17807.24,4101.72,39870.163381843566,-972.47,-6032.36,39363.38,17807.786958877732,-519.6761540879547,-2318.150451912712,17648.056878726602,4104.093921144566,-68.65658874912496,-801.3305871167645,4022.09678170136,6768.419185864285,-286.9445325119371,-797.3649440278396,6713.709131448649,-0.21680071911380758,1.2168014146637722
2690.244885874433,1678.2665163793442,3370.0,7370.320000000001,17488.493759683824,1736.12,1034.84,17290.05,3372.8889627700128,321.3736892636075,293.3659865220787,3341.7892437736145,7371.641395074491,346.4853862596142,818.0120208926036,7316.585345171868,7365.07257382273,652.4060058753435,422.41624504112093,7322.618724331012,0.6458326308385264,0.3541662121204575
2691.623606176613,1684.871211695422,21147.76,22616.45,43871.930823915194,1419.18,-114.18,43816.44,21148.220562798557,803.1856977962079,-177.62909968957933,21131.75557438139,22616.880654893055,858.9246311858332,-189.83216900572032,22599.336778499783,9295.947825002879,309.16434742703103,-273.6346525749072,9285.726007867679,0.938364599823322,0.06163361489414156
2732.619243190511,1676.971898989437,19538.53,18137.44,37303.50848728039,850.56,796.61,37247.57,19539.028494684062,430.20049150219694,415.8657415378316,19529.36603638291,18137.977001550524,399.2268858462795,386.0875776304195,18128.934994356863,20189.492433820018,460.9315339843795,356.5148964268697,20180.59870345041,-0.21680071911381457,1.2168014146637791
2709.801523646145,1678.6480423246078,15779.94,9766.67,43231.18455021908,4772.49,1371.61,42912.23,15780.55722586423,1472.424669041208,848.309837484554,15688.175241793606,9767.667216079577,954.7398180890906,813.6817122648906,9685.774973629157,4447.890336460171,458.0176650909224,268.3605419832041,4413.892944779148,-0.207491999120038,1.2074926746785999
2731.153299984245,1670.9294569185417,39083.29,45937.76000000001,122530.17031911202,2133.27,2469.46,122475.31,39083.53920999576,567.7882637785565,885.2363386511917,39069.13782432813,45937.972025033676,811.6364499801751,741.8214161989124,45924.598431310566,50545.94269590464,392.07354418215965,1110.0165867237006,50532.03918877261,-0.21680071911381293,1.2168014146637776
2663.860691469787,1675.069550794832,6312.800000000001,17955.33,42295.40404395021,1141.05,-2610.08,42166.11,6314.342704919949,307.82684250380674,-504.66880387862415,6285.061326146775,17955.872447867183,783.1217820316571,-1487.1928366003242,17876.488837301702,11677.054142358671,224.96600118674033,-550.4760529016417,11661.066842355887,-0.21680071911219173,1.2168014146621562
2663.48327452047,1664.780766347329,10915.19,7349.750000000001,42035.67453494829,-257.46,-1906.62,41958.61,10916.08229591898,-330.1799614336854,-383.2209453671189,10903.462552611421,7351.0750926429655,-367.37219337666744,-229.22950028072154,7336.98279746073,12892.815479901035,-462.4536942193123,-279.45572042398646,12880.731816345888,-0.2168007191129826,1.2168014146629471
2674.1458272080554,1659.287573026448,8436.780000000002,11696.6,30530.272286329186,-407.25,-990.85,30466.32,8437.934387252357,-230.70612163687557,-565.382761816018,8414.652327130372,11697.43268906369,211.56028090835557,-487.82504227305236,11684.507714733782,7753.036380901083,155.68642831125848,-395.36722575538823,7740.125300099357,-0.2167944002870393,1.2167950958234337
2730.7476102655605,1667.4613188916858,19083.259999999995,32623.999999999996,127684.00303050887,459.67,2306.56,127651.45,19083.770386974782,-183.75970385499963,317.957911239303,19079.726082035857,32624.29855115931,-272.76673271806624,417.6652724119544,32620.18592880401,8721.616834347618,-125.61673808075322,377.66899989809866,8711.412446419346,-0.2168007191138108,1.2168014146637753
2699.207036502182,1679.7923234733335,4143.460000000001,5247.19,22663.092739873347,1390.66,942.27,22538.24,4145.810020584129,117.40613274596747,506.51500989603073,4110.707860739275,5249.0458991397445,148.40656976463322,641.1891536328761,5205.752093157553,6302.275659480135,390.8157013932766,568.9644169067918,6262.806169181543,1.0385269513397433,-0.03852895173089876
2705.5587838021,1679.6042688681164,5553.21,15111.559999999996,32694.023917852326,1313.77,-1796.49,32574.91,5554.963659581921,396.0483472586862,-83.44447188612922,5538.440577531306,15112.20452444896,442.5271259819278,-914.6040767422135,15077.364317385734,7776.352613222716,356.84223647817447,-108.32453357779936,7766.151519490873,-0.06503893538850843,1.065039305014937
2667.1786152203276,1667.5357567379963,19951.83,8185.100000000001,35973.19327233266,4267.22,2194.79,35612.69,19952.318168675934,2573.941914586374,1326.0433627555994,19740.616818360246,8186.289877910249,739.458722743526,416.0700329372917,8141.004147833982,12468.291204302044,1435.83103476952,834.1462267936832,12356.431317820632,-0.2168007187027349,1.2168014142526986
2667.824394947169,1675.0029104452326,3924.3,7394.690000000001,25543.41080299575,1188.66,-1793.55,25397.45,3926.7811812190116,323.9884403108357,-197.5665297694107,3905.909554362444,7396.007041050988,457.8208240306277,-186.17410600964263,7378.155561618056,2750.163882312429,-43.65608045665219,-437.43693236629207,2711.210892063015,-0.21680071798917686,1.2168014135391392
2650.4614330235504,1658.5855419605216,6190.11,10291.6,58935.11494275463,-3938.7,-4990.09,58567.76,6191.683274140867,-499.1085546244664,-636.7271479184859,6137.013198772205,10292.546357203148,-521.2771740399676,-827.7147886927894,10245.0079988453,30346.60095947445,-2507.755533858656,-2884.6518205183006,30104.595262105446,-0.21680071911381463,1.2168014146637791
2697.2556815459257,1681.1340666344984,26186.790000000005,6048.530000000001,77768.3535427837,3124.42,-1416.09,77674.47,26187.16193976117,1291.604580794327,-577.5101451825656,26148.541262242194,6050.140090615735,327.81263897115747,-375.06286499935766,6027.983235040493,13960.23771168585,393.4580045419889,-409.3057104380845,13947.98969908082,1.320323680184763,-0.32032628576244254
2701.3463852794303,1668.0652715046854,5898.29,4463.95,29788.271589033156,-1836.6,-2717.08,29560.16,5899.941091169959,-438.9641598481812,-1036.407675948752,5789.904534593234,4466.1313860740565,-493.24504877499317,-516.0763484402023,4406.497943598701,5848.355658753645,-388.138250308559,-376.30570279005565,5821.64295304986,0.5929079615845267,0.40709099503545215
2723.7484696545444,1658.651259306754,19568.43,8730.330000000002,25990.110006639065,1383.52,-556.72,25894.22,19568.927733017867,641.2606648575278,-473.8130589395908,19552.179894062574,8731.445576997878,406.7067663873798,-308.19672966754814,8715.403966018843,5817.374531966785,226.2511124856844,-316.42232522425763,5802.676437317409,-0.2168007183262298,1.2168014138761927
2735.6061155474877,1684.1899388133334,10613.49,3124.0500000000006,23192.809453910493,1994.49,83.63,23045.28,10614.407658238672,606.790750062387,-169.90786858796372,10594.767872961193,3127.1661864499265,352.6192495490841,73.70177962901118,3103.21061402976,5656.202261727896,285.47130659805043,384.7218061333485,5634.149388807035,-0.21680071911381468,1.2168014146637791
2711.3286093278593,1670.1441554548517,7291.170000000002,8305.010000000002,33317.09461192857,-2384.48,2356.07,33105.93,7292.505736992998,-69.89675808312099,484.5780598130569,7274.713638079324,8306.182700571653,-79.70357485419265,551.98219903625,8286.262975081263,5609.756525516574,-382.2250740212829,428.684540878313,5578.532233267222,-0.21415285585352362,1.2141535457169383
2714.8679373504515,1660.639033625309,2707.3900000000003,7669.260000000001,23854.656577869653,-385.12,3446.31,23542.76,2710.9851654473828,34.20299496837873,430.5798792090318,2672.7124302579823,7670.529897130692,306.1851382165832,868.4654558857985,7613.774843050482,10098.024588936974,-57.566759990343655,992.5448588136072,10047.992904803768,-0.21671344684245192,1.2167141422049905
2670.4577682307704,1676.807830372938,7509.629999999999,11716.059999999998,22973.42674736401,788.42,864.95,22882.24,7510.926886348699,343.4781597009638,487.3934935554554,7485.920990308957,11716.89130609206,708.0197390663141,296.23919785396237,11690.89441874946,6976.306290815775,455.84414990911233,229.43317367815405,6956.215640555545,-0.21680066545156093,1.2168013610014103
2705.8237141075087,1677.032498194284,4236.349999999999,28374.239999999998,45249.91909838182,-1567.44,-5101.59,44902.78,4238.648520186094,-187.03196250796796,-606.8002208443554,4188.493029656807,28374.5832662398,-1207.4419734553637,-3556.077830548562,28124.613595948642,15424.38147925795,-808.2720827164881,-1915.8754754667325,15282.937592796296,-0.0852465109396823,1.0852469239638907
2720.9817327099477,1664.6775213235387,4384.51,14137.26,30598.31232040421,2062.57,-5134.89,30047.7,4386.730889315616,-31.440248416624396,-762.7435576681611,4317.5411655379985,14137.948941157474,609.5532176913491,-2172.8949522177463,13955.969787479076,6121.501316121377,136.2030816680917,-871.4232532869233,6056.019207554988,-0.21680067220737845,1.2168013677572422
2729.9390626541876,1657.1639176617382,5373.77,4353.01,21046.98822256999,-315.25,-1065.38,20952.21,5375.582198057786,-358.79119631265695,-73.17363851120653,5361.27955892766,4355.246952272141,133.4251618119568,-338.8466529730575,4337.750192445897,6441.582224894421,201.85433455858498,-616.896194814103,6407.276762973782,-0.2168007191137965,1.2168014146637611
2668.688529205061,1680.4009938106858,2649.97,4521.48,23292.714654535223,-2769.92,985.06,23045.26,2653.6429594193282,-371.2989040504785,-17.662376380511187,2623.7694573288077,4523.633644049412,-744.7068974433251,258.4017387426423,4452.237815830947,11636.48705055249,-981.773363340857,696.2779643387156,11573.230706328754,-0.2168007149430074,1.216801410492963
2653.0400631355833,1670.6024362486726,4551.34,2593.17,26525.08914029508,-604.19,-2422.59,26354.42,4553.4795212865265,124.77104470421179,-376.0421987415754,4534.0622235219735,2596.923295762848,140.6752480321497,-448.6693748686224,2550.1837023136377,6535.46049762951,181.54692804714443,-371.7032197925722,6520.862012817974,-0.21680071911381468,1.2168014146637793
2672.0129087159144,1666.724032345944,9533.26,6302.43,50798.32043964643,5859.36,-294.35,50430.87,9534.28162908857,1249.7593747554715,63.4100618435218,9450.773878200018,6303.975242660442,745.8762822903623,-296.25910011971314,6251.12174109679,28184.29558384732,3473.415010451085,-330.9301316807918,27967.139843316454,-0.216800279803852,1.216800975352873
2678.708852643989,1670.8239733736166,10246.16,9083.59,45138.12295366856,-918.67,2086.5,45049.54,10247.110553750055,-332.781588927849,380.3993434055604,10233.68689667645,9084.662197532485,144.07233133457214,550.6916726973906,9065.737098166126,10339.84202805709,128.1525811463244,722.2443928003602,10312.846026340836,-0.2159866912608432,1.2159873850626022
2734.655273925993,1672.5710747229846,5537.679999999999,2350.19,31167.57135128273,1584.18,929.0,31068.43,5539.438576026975,376.83795549012365,101.44089718030958,5523.911900282378,2354.3306885983056,24.427299150044284,360.762180854237,2322.2073533647954,7399.896348704878,398.12267890321573,-103.56533800186189,7387.134665735254,-0.21680071911381465,1.2168014146637791
2656.841512885755,1674.7419204164144,3675.95,8700.02,22520.132323689842,714.06,-2015.48,22355.75,3678.598694839622,249.54696152248155,-255.84260535491228,3658.5351273125843,8701.139463057456,143.49149305021263,-1157.8724554868697,8621.431990606145,9877.38613779859,444.4345824071333,-978.7001545970088,9817.733998706239,-0.21680071911381465,1.2168014146637791
2697.776036320431,1682.2286556826928,31639.340000000004,26778.63,104210.44802913621,-2844.09,-2691.74,104123.26,31639.647842395087,-1017.4817670806419,-765.998288084564,31613.69660624822,26778.993719557046,-898.2333276770217,-814.6431756819804,26751.159938631914,51491.99915551226,-1034.298165980156,-1297.3742285826224,51465.071111298,1.263411774609881,-0.2634142579635783
2702.876577694192,1671.8790327053812,8989.939999999999,8840.82,22269.797949054228,1370.21,1816.24,22090.1,8991.023365489367,396.6086922810101,385.7036562999247,8972.901171768472,8841.92163658872,390.2616735134224,409.8228981910345,8822.68889232216,3917.0873254467756,455.9075033254933,235.93596642099416,3880.795759655551,0.2853545938995714,0.7146450232218768
2713.433107459179,1663.7835646502338,3678.28,4195.199999999999,31096.6266922459,2669.48,-224.98,30936.31,3680.927018235457,398.2867503480445,112.59011713179999,3654.9192724903573,4197.521053571472,193.7372353746569,-402.3043553022075,4171.369095313223,3241.116524791383,165.95410602268305,-315.45916283260135,3218.4314694240684,-0.21642224887642858,1.2164229436135907
2722.6033411968874,1666.3637808113094,4434.760000000001,5834.64,37618.10032711912,69.88,2904.28,37468.72,4436.955737076468,-114.81384101361903,575.707011517684,4395.73378133857,5836.309097775389,171.32239984703554,549.8193014006436,5806.149438372902,12378.05689953297,313.92654429722216,556.2739270279483,12360.777568413507,-0.21680071461347747,1.2168014101634324
2659.1499779445826,1681.5086975689776,8368.56,8507.74,29653.581084425536,1329.32,-1727.59,29525.51,8369.723796444883,629.1872444573918,-865.6614107236909,8299.852420796165,8508.884760224208,152.16534197256428,-419.5713655066651,8496.025275712711,4213.392305681465,335.58387030878276,-288.5315471331134,4187.759278981726,-0.2168007191138145,1.2168014146637791
2697.3168596034957,1681.5086975689776,12152.35,8368.56,29653.581084425536,1329.32,-1727.59,29525.51,12153.151462796626,637.2954074647615,-498.51771621272263,12125.384330929324,8369.723796444883,629.1872444573918,-865.6614107236909,8299.852420796165,4213.392305681465,335.58387030878276,-288.5315471331134,4187.759278981726,1.3144075489505027,-0.3144101418227014
2708.041721627468,1676.8401086567555,3683.49,5400.91,19955.849348000702,-309.94,2298.81,19749.52,3686.1332769279747,185.8410696076157,335.14919827983204,3663.5006062288953,5402.713094666028,442.4346138076486,974.4585244889952,5293.818189610936,2545.329488529093,110.03732745993007,410.84956081197146,2505.6569348069356,-0.18313538476732752,1.1831360080176356
2715.650762907238,1671.4345634813228,5906.479999999999,6063.35,28145.344219938048,1418.88,-2238.6,27970.38,5908.128802385385,131.08382175060825,-696.3299626540212,5863.825338905099,6064.956156286356,388.187858261134,29.010577625546567,6050.841412199172,3043.1922639353184,189.81481834189836,-311.6991767527636,3018.0048306869026,-0.2167633614465217,1.216764056916257
2676.047984413974,1683.3090922346971,34541.53,12544.8,53126.48372889081,-3163.06,2729.94,52935.17,34541.81197760296,-1748.6850694562484,1735.6089139036428,34453.54926515901,12545.576391508512,-612.1843806823009,478.1091616143714,12520.728770867494,10439.892999297252,-387.852600900355,531.1312866633142,10418.222295473552,-0.21674563341948466,1.2167463288511473
2665.509739005804,1676.378313508022,6999.6399999999985,2705.11,23824.982525687188,-1672.6,-1697.93,23646.12,7001.031358648221,-181.8309862144275,-300.27120330320736,6990.832198423813,2708.7081916064294,-257.3119003660988,-375.29257960237584,2666.5644896993176,7907.461841076173,-205.45964084194213,-524.4200348967385,7886.142452167854,-0.21680071908639995,1.2168014146363644
2661.248714755793,1662.0306104280992,18118.81,6658.8600000000015,31333.64934963848,-71.04,-2371.21,31199.48,18119.34755368625,392.95606521562695,-898.8682737195275,18092.233062101834,6660.322548854207,135.9771213902503,-497.2910530047915,6638.872519536719,3486.664614223137,23.201951009438687,-372.21602376540136,3463.8514803642543,-0.2168007191138011,1.2168014146637656
2676.4675509475646,1682.6175293274464,4731.829999999999,5166.59,37499.86196939796,1715.67,-843.89,37413.27,4733.887947984803,397.24687215360666,-477.94475114813093,4690.839891353586,5168.474841118584,526.7212204772313,-262.80317212489325,5132.947640169347,4178.601568476682,264.7260905641269,-278.1052070544725,4158.582535393981,-0.21671426914365666,1.2167149645079613
2702.7960556293933,1675.4842583565137,18933.560000000005,9913.19,52019.11947638772,441.39,1545.15,51967.29,18934.07442228893,-182.2364872140023,1037.0560648660232,18904.258749145723,9914.172478390508,-5.846071844635166,510.42708559070275,9900.038686279937,16632.4356117099,-93.70707955519008,676.4418267510185,16617.824161446737,0.3000285126685318,0.6999710729392153
2696.3353724485423,1660.629850388099,4435.42,5844.51,35888.20242079143,-1597.72,-1395.82,35786.93,4437.615410507739,-223.51971520827732,-356.27983880353145,4415.433635530642,5846.176279866677,175.93353494539946,-376.3587374910124,5829.725433680028,3289.4323242887626,-5.205581103204453,-382.27101611676096,3264.1579056568994,1.3830382721360184,-0.3830410123995261
2733.7903616630583,1670.3187570041832,12142.900000000001,4114.31,33315.91724992425,-3121.8,-3089.93,32982.83,12143.70208647988,-1535.3010113007185,-1598.6594016769932,11938.892718009018,4116.676661006518,-196.90758401746209,-523.6580968779883,4076.0957271671787,4727.240842983967,-454.62077005319236,-317.3071000959413,4692.543254149603,-0.21680071911381468,1.2168014146637793
2737.1147942533726,1685.0745532467581,13936.69,2987.08,31019.11876637697,3079.13,2018.09,30753.74,13937.388855566733,1354.5889558389679,780.4301310635021,13848.73083453308,2990.3389241983546,229.40136241454493,282.76535289772613,2964.804495497633,15192.101134694161,1711.647996390272,1422.6104348160472,15027.537975956193,-0.21680071911381465,1.2168014146637791
2728.6859828218935,1683.890881262815,12587.58,3970.98,23433.153071955556,-2655.42,-3793.22,22909.33,12588.353753036008,-1096.254570378733,-1770.243607815309,12414.170682825043,3973.432032333732,-320.87970534958623,-571.9282815510456,3916.4545721681534,5642.776360770979,-372.43994677246826,-1154.4747036490942,5509.076306168073,-0.2168007191136278,1.2168014146635926
2668.6129554676136,1676.9149501390584,7901.780000000001,5458.290000000001,28408.080618313514,-760.03,-1427.56,28312.39,7903.012534696866,146.72102436030863,-518.0835874382844,7883.412300890887,5460.074145950381,-413.98699160841954,-187.05535911837777,5439.352423543092,4814.213596349436,-203.81723205797954,-479.03354777023816,4783.947950399009,-0.2168007153885666,1.2168014109385232
2710.9105346121305,1673.941381888864,4610.989999999999,12328.720000000001,50536.68210210579,1066.6,2277.13,50446.32,4613.101856156632,282.4553851884493,222.87672434846877,4596.930900200887,12329.509998113299,259.08089393745115,242.19926298214304,12323.617709333874,16712.17281753859,-16.270897960004056,932.7103083336646,16685.533466650315,-0.21301626558545367,1.2130169530079276
2665.6399038324366,1679.7597298423368,7670.91,12989.909999999998,30992.774870993726,-3301.79,696.4,30762.7,7672.179624023134,-758.6177258224892,190.42315230433417,7630.930375598666,12990.65978937466,-919.2136270753543,-144.19842371491765,12956.543324918766,5605.797752218303,-635.8796766944487,143.8017072009962,5566.009934358099,-0.21680071907976553,1.2168014146297301
2698.8950519945847,1677.6032755095105,17119.39,4139.8,31812.454198257008,2326.43,-1956.57,31622.42,17119.95893474268,1131.825895471989,-556.3540174976131,17072.871882657975,4142.152097059665,397.89057438153037,-9.076375561218875,4120.624315589205,7833.01355086762,628.2886586879338,-293.48589245299735,7801.008955589987,1.094967321623677,-0.09496944322614562
2711.0325930276144,1677.4904619700455,7686.7,8031.29,46746.20819021046,-2762.9,1655.0,46604.95,7687.967016394891,-858.8643602726216,355.5216508728341,7630.289198740383,8032.502662263846,-845.6273623664828,265.77779740326076,7982.223724659976,13046.766564769057,-833.1704535644027,492.49670632284335,13010.069632018442,-0.21338756072709442,1.2133882489469616
2685.01590390459,1671.339133748886,7486.589999999998,20899.690000000002,55697.58151363666,5317.13,-8008.33,54836.32,7487.89087682745,805.5005016466856,-1345.939704062066,7320.426564277264,20900.15602935241,1785.1234608243637,-3379.12489774338,20547.308613323676,13340.550123123698,1340.8587717027954,-1789.5880525543378,13151.055850725537,-0.11785417617255876,1.1178546592249736
2734.7561471688923,1678.7153570513376,5768.860000000001,1784.6000000000001,25197.005535797307,-1153.05,-3292.27,24897.84,5770.548124292508,-247.76341163363415,-636.537915866044,5728.278840377848,1790.0494728291096,-318.7141069686949,-206.2488971879835,1743.7545327332882,9048.75645255058,-892.1624713203728,-1321.8829927608713,8906.01958568569,-0.21680071911381468,1.2168014146637793
2676.276508861035,1667.2094949345749,8166.52,9617.28,51975.191870461626,-1414.94,4929.61,51694.66,8167.712584657701,-9.343294003504624,605.8911078035617,8144.007464310292,9618.292704715104,-370.0445321816695,697.4913741308065,9584.813374584588,23398.70626507534,-636.3800162789191,1691.883469694331,23328.36311711467,-0.21673022236911615,1.2167309177676822
2718.818450693924,1673.942501999539,11582.16,11459.96,62645.245082991736,-3376.84,1382.96,62516.47,11583.000916031035,-1123.7524015790777,286.37150242328437,11523.957747585899,11460.80988223676,-743.3427632023654,-9.295265318530747,11435.822591140408,8858.219609468697,-658.0911426601282,328.4568418735068,8826.528584068528,-0.21679986628812128,1.2168005618362543
2732.3767527707228,1675.3472028208844,4993.029999999999,3560.19,39501.233878111954,-2175.26,-4231.06,39177.89,4994.980333902803,-395.5681961284068,-167.28185768182095,4974.524214756847,3562.9247524015677,-303.51331131877373,-291.55653853190466,3535.226625096559,12035.98926501581,-985.7265627902216,-841.1132692467929,11965.217475838323,-0.2168007191138145,1.216801414663779
2690.367955707143,1676.2630312691153,5122.490000000001,4713.93,57154.22904677396,407.35,6191.45,56791.69,5124.391061899529,-287.5942894136263,487.4078887145655,5091.132180057348,4715.995759124024,35.20807937728676,637.6360727922628,4670.472853440069,13921.779639168828,389.576623463282,1491.8463508736909,13835.428901419566,0.6724703495241728,0.3275284362276589
2660.1893937295713,1683.4247829945473,14796.91,5259.750000000001,33229.40314525376,-1509.15,2407.52,33064.87,14797.568229384035,-714.742500134085,1387.2049587105573,14714.392651724736,5261.601468913793,-317.93125079116226,298.330259964614,5241.6494387034145,3768.8752061159803,-2.9018395717960943,514.5538705147383,3730.9739020482843,-0.2168007191138129,1.2168014146637773
2711.2136702715675,1670.4601910850795,14374.499999999998,11783.84,47913.84511011822,1371.58,-2166.36,47816.02,14375.177571257187,355.839727803334,-976.3372845183957,14336.889266677625,11784.666524801445,280.4955636186295,-248.1587856840993,11777.887102595187,6983.814789323654,-10.484648068996256,-549.425768523367,6960.762203482992,-0.21387683458547654,1.213877523856108
2698.6343903953994,1674.837156263259,21777.379999999997,15138.790000000003,56369.147702858696,-96.17,-2777.67,56275.67,21777.827247445406,-68.24423557856728,-907.3350562828017,21758.363115922817,15139.433365198178,33.12543504043149,-744.1527969645992,15120.45310116146,6720.279497467033,310.8797759464725,-180.89481141098233,6709.19573428977,1.1392479700340774,-0.13925018673364598
2714.0842129287585,1678.079333643079,19536.85,4804.72,55848.17793428985,2623.36,4129.46,55608.17,19537.348537549195,287.96792834516265,1458.8024297698946,19480.181669215563,4806.746741152042,187.43923591888935,473.2585017456847,4777.680106679765,8571.546390428965,518.9145970474015,459.75439787751503,8542.322933646528,-0.21660346040436995,1.216604155530702
2713.6239331790825,1676.914279264149,13501.77,12828.35,47750.31228639767,4048.6,1327.97,47530.26,13502.49136596931,1253.5260180237285,862.8356287926176,13415.736294841354,12829.10923165267,1005.9059532781735,849.8381468216713,12760.583531322784,7867.558089876157,664.6995196863339,376.03757383176276,7829.160915065897,-0.21648728370313136,1.2164879785799623
2651.2940700130366,1683.2006713401704,4228.39,4673.99,22766.54842729789,-1044.57,1232.24,22646.7,4230.6928448276385,-242.64600732124777,290.20443928460696,4211.435181817544,4676.073403538034,-388.44307744502555,-13.818575588720165,4657.800290121265,5831.590448717724,-694.2287602401143,527.0630562671508,5764.392263679998,-0.21680071911381468,1.2168014146637791
2692.1054258005133,1658.967148559627,5959.97,3015.91,20128.67134443056,-2466.48,2120.84,19794.69,5961.6040086604025,-1060.3927615634955,611.063067097798,5832.959070673544,3019.13780461836,-246.57331181456513,262.78764848041914,2994.3041565290137,7095.622806891285,-797.3135886979381,1209.3610856848093,6944.790844093785,1.032274297482739,-0.03227628444569823
2688.3184380217294,1662.7474251971887,6191.43,13051.170000000004,25340.04593582853,-3985.07,-513.45,24964.15,6193.0029388072935,-1035.231723060434,-208.29448973663543,6100.714231138407,13051.916270190974,-2454.7795040747974,-85.2255216146125,12817.949624091207,8847.021001533554,-1225.7813903299973,-278.9015105872747,8756.139250657952,0.25847144644916353,0.7415282284065197
2671.6313760342514,1674.1886841094106,6591.29,3862.9799999999996,32127.142990911907,1837.29,1907.38,31974.0,6592.767538695398,411.5730350050992,214.02262274401795,6574.945309119344,3865.500541401562,66.434203515959,358.51544710916517,3845.733694782741,12210.987666494297,263.7038136302515,357.0013507094493,12202.120724299057,-0.21680045357276803,1.2168011491221622
2693.5201393349626,1661.13003705309,11231.01,25136.56,39338.83537946821,-2181.18,557.39,39239.22,11231.877206205372,-713.4280377973022,64.22210206765392,11208.143538364893,25136.94747953251,-1453.1959535346168,69.3097925823164,25094.42301203363,18380.299921602906,-1033.572847781904,292.7686627592247,18348.35030544529,1.2572069088430708,-0.2572093788712015
2723.7656018952166,1671.8020217716455,25730.849999999995,9685.03,38667.799256133,-2720.35,-2157.49,38475.3,25731.228530283497,-2474.5422594377783,-1478.6961666993416,25568.86270398715,9686.035621247518,-779.4168505262566,-421.4018045914005,9644.41475638117,6001.713085717757,-366.09386354006045,-377.2371175592835,5977.018274048848,-0.21680071834692408,1.216801413896887
2729.7593685652823,1668.0488601956479,19004.08,12778.34,47182.11888891913,-1924.5,-2092.34,47066.85,19004.59251343148,-914.62326092903,-804.5896689721337,18964.998191446022,12779.102202845697,-269.2864000727957,-235.70723759424803,12773.327682655037,6909.9996919881105,-285.7952908432904,-541.7301171129556,6881.385421558989,-0.21680071911378918,1.2168014146637538
2681.4663310035107,1680.0842240792927,8768.87,5273.949999999999,17823.110905557427,1220.09,-120.59,17701.34,8769.980674555434,777.7251211778926,21.678410911163347,8734.286161976215,5275.796485619566,514.1002070830065,223.30795731239056,5244.080771286629,4033.525478694261,416.65377910162346,-241.54123873474325,4002.237535485721,-0.2080381215879629,1.2080387983193772
2663.71990656777,1664.9058531939645,15360.84,9996.79,41085.01376443848,1351.11,1179.78,41012.06,15361.474065361559,140.60284874795664,440.46136086426134,15353.879970030688,9997.764263037801,105.74492653426142,471.5566284339833,9985.102035572409,3724.356129960691,215.3676884874156,311.1771654757337,3702.4497509138564,-0.21680071911254856,1.2168014146625132
2682.049068474988,1686.355611963407,7937.619999999998,16944.09,50541.68561911445,-1636.09,-416.97,50485.32,7938.846970409226,-288.8948703255043,200.98883483251632,7929.814279450197,16944.664820623504,-781.8014093667996,180.71313557742639,16925.07947535378,9137.845956437206,-618.6203027203634,139.3048127215023,9114.749138545438,-0.20308973431351424,1.2030904004177743
2686.078007763956,1658.2382971093148,5480.77,9941.26,23473.457680684794,684.03,597.94,23397.18,5482.546830449857,412.4189840321973,31.399420208357338,5465.140844563884,9942.239704552278,317.77850713780697,430.3505406789416,9926.855777140041,3567.2914022792947,330.61379317338594,-155.70548062164747,3545.7775334428256,-0.04011879335158183,1.0401191094595248
2655.276306488586,1666.4886738288983,6393.079999999999,4003.0600000000004,28417.12070835819,-941.23,1333.26,28321.23,6394.603337313094,-209.8172097949822,304.23501802661445,6382.389025958868,4005.492394047925,-239.48870076079987,301.4408764150692,3984.5034726843974,13248.475197651072,-807.192967012175,117.5886076199234,13222.60290339856,-0.21680071911381468,1.2168014146637793
2693.819075048958,1673.9356319763315,9110.11,3788.34,21795.025851686893,1992.72,1748.02,21568.37,9111.179076676946,404.7073380859778,627.049502720464,9079.4892534623,3790.9101691778155,543.534748828789,349.8626553140026,3732.7852944995725,5955.3557235127255,497.56141622096186,230.44438587292504,5928.41545950584,1.2925105034745052,-0.29251304932061917
2667.5861509904935,1680.3667010506963,4368.750000000001,11293.85,41809.44465754119,2659.1,-2520.64,41614.68,4370.9788969607,203.55556708900417,-533.6685273308008,4331.251504651243,11294.71238136128,675.1040006519014,-828.1460474535911,11243.196010694237,8235.132819674238,151.6873430824847,-680.7570315721781,8204.358196496154,-0.2168007183359094,1.2168014138858723
2736.8696374252636,1670.5715339368141,6014.270000000001,12146.710000000001,23103.559553499545,2472.28,1812.81,22838.24,6015.889259957815,558.1496664917337,199.77646354265931,5984.981365661013,12147.511834909887,826.6868130633954,428.9909361086296,12110.950396807995,4279.596515744886,373.4595492727553,358.383678690914,4245.8868904276005,-0.21680071911381465,1.2168014146637791
2726.17912791411,1661.0588490479429,5856.539999999999,9029.150000000001,33785.35417178427,51.99,-1112.28,33726.12,5858.202858110647,-382.1903493865228,-98.64255293363472,5843.223507207861,9030.228661428004,22.484477436822814,-472.89815972220805,9016.729534665314,3844.644223758002,-131.7537318579084,-413.3147680208275,3817.541238647908,-0.216800719098499,1.2168014146484636
2651.66012863108,1675.386821005895,10966.43,11586.319999999998,42514.523726374966,-2759.6,5934.62,41974.31,10967.318127057124,-318.08896911097605,1605.488832110721,10843.60696274988,11587.160614126988,-562.043740113998,1242.1262131866567,11505.826369588289,3913.049893468747,-290.64373689212005,632.7880951352101,3848.0624940949874,-0.21680071911381465,1.2168014146637793
2714.3228521955325,1663.4016352041265,7706.24,9995.58,40984.60521775096,-3256.08,-3622.98,40660.09,7707.503804266059,-444.03846313933894,-705.7493227495039,7660.9974986480365,9996.554380964262,-534.4720786210623,-1163.0899125145922,9913.28305804799,14900.753671045497,-681.407673384769,-1102.5418153876878,14843.620351449777,-0.21664627879065554,1.2166469740089443
2681.735388848373,1671.678722123363,12852.179999999997,4527.46,50317.597186126644,-108.64,5527.21,49985.04,12852.93782399867,146.45691516969626,1446.0649205722984,12769.728946609992,4529.610800805714,161.67720644207898,721.373271136582,4466.696221616911,10731.237666927136,158.43227111388455,1562.3330897608423,10614.800819657807,-0.2060002895098148,1.2060009618647818
2692.287277173666,1668.3216866060334,4350.47,5643.96,34568.754923052984,1985.21,2656.04,34368.88,4352.7082576340645,397.56473214818595,662.2590141000654,4281.3484444617625,5645.685470939359,559.6185891399656,421.979531831787,5600.271849741227,4968.540716505781,18.31380795303501,522.748502885861,4938.958949370693,1.0658168538887143,-0.06581891288765185
2685.069053948067,1676.1981535606817,9346.75,3751.300000000001,34917.58177367671,578.72,-3887.97,34655.11,9347.792012966258,-507.5667382416075,-1271.4790811866444,9245.942489267145,3753.895529336929,24.948147698756646,-507.8896282288594,3716.6755851787707,4817.232327724683,-75.35836487607368,-519.6602840571121,4786.493669704044,-0.11477347072392366,1.1147739471602172
2720.870560161939,1664.38036518106,8541.56,10985.74,34840.12530360073,-1374.16,1812.25,34725.95,8542.700228193411,-435.7707157211253,490.53032202210636,8516.32145471839,10986.626566092786,-287.924954780967,248.62530150983807,10979.15151673678,12952.332008236037,-57.16108822243882,743.5729481658865,12930.091120218338,-0.21680066432304682,1.2168013598728937
2655.762344510582,1665.2682967017479,10802.51,9296.37,20328.343152050045,-1437.77,903.11,20188.75,10803.411602603863,-943.334076022633,308.9999915370177,10756.805386653821,9297.417659332928,-566.3827781854168,619.8546088284872,9258.373830721519,4137.274871406996,-250.68518092113308,275.2566330804574,4118.125074886841,-0.21680071911381468,1.2168014146637793
2724.624504064634,1672.5860964386857,7639.61,16081.08,41653.621660611934,1339.93,-1184.32,41581.59,7640.884824892714,259.7501961571414,-273.69011826405057,7630.286004263597,16081.68566791354,657.7787420949277,-366.04172488204097,16063.451514182541,2846.4638407637945,385.6775202721379,-139.92766975770425,2813.280920774339,-0.21680071891614267,1.2168014144661068
2651.5080909864523,1686.3801469419286,7512.390000000002,10820.11,31795.836249215085,777.65,874.88,31729.5,7513.686409963874,501.3633020486166,126.16839570230026,7494.5793669414725,10821.010136178405,498.49238556131445,383.5952406108321,10801.81190564889,6656.363418953008,551.1656296076636,214.14736064304725,6628.5783820264805,-0.21680071911381465,1.2168014146637791
2711.6850813962733,1667.9775178340983,33328.72,15468.420000000002,61818.036337525315,-2252.52,-818.34,61749.04,33329.012238492396,-1102.72517708148,-832.7925555086891,33300.060519190054,15469.049655734376,-617.5543720764472,-287.34097945097227,15453.416420178986,22102.060686270317,-481.8367956265795,-486.4182507274346,22091.01258910826,-0.214862945020741,1.2148636364091427
2698.2842081892595,1661.4037739213186,3414.27,6882.459999999998,24726.950096631408,-2291.0,1413.27,24523.78,3417.1215354557953,-247.27406499455162,310.2954345848303,3391.1372595276766,6883.875042937353,-1011.1504331404583,959.2573854742736,6739.855764151997,4691.746440727138,-435.1337434890727,270.05521384957996,4661.623484972789,1.1941412664147564,-0.1941436010031426
2667.6871889472272,1672.8312825865373,7945.200000000001,7255.0599999999995,27080.135764175928,-1756.25,22.14,26971.29,7946.4258000169975,-262.33124826250986,-284.96163626858305,7935.753412376179,7256.402384017562,-732.661859790741,-119.56652885635812,7216.980396813144,5235.880567352142,-419.6433961020453,197.26747531627342,5213.439394841978,-0.21680071820393326,1.216801413753896
2718.8576970414665,1668.015287699869,14300.109999999999,16264.439999999999,48025.330884065756,1379.62,-2132.64,47929.1,14300.791095854653,199.16948507749493,-399.1385290228186,14293.151015887415,16265.038840063546,290.9884264988993,-791.8930568809704,16242.54412448085,20416.967058681264,176.2211556101702,-614.566165817079,20406.477365097788,-0.2167999081342706,1.2168006036824937
2717.026085766217,1672.428324323611,3544.67,3837.48,25829.53815595819,-1060.06,1598.39,25703.88,3547.4167170034834,240.3802385559179,352.0743144287163,3518.941094552643,3840.0172793329684,-174.88592990068523,578.9590575722466,3789.5216151353234,4919.870120976343,-284.4072777076718,432.99386343905786,4890.528689897548,-0.2167929690808175,1.2167936646141382
2710.4888549925467,1659.9551951784722,7764.01,2292.74,27066.605158619357,3361.81,747.67,26795.24,7765.264402148569,940.8671060424676,18.71966192167502,7706.767801298079,2296.9842539242127,449.1059335592911,140.86700680114947,2243.906650116426,3768.6353707510325,527.5447897437703,-325.6752711545353,3714.6688567182705,-0.21142847182795288,1.2114291558404817
2720.692159763298,1672.7289081018248,13017.16,6655.829999999999,49260.906970254815,-734.19,-1369.88,49207.96,13017.908219862964,221.60100032628736,-289.83447845405317,13012.04608957998,6657.293214518627,165.16457720575997,-330.6320590650554,6645.560630440055,15014.558716235244,-340.12984204674717,-294.3978942789953,15007.169455246827,-0.21680064890935913,1.216801344459173
2736.6944752359327,1670.5672689239248,2776.9099999999994,16450.800000000003,23243.994584892243,-259.42,2216.9,23076.19,2780.4152753277285,-12.170535127080813,440.49615920155884,2741.7228452021536,16451.39205645455,544.7270908182056,1673.6635945172447,16356.37316794027,3211.4343392284654,-30.222206588522884,357.3632966060036,3188.2924352179193,-0.21680071911381468,1.2168014146637793
2713.550707650195,1676.7522923794918,16385.45,7461.94,30186.723639244123,839.16,-738.61,30119.38,16386.044417664558,369.0219332291534,-484.22298423223674,16374.135782289002,7463.245173433322,508.4301155753359,-288.5298496121562,7439.005169178123,8736.664910460728,496.80815405026806,-154.64694680404938,8720.040125046062,-0.21646368576772243,1.2164643805938742
2704.666092305563,1657.4726242083875,15709.69,6992.379999999999,35863.02827089899,-789.68,-2159.0,35750.87,15710.30998584292,-664.9506254218632,-1001.4734980026178,15663.628295980772,6993.772802970923,-417.73161935412566,-316.54114653186355,6972.709664193976,2877.6566834971427,-36.169564179211505,-403.76491943175034,2845.539260907036,0.021012282655407732,0.978987902167465
2675.0479099860386,1668.3535296811415,15915.060000000001,11611.86,54436.59566972295,3889.07,3927.52,54129.56,15915.67198577477,915.2412176700419,1153.1052085535225,15846.823552216532,11612.698765350618,754.523812859821,770.9436609193726,11561.644880686992,26064.69368739206,2238.8330100811613,2127.9287080063004,25880.655386388757,-0.2167826285647479,1.2167833240758612
2662.1009171413925,1668.3535296811415,15915.060000000001,4176.91,54436.59566972295,3889.07,3927.52,54129.56,15915.67198577477,915.2412176700419,1153.1052085535225,15846.823552216532,4179.241211425319,198.01620123819202,330.8778235873898,4159.072805085921,26064.69368739206,2238.8330100811613,2127.9287080063004,25880.655386388757,-0.21680071911374738,1.2168014146637118
2726.998301183207,1684.3006709017247,3554.0900000000006,3634.74,21485.576246412384,761.98,1179.1,21373.4,3556.8294425338668,272.08239837792365,237.83207961841705,3535.6700635802117,3637.418703253142,108.71723958545245,352.86427443198136,3615.9372551589595,6425.02612253645,-203.0241191002063,865.2322074892215,6361.732087591155,-0.21680071911004373,1.2168014146600086
2722.65627847093,1657.7664944135645,9251.899999999998,9793.95,33970.101145279215,1762.07,1260.16,33860.4,9252.952694420075,750.1382956986909,173.77851423425173,9219.801905427077,9794.944438723263,524.3963024027859,806.4526033096702,9746.59424204893,6604.664876530509,304.8619784077594,518.3660906152494,6575.748926648702,-0.21680071495521064,1.2168014105051663
2718.237751606701,1667.7311683841613,2375.31,11296.61,22587.59385080447,1578.84,-3053.78,22262.07,2379.406974705204,93.54285017596101,-459.2542878459067,2328.6117818082316,11297.472170679412,1278.0550420363543,-1459.506956236016,11128.783053250887,3240.327257789832,4.480179251514972,-364.0137358630947,3216.7863949129214,-0.2167989414995371,1.216799637045684
2683.092757731564,1683.9113694017499,15243.849999999997,12632.870000000003,55907.95204268263,-4889.04,-1568.13,55646.22,15244.488931337635,-1243.0534188011477,-289.81366432988693,15190.318925568165,12633.640979229853,-847.2138107724784,-328.83489749798105,12600.138920104171,27951.028467975477,-2701.237359346014,-928.5866877663658,27804.34419212538,-0.18766915093420344,1.187669783921226
2686.7860565261462,1671.7982085168055,6794.590000000001,4379.15,28789.729803436847,-776.87,-1766.98,28676.26,6796.023338929597,2.858191165270391,-463.7080973391348,6778.747664525166,4381.373606265022,-343.68958050844594,-395.2397741900096,4347.714079335043,6768.869090186025,-429.3599089753474,-44.90378064916043,6753.646609347287,0.033264536164720054,0.9667356223452188
2662.2282015588403,1662.802002644933,11207.779999999999,6494.590000000002,57905.53695069323,-1289.36,1768.01,57840.28,11208.649003496173,-70.89629146637323,552.5355029801574,11193.927405616081,6496.089533194243,-58.08536623114458,363.8236303342444,6484.131223559578,24707.024222112945,34.431561200068636,959.6191423933776,24687.96288732721,-0.21680071911372947,1.216801414663694
2723.8149956558946,1678.2337441488185,8432.03,16223.19,42296.434954538425,1329.83,785.85,42234.89,8433.185037462168,-8.867681483689509,358.7521459995333,8424.39007779589,16223.790362651873,8.402301305963293,378.13988883614996,16218.780268623894,8784.538833659726,182.06234145578668,445.2728818411851,8770.246742790107,-0.21680071840365844,1.2168014139536214
2667.3307103719476,1671.8741728969917,2264.6899999999996,2953.0699999999997,25710.715399196888,-1682.79,-3007.38,25423.8,2268.986723468379,-300.6098482423501,-543.4837873323854,2177.8613105858135,2956.366415056796,-189.31460831456502,-359.30639828465354,2925.009626673118,5631.079947725461,-47.07601943551295,-912.6742502527968,5554.672896203665,-0.21680071859169364,1.2168014141416572
2661.2577089675547,1672.9381339427946,10824.080000000002,9922.76,38598.845245180586,916.39,-1261.78,38531.03,10824.979806058569,609.2955344241138,-234.24454568155397,10804.37857032737,9923.74153093357,471.3932088838041,-146.73482101424128,9910.470390073328,8259.659306870699,440.468336703642,66.72512214812201,8246.455439328816,-0.2168007191138009,1.2168014146637656
2687.674468474656,1679.5057308624348,13989.5,3473.6800000000003,35192.178966311534,3670.3,5562.25,34514.62,13990.196217536613,1906.211571779976,2090.532128050604,13700.443172218931,3476.4828055918492,485.46563471118384,551.1340361057768,3395.147586506399,13782.44671249542,1740.4668637468508,1829.3389072620648,13548.455693774715,0.15278834094436172,0.8472115608763097
2672.594067630187,1660.8129033698772,5997.25,11085.040000000003,29770.060780624885,2296.48,664.06,29627.41,5998.873854122603,542.9475914110731,254.56291496072802,5967.194751121134,11085.918624849084,1220.80498759622,335.5502098099753,11012.499854281803,8428.635660981898,354.4672144479683,34.651297112910214,8419.950797474405,-0.21679978781788395,1.2168004833658483
2716.436788510901,1662.0500142895821,7741.520000000001,10901.609999999999,27442.89719275463,-459.26,-952.01,27372.12,7742.778045738867,-354.81249033045003,-63.354324647234165,7733.125256754478,10902.503407349881,-86.14296472094144,-673.9821860425398,10880.414881548699,11472.818992561319,-78.30220125817607,-380.9909520018177,11465.374409092397,-0.21678531791081868,1.2167860134277078
2725.098172687907,1684.5936453634883,14659.010000000002,25665.55,73164.1142757069,-364.91,2299.59,73107.65,14659.674421189435,-164.06047539124899,710.0521281673563,14640.884000489843,25665.929493351214,-354.72769360967044,354.49418169457846,25660.65001010362,10781.773412202454,-115.30659372706559,521.9033788793639,10767.612512040789,-0.2168007190218431,1.2168014145718073
2714.8161943914056,1680.116662616022,10577.559999999998,13084.19,49328.23126172881,-1714.73,-2166.84,49222.11,10578.480775081824,-69.82173706516122,-513.6059750775269,10564.85254894728,13084.934386968693,-676.3260798781174,-848.7085475142561,13039.1067482076,4702.071878988641,-391.8533943836143,-114.95654971007423,4682.225529487959,-0.2167085227172377,1.2167092180692014
2674.9109438298115,1678.4984361030065,1817.8099999999993,5306.42,33150.069469865375,-3162.43,1080.72,32938.44,1823.1602099858833,-341.90939746652947,126.64924747594144,1780.868082744438,5308.255190886717,-927.9191314777602,315.71972916477796,5215.110771062651,5519.075066646201,-408.70841473092935,236.49467418798892,5497.0662481826475,-0.21678525408288685,1.2167859495996387
2736.2135786771973,1667.7596499495962,5025.079999999999,3656.7900000000004,48093.99384248412,-2165.4,-2218.9,47964.97,5027.017899468407,-302.4977926984841,-266.0879177819337,5008.9042026997295,3659.452562785283,-350.7172248808169,-299.4960100980345,3627.5904774667247,9745.269508231971,-900.5163004249116,-877.9481339627841,9662.767476227518,-0.21680071911381465,1.2168014146637791
2673.5140907884033,1677.1390073575055,9268.940000000002,12279.960000000001,25803.022023755282,715.42,-2218.38,25642.74,9269.990759368417,429.6674347068726,-762.265710425314,9227.54493924913,12280.753134754228,537.7983354451696,-718.6483661640385,12247.11129523212,3491.750540456144,-9.707406164286683,-438.3005596831444,3461.306150465024,-0.21679777410997578,1.2167984696536154
2693.266282513692,1675.43643567874,2893.52,7982.300000000001,26234.455292187788,-976.91,807.94,26150.19,2896.884178833488,-281.3269424062707,214.20008757647688,2871.8341637982107,7983.520103636978,-779.0400549838952,-49.660566309636614,7944.038249585944,5885.7650689843,-356.8016596083008,-46.92714223893654,5873.094662196587,1.223571058673845,-0.2235734564656396
2730.628698730059,1667.0182212561444,18540.63,7093.27,44701.30434065543,-1578.85,-336.65,44641.03,18541.15532409121,-819.2295579178367,-298.7940405997171,18520.11192864762,7094.642996520387,-433.15127850822256,-183.28795544283898,7077.65955582891,21980.88311576165,-476.51258121627814,-428.6595405761752,21971.093039533003,-0.21680071911380983,1.2168014146637744
2696.0131046057327,1673.0070980124383,20042.5,6910.01,52656.939786696676,4522.28,5280.25,52169.17,20042.9859603098,2010.3468044374818,2214.538583638211,19818.075861129044,6911.419402356926,631.4839178690797,601.867197694095,6854.722615679833,3791.409830231464,128.86998241107003,554.3531642393409,3745.850189547255,1.3929729466286749,-0.39297570822788486
